<?xml version="1.0" encoding="US-ASCII"?>


<!--
	Bayesian network in XMLBIF v0.3 (BayesNet Interchange Format)
	Produced by JavaBayes (http://www.cs.cmu.edu/~javabayes/
	Number of nodes:5
	Output created Tue May 20 12:58:39 GMT-05:00 2008
-->



<BIF VERSION="0.3">
<NETWORK>
<NAME>cn51</NAME>
<!-- Variables -->
<VARIABLE TYPE="nature">
    <NAME>node0</NAME>
    <OUTCOME>state0</OUTCOME>
    <OUTCOME>state1</OUTCOME>
    <OUTCOME>state2</OUTCOME>
    <OUTCOME>state3</OUTCOME>
    <PROPERTY>position = (44, 270)</PROPERTY>
</VARIABLE>
<!-- Variables -->
<VARIABLE TYPE="nature">
    <NAME>node1</NAME>
    <OUTCOME>state0</OUTCOME>
    <OUTCOME>state1</OUTCOME>
    <PROPERTY>position = (15, 150)</PROPERTY>
</VARIABLE>
<!-- Variables -->
<VARIABLE TYPE="nature">
    <NAME>node2</NAME>
    <OUTCOME>state0</OUTCOME>
    <OUTCOME>state1</OUTCOME>
    <PROPERTY>position = (164, 284)</PROPERTY>
</VARIABLE>
<!-- Variables -->
<VARIABLE TYPE="nature">
    <NAME>node3</NAME>
    <OUTCOME>state0</OUTCOME>
    <OUTCOME>state1</OUTCOME>
    <OUTCOME>state2</OUTCOME>
    <PROPERTY>position = (284, 270)</PROPERTY>
</VARIABLE>
<!-- Variables -->
<VARIABLE TYPE="nature">
    <NAME>node4</NAME>
    <OUTCOME>state0</OUTCOME>
    <OUTCOME>state1</OUTCOME>
    <PROPERTY>position = (45, 30)</PROPERTY>
</VARIABLE>
<!-- Probability Distributions -->
 <DEFINITION>
      <FOR>node0</FOR>
      <GIVEN>node4</GIVEN>
      <GIVEN>node2</GIVEN>
     <TABLE>0.9984 0.0016 0.386 0.614 0.5313 0.4687 0.7207 0.2793 </TABLE>
 </DEFINITION>
<!-- Probability Distributions -->
 <DEFINITION>
      <FOR>node1</FOR>
      <GIVEN>node4</GIVEN>
     <TABLE>0.3169 0.6831 0.4851 0.5149 </TABLE>
 </DEFINITION>
<!-- Probability Distributions -->
 <DEFINITION>
      <FOR>node2</FOR>
      <GIVEN>node4</GIVEN>
      <GIVEN>node1</GIVEN>
     <TABLE>0.9631 0.0369 0.9962 0.0038 0.7974 0.2026 0.7337 0.2663 </TABLE>
 </DEFINITION>
<!-- Probability Distributions -->
 <DEFINITION>
      <FOR>node3</FOR>
      <GIVEN>node2</GIVEN>
      <GIVEN>node4</GIVEN>
     <TABLE>0.0672 0.9328 0.9064 0.0936 0.3983 0.6017 0.8741 0.1259 </TABLE>
 </DEFINITION>
<!-- Probability Distributions -->
 <DEFINITION>
      <FOR>node4</FOR>
     <TABLE>0.8283 0.1717 </TABLE>
 </DEFINITION>
</NETWORK>
</BIF>
