<?xml version="1.0" encoding="US-ASCII"?>


<!--
	Bayesian network in XMLBIF v0.3 (BayesNet Interchange Format)
	Produced by JavaBayes (http://www.cs.cmu.edu/~javabayes/
	Number of nodes:5
	Output created Tue May 20 12:58:39 GMT-05:00 2008
-->



<BIF VERSION="0.3">
<NETWORK>
<NAME>InternalNetwork</NAME>
<!-- Variables -->
<VARIABLE TYPE="nature">
    <NAME>node0</NAME>
    <OUTCOME>state0</OUTCOME>
    <OUTCOME>state1</OUTCOME>
    <PROPERTY>position = (15, 390)</PROPERTY>
</VARIABLE>
<!-- Variables -->
<VARIABLE TYPE="nature">
    <NAME>node1</NAME>
    <OUTCOME>state0</OUTCOME>
    <OUTCOME>state1</OUTCOME>
    <OUTCOME>state2</OUTCOME>
    <PROPERTY>position = (45, 30)</PROPERTY>
</VARIABLE>
<!-- Variables -->
<VARIABLE TYPE="nature">
    <NAME>node2</NAME>
    <OUTCOME>state0</OUTCOME>
    <OUTCOME>state1</OUTCOME>
    <OUTCOME>state2</OUTCOME>
    <PROPERTY>position = (165, 44)</PROPERTY>
</VARIABLE>
<!-- Variables -->
<VARIABLE TYPE="nature">
    <NAME>node3</NAME>
    <OUTCOME>state0</OUTCOME>
    <OUTCOME>state1</OUTCOME>
    <PROPERTY>position = (15, 150)</PROPERTY>
</VARIABLE>
<!-- Variables -->
<VARIABLE TYPE="nature">
    <NAME>node4</NAME>
    <OUTCOME>state0</OUTCOME>
    <OUTCOME>state1</OUTCOME>
    <PROPERTY>position = (44, 270)</PROPERTY>
</VARIABLE>
<!-- Probability Distributions -->
 <DEFINITION>
      <FOR>node0</FOR>
      <GIVEN>node2</GIVEN>
      <GIVEN>node3</GIVEN>
      <GIVEN>node1</GIVEN>
     <TABLE>0.3613 0.6387 0.0194 0.9806 0.3307 0.6693 0.624 0.376 0.1146 0.8854 0.0936 0.9064 0.7945 0.2055 0.6325 0.3675 </TABLE>
 </DEFINITION>
<!-- Probability Distributions -->
 <DEFINITION>
      <FOR>node1</FOR>
     <TABLE>0.2217 0.7783 </TABLE>
 </DEFINITION>
<!-- Probability Distributions -->
 <DEFINITION>
      <FOR>node2</FOR>
     <TABLE>0.1261 0.8739 </TABLE>
 </DEFINITION>
<!-- Probability Distributions -->
 <DEFINITION>
      <FOR>node3</FOR>
      <GIVEN>node4</GIVEN>
     <TABLE>0.6492 0.3508 0.2449 0.7551 </TABLE>
 </DEFINITION>
<!-- Probability Distributions -->
 <DEFINITION>
      <FOR>node4</FOR>
      <GIVEN>node1</GIVEN>
      <GIVEN>node2</GIVEN>
     <TABLE>0.6585 0.3415 0.5956 0.4044 0.1064 0.8936 0.3336 0.6664 </TABLE>
 </DEFINITION>
</NETWORK>
</BIF>
