<?xml version="1.0" encoding="US-ASCII"?>


<!--
	Bayesian network in XMLBIF v0.3 (BayesNet Interchange Format)
	Produced by JavaBayes (http://www.cs.cmu.edu/~javabayes/
	Number of nodes:5
	Output created Tue May 20 12:58:39 GMT-05:00 2008
-->



<BIF VERSION="0.3">
<NETWORK>
<NAME>cn52</NAME>
<!-- Variables -->
<VARIABLE TYPE="nature">
    <NAME>node0</NAME>
    <OUTCOME>state0</OUTCOME>
    <OUTCOME>state1</OUTCOME>
    <PROPERTY>position = (15, 390)</PROPERTY>
</VARIABLE>
<!-- Variables -->
<VARIABLE TYPE="nature">
    <NAME>node1</NAME>
    <OUTCOME>state0</OUTCOME>
    <OUTCOME>state1</OUTCOME>
    <OUTCOME>state2</OUTCOME>
    <PROPERTY>position = (45, 30)</PROPERTY>
</VARIABLE>
<!-- Variables -->
<VARIABLE TYPE="nature">
    <NAME>node2</NAME>
    <OUTCOME>state0</OUTCOME>
    <OUTCOME>state1</OUTCOME>
    <OUTCOME>state2</OUTCOME>
    <PROPERTY>position = (165, 44)</PROPERTY>
</VARIABLE>
<!-- Variables -->
<VARIABLE TYPE="nature">
    <NAME>node3</NAME>
    <OUTCOME>state0</OUTCOME>
    <OUTCOME>state1</OUTCOME>
    <PROPERTY>position = (15, 150)</PROPERTY>
</VARIABLE>
<!-- Variables -->
<VARIABLE TYPE="nature">
    <NAME>node4</NAME>
    <OUTCOME>state0</OUTCOME>
    <OUTCOME>state1</OUTCOME>
    <PROPERTY>position = (44, 270)</PROPERTY>
</VARIABLE>
<!-- Probability Distributions -->
 <DEFINITION>
      <FOR>node0</FOR>
      <GIVEN>node2</GIVEN>
      <GIVEN>node3</GIVEN>
      <GIVEN>node1</GIVEN>
     <TABLE>0.5261 0.4739 0.5572 0.4428 0.4691 0.5309 0.8208 0.1792 0.1681 0.8319 0.8532 0.1468 0.9978 0.0022 0.9799 0.0201 </TABLE>
 </DEFINITION>
<!-- Probability Distributions -->
 <DEFINITION>
      <FOR>node1</FOR>
     <TABLE>0.8794 0.1206 </TABLE>
 </DEFINITION>
<!-- Probability Distributions -->
 <DEFINITION>
      <FOR>node2</FOR>
     <TABLE>0.4534 0.5466 </TABLE>
 </DEFINITION>
<!-- Probability Distributions -->
 <DEFINITION>
      <FOR>node3</FOR>
      <GIVEN>node4</GIVEN>
     <TABLE>0.8824 0.1176 0.3787 0.6213 </TABLE>
 </DEFINITION>
<!-- Probability Distributions -->
 <DEFINITION>
      <FOR>node4</FOR>
      <GIVEN>node1</GIVEN>
      <GIVEN>node2</GIVEN>
     <TABLE>0.9758 0.0242 0.7191 0.2809 0.6674 0.3326 0.5469 0.4531 </TABLE>
 </DEFINITION>
</NETWORK>
</BIF>
