<?xml version="1.0" encoding="US-ASCII"?>


<!--
	Bayesian network in XMLBIF v0.3 (BayesNet Interchange Format)
	Produced by JavaBayes (http://www.cs.cmu.edu/~javabayes/
	Number of nodes:10
	Output created Fri Jan 13 13:18:53 CET 2017
-->



<BIF VERSION="0.3">
<NETWORK>
<NAME>InternalNetwork</NAME>
<!-- Variables -->
<VARIABLE TYPE="nature">
    <NAME>node0</NAME>
    <OUTCOME>state0</OUTCOME>
    <OUTCOME>state1</OUTCOME>
    <OUTCOME>state2</OUTCOME>
    <PROPERTY>position = (15, 150)</PROPERTY>
</VARIABLE>
<!-- Variables -->
<VARIABLE TYPE="nature">
    <NAME>node1</NAME>
    <OUTCOME>state0</OUTCOME>
    <OUTCOME>state1</OUTCOME>
    <OUTCOME>state2</OUTCOME>
    <PROPERTY>position = (135, 164)</PROPERTY>
</VARIABLE>
<!-- Variables -->
<VARIABLE TYPE="nature">
    <NAME>node2</NAME>
    <OUTCOME>state0</OUTCOME>
    <OUTCOME>state1</OUTCOME>
    <OUTCOME>state2</OUTCOME>
    <OUTCOME>state3</OUTCOME>
    <PROPERTY>position = (44, 270)</PROPERTY>
</VARIABLE>
<!-- Variables -->
<VARIABLE TYPE="nature">
    <NAME>node3</NAME>
    <OUTCOME>state0</OUTCOME>
    <OUTCOME>state1</OUTCOME>
    <OUTCOME>state2</OUTCOME>
    <PROPERTY>position = (255, 150)</PROPERTY>
</VARIABLE>
<!-- Variables -->
<VARIABLE TYPE="nature">
    <NAME>node4</NAME>
    <OUTCOME>state0</OUTCOME>
    <OUTCOME>state1</OUTCOME>
    <PROPERTY>position = (45, 30)</PROPERTY>
</VARIABLE>
<!-- Variables -->
<VARIABLE TYPE="nature">
    <NAME>node5</NAME>
    <OUTCOME>state0</OUTCOME>
    <OUTCOME>state1</OUTCOME>
    <OUTCOME>state2</OUTCOME>
    <OUTCOME>state3</OUTCOME>
    <PROPERTY>position = (375, 135)</PROPERTY>
</VARIABLE>
<!-- Variables -->
<VARIABLE TYPE="nature">
    <NAME>node6</NAME>
    <OUTCOME>state0</OUTCOME>
    <OUTCOME>state1</OUTCOME>
    <OUTCOME>state2</OUTCOME>
    <PROPERTY>position = (495, 149)</PROPERTY>
</VARIABLE>
<!-- Variables -->
<VARIABLE TYPE="nature">
    <NAME>node7</NAME>
    <OUTCOME>state0</OUTCOME>
    <OUTCOME>state1</OUTCOME>
    <OUTCOME>state2</OUTCOME>
    <OUTCOME>state3</OUTCOME>
    <PROPERTY>position = (164, 284)</PROPERTY>
</VARIABLE>
<!-- Variables -->
<VARIABLE TYPE="nature">
    <NAME>node8</NAME>
    <OUTCOME>state0</OUTCOME>
    <OUTCOME>state1</OUTCOME>
    <PROPERTY>position = (615, 164)</PROPERTY>
</VARIABLE>
<!-- Variables -->
<VARIABLE TYPE="nature">
    <NAME>node9</NAME>
    <OUTCOME>state0</OUTCOME>
    <OUTCOME>state1</OUTCOME>
    <OUTCOME>state2</OUTCOME>
    <PROPERTY>position = (284, 270)</PROPERTY>
</VARIABLE>
<!-- Probability Distributions -->
 <DEFINITION>
      <FOR>node0</FOR>
      <GIVEN>node1</GIVEN>
     <TABLE>0.771 0.0674 0.1616 0.5281 0.3236 0.1483 0.4992 0.4564 0.0444 </TABLE>
 </DEFINITION>
 <DEFINITION>
      <FOR>node1</FOR>
      <GIVEN>node8</GIVEN>
     <TABLE>0.3168 0.5854 0.0978 0.7907 0.0771 0.1322 </TABLE>
 </DEFINITION>
 <DEFINITION>
      <FOR>node2</FOR>
      <GIVEN>node4</GIVEN>
      <GIVEN>node8</GIVEN>
     <TABLE>0.0057 0.5382 0.0448 0.4113 0.0075 0.8397 0.1378 0.015 0.2098 0.0374 0.1937 0.5591 0.01 0.5959 0.0108 0.3833 </TABLE>
 </DEFINITION>
 <DEFINITION>
      <FOR>node3</FOR>
      <GIVEN>node7</GIVEN>
     <TABLE>0.0573 0.6123 0.3304 0.8616 0.1241 0.0143 0.6122 0.0862 0.3016 0.4162 0.2723 0.3115 </TABLE>
 </DEFINITION>
 <DEFINITION>
      <FOR>node4</FOR>
     <TABLE>0.7653 0.2347 </TABLE>
 </DEFINITION>
 <DEFINITION>
      <FOR>node5</FOR>
      <GIVEN>node4</GIVEN>
     <TABLE>0.0192 0.1307 0.4304 0.4197 0.0139 0.1209 0.3207 0.5445 </TABLE>
 </DEFINITION>
 <DEFINITION>
      <FOR>node6</FOR>
      <GIVEN>node3</GIVEN>
     <TABLE>0.0404 0.0788 0.8808 0.6429 0.3393 0.0178 0.2316 0.0928 0.6756 </TABLE>
 </DEFINITION>
 <DEFINITION>
      <FOR>node7</FOR>
      <GIVEN>node5</GIVEN>
      <GIVEN>node4</GIVEN>
     <TABLE>0.7611 0.072 0.0927 0.0742 0.0665 0.4063 0.0896 0.4376 0.153 0.1264 0.5006 0.22 0.0946 0.6464 0.0279 0.2311 0.2297 0.0574 0.6352 0.0777 0.5052 0.1956 0.069 0.2302 0.0471 0.8202 0.0135 0.1192 0.6568 0.0367 0.3001 0.0064 </TABLE>
 </DEFINITION>
 <DEFINITION>
      <FOR>node8</FOR>
      <GIVEN>node3</GIVEN>
     <TABLE>0.1755 0.8245 0.9339 0.0661 0.2396 0.7604 </TABLE>
 </DEFINITION>
 <DEFINITION>
      <FOR>node9</FOR>
      <GIVEN>node0</GIVEN>
      <GIVEN>node1</GIVEN>
     <TABLE>0.0524 0.723 0.2246 0.4142 0.2514 0.3344 0.0013 0.7733 0.2254 0.3473 0.1445 0.5082 0.4556 0.1032 0.4412 0.2979 0.1818 0.5203 0.751 0.0228 0.2262 0.5119 0.3223 0.1658 0.0231 0.5788 0.3981 </TABLE>
 </DEFINITION>
</NETWORK>
</BIF>
