<?xml version="1.0" encoding="US-ASCII"?>


<!--
	Bayesian network in XMLBIF v0.3 (BayesNet Interchange Format)
	Produced by JavaBayes (http://www.cs.cmu.edu/~javabayes/
	Number of nodes:50
	Output created Thu Mar 02 16:35:48 CET 2017
-->



<BIF VERSION="0.3">
<NETWORK>
<NAME>InternalNetwork</NAME>
<!-- Variables -->
<VARIABLE TYPE="nature">
    <NAME>node0</NAME>
    <OUTCOME>state0</OUTCOME>
    <OUTCOME>state1</OUTCOME>
    <OUTCOME>state2</OUTCOME>
    <PROPERTY>position = (45, 30)</PROPERTY>
</VARIABLE>
<!-- Variables -->
<VARIABLE TYPE="nature">
    <NAME>node1</NAME>
    <OUTCOME>state0</OUTCOME>
    <OUTCOME>state1</OUTCOME>
    <OUTCOME>state2</OUTCOME>
    <PROPERTY>position = (44, 270)</PROPERTY>
</VARIABLE>
<!-- Variables -->
<VARIABLE TYPE="nature">
    <NAME>node2</NAME>
    <OUTCOME>state0</OUTCOME>
    <OUTCOME>state1</OUTCOME>
    <OUTCOME>state2</OUTCOME>
    <PROPERTY>position = (15, 150)</PROPERTY>
</VARIABLE>
<!-- Variables -->
<VARIABLE TYPE="nature">
    <NAME>node3</NAME>
    <OUTCOME>state0</OUTCOME>
    <OUTCOME>state1</OUTCOME>
    <OUTCOME>state2</OUTCOME>
    <PROPERTY>position = (135, 164)</PROPERTY>
</VARIABLE>
<!-- Variables -->
<VARIABLE TYPE="nature">
    <NAME>node4</NAME>
    <OUTCOME>state0</OUTCOME>
    <OUTCOME>state1</OUTCOME>
    <OUTCOME>state2</OUTCOME>
    <PROPERTY>position = (255, 150)</PROPERTY>
</VARIABLE>
<!-- Variables -->
<VARIABLE TYPE="nature">
    <NAME>node5</NAME>
    <OUTCOME>state0</OUTCOME>
    <OUTCOME>state1</OUTCOME>
    <OUTCOME>state2</OUTCOME>
    <PROPERTY>position = (15, 390)</PROPERTY>
</VARIABLE>
<!-- Variables -->
<VARIABLE TYPE="nature">
    <NAME>node6</NAME>
    <OUTCOME>state0</OUTCOME>
    <OUTCOME>state1</OUTCOME>
    <OUTCOME>state2</OUTCOME>
    <PROPERTY>position = (165, 44)</PROPERTY>
</VARIABLE>
<!-- Variables -->
<VARIABLE TYPE="nature">
    <NAME>node7</NAME>
    <OUTCOME>state0</OUTCOME>
    <OUTCOME>state1</OUTCOME>
    <OUTCOME>state2</OUTCOME>
    <PROPERTY>position = (135, 404)</PROPERTY>
</VARIABLE>
<!-- Variables -->
<VARIABLE TYPE="nature">
    <NAME>node8</NAME>
    <OUTCOME>state0</OUTCOME>
    <OUTCOME>state1</OUTCOME>
    <OUTCOME>state2</OUTCOME>
    <PROPERTY>position = (375, 135)</PROPERTY>
</VARIABLE>
<!-- Variables -->
<VARIABLE TYPE="nature">
    <NAME>node9</NAME>
    <OUTCOME>state0</OUTCOME>
    <OUTCOME>state1</OUTCOME>
    <OUTCOME>state2</OUTCOME>
    <PROPERTY>position = (495, 149)</PROPERTY>
</VARIABLE>
<!-- Variables -->
<VARIABLE TYPE="nature">
    <NAME>node10</NAME>
    <OUTCOME>state0</OUTCOME>
    <OUTCOME>state1</OUTCOME>
    <OUTCOME>state2</OUTCOME>
    <PROPERTY>position = (615, 164)</PROPERTY>
</VARIABLE>
<!-- Variables -->
<VARIABLE TYPE="nature">
    <NAME>node11</NAME>
    <OUTCOME>state0</OUTCOME>
    <OUTCOME>state1</OUTCOME>
    <OUTCOME>state2</OUTCOME>
    <PROPERTY>position = (285, 30)</PROPERTY>
</VARIABLE>
<!-- Variables -->
<VARIABLE TYPE="nature">
    <NAME>node12</NAME>
    <OUTCOME>state0</OUTCOME>
    <OUTCOME>state1</OUTCOME>
    <OUTCOME>state2</OUTCOME>
    <PROPERTY>position = (164, 284)</PROPERTY>
</VARIABLE>
<!-- Variables -->
<VARIABLE TYPE="nature">
    <NAME>node13</NAME>
    <OUTCOME>state0</OUTCOME>
    <OUTCOME>state1</OUTCOME>
    <OUTCOME>state2</OUTCOME>
    <PROPERTY>position = (405, 15)</PROPERTY>
</VARIABLE>
<!-- Variables -->
<VARIABLE TYPE="nature">
    <NAME>node14</NAME>
    <OUTCOME>state0</OUTCOME>
    <OUTCOME>state1</OUTCOME>
    <OUTCOME>state2</OUTCOME>
    <PROPERTY>position = (525, 29)</PROPERTY>
</VARIABLE>
<!-- Variables -->
<VARIABLE TYPE="nature">
    <NAME>node15</NAME>
    <OUTCOME>state0</OUTCOME>
    <OUTCOME>state1</OUTCOME>
    <OUTCOME>state2</OUTCOME>
    <PROPERTY>position = (735, 150)</PROPERTY>
</VARIABLE>
<!-- Variables -->
<VARIABLE TYPE="nature">
    <NAME>node16</NAME>
    <OUTCOME>state0</OUTCOME>
    <OUTCOME>state1</OUTCOME>
    <OUTCOME>state2</OUTCOME>
    <PROPERTY>position = (855, 135)</PROPERTY>
</VARIABLE>
<!-- Variables -->
<VARIABLE TYPE="nature">
    <NAME>node17</NAME>
    <OUTCOME>state0</OUTCOME>
    <OUTCOME>state1</OUTCOME>
    <OUTCOME>state2</OUTCOME>
    <PROPERTY>position = (975, 149)</PROPERTY>
</VARIABLE>
<!-- Variables -->
<VARIABLE TYPE="nature">
    <NAME>node18</NAME>
    <OUTCOME>state0</OUTCOME>
    <OUTCOME>state1</OUTCOME>
    <OUTCOME>state2</OUTCOME>
    <PROPERTY>position = (1095, 164)</PROPERTY>
</VARIABLE>
<!-- Variables -->
<VARIABLE TYPE="nature">
    <NAME>node19</NAME>
    <OUTCOME>state0</OUTCOME>
    <OUTCOME>state1</OUTCOME>
    <OUTCOME>state2</OUTCOME>
    <PROPERTY>position = (645, 44)</PROPERTY>
</VARIABLE>
<!-- Variables -->
<VARIABLE TYPE="nature">
    <NAME>node20</NAME>
    <OUTCOME>state0</OUTCOME>
    <OUTCOME>state1</OUTCOME>
    <OUTCOME>state2</OUTCOME>
    <PROPERTY>position = (1215, 150)</PROPERTY>
</VARIABLE>
<!-- Variables -->
<VARIABLE TYPE="nature">
    <NAME>node21</NAME>
    <OUTCOME>state0</OUTCOME>
    <OUTCOME>state1</OUTCOME>
    <OUTCOME>state2</OUTCOME>
    <PROPERTY>position = (284, 270)</PROPERTY>
</VARIABLE>
<!-- Variables -->
<VARIABLE TYPE="nature">
    <NAME>node22</NAME>
    <OUTCOME>state0</OUTCOME>
    <OUTCOME>state1</OUTCOME>
    <OUTCOME>state2</OUTCOME>
    <PROPERTY>position = (765, 30)</PROPERTY>
</VARIABLE>
<!-- Variables -->
<VARIABLE TYPE="nature">
    <NAME>node23</NAME>
    <OUTCOME>state0</OUTCOME>
    <OUTCOME>state1</OUTCOME>
    <OUTCOME>state2</OUTCOME>
    <PROPERTY>position = (885, 15)</PROPERTY>
</VARIABLE>
<!-- Variables -->
<VARIABLE TYPE="nature">
    <NAME>node24</NAME>
    <OUTCOME>state0</OUTCOME>
    <OUTCOME>state1</OUTCOME>
    <OUTCOME>state2</OUTCOME>
    <PROPERTY>position = (404, 255)</PROPERTY>
</VARIABLE>
<!-- Variables -->
<VARIABLE TYPE="nature">
    <NAME>node25</NAME>
    <OUTCOME>state0</OUTCOME>
    <OUTCOME>state1</OUTCOME>
    <OUTCOME>state2</OUTCOME>
    <PROPERTY>position = (1005, 29)</PROPERTY>
</VARIABLE>
<!-- Variables -->
<VARIABLE TYPE="nature">
    <NAME>node26</NAME>
    <OUTCOME>state0</OUTCOME>
    <OUTCOME>state1</OUTCOME>
    <OUTCOME>state2</OUTCOME>
    <PROPERTY>position = (1335, 135)</PROPERTY>
</VARIABLE>
<!-- Variables -->
<VARIABLE TYPE="nature">
    <NAME>node27</NAME>
    <OUTCOME>state0</OUTCOME>
    <OUTCOME>state1</OUTCOME>
    <OUTCOME>state2</OUTCOME>
    <PROPERTY>position = (524, 269)</PROPERTY>
</VARIABLE>
<!-- Variables -->
<VARIABLE TYPE="nature">
    <NAME>node28</NAME>
    <OUTCOME>state0</OUTCOME>
    <OUTCOME>state1</OUTCOME>
    <OUTCOME>state2</OUTCOME>
    <PROPERTY>position = (644, 284)</PROPERTY>
</VARIABLE>
<!-- Variables -->
<VARIABLE TYPE="nature">
    <NAME>node29</NAME>
    <OUTCOME>state0</OUTCOME>
    <OUTCOME>state1</OUTCOME>
    <OUTCOME>state2</OUTCOME>
    <PROPERTY>position = (1125, 44)</PROPERTY>
</VARIABLE>
<!-- Variables -->
<VARIABLE TYPE="nature">
    <NAME>node30</NAME>
    <OUTCOME>state0</OUTCOME>
    <OUTCOME>state1</OUTCOME>
    <OUTCOME>state2</OUTCOME>
    <PROPERTY>position = (1455, 149)</PROPERTY>
</VARIABLE>
<!-- Variables -->
<VARIABLE TYPE="nature">
    <NAME>node31</NAME>
    <OUTCOME>state0</OUTCOME>
    <OUTCOME>state1</OUTCOME>
    <OUTCOME>state2</OUTCOME>
    <PROPERTY>position = (764, 270)</PROPERTY>
</VARIABLE>
<!-- Variables -->
<VARIABLE TYPE="nature">
    <NAME>node32</NAME>
    <OUTCOME>state0</OUTCOME>
    <OUTCOME>state1</OUTCOME>
    <OUTCOME>state2</OUTCOME>
    <PROPERTY>position = (884, 255)</PROPERTY>
</VARIABLE>
<!-- Variables -->
<VARIABLE TYPE="nature">
    <NAME>node33</NAME>
    <OUTCOME>state0</OUTCOME>
    <OUTCOME>state1</OUTCOME>
    <OUTCOME>state2</OUTCOME>
    <PROPERTY>position = (1245, 30)</PROPERTY>
</VARIABLE>
<!-- Variables -->
<VARIABLE TYPE="nature">
    <NAME>node34</NAME>
    <OUTCOME>state0</OUTCOME>
    <OUTCOME>state1</OUTCOME>
    <OUTCOME>state2</OUTCOME>
    <PROPERTY>position = (1365, 15)</PROPERTY>
</VARIABLE>
<!-- Variables -->
<VARIABLE TYPE="nature">
    <NAME>node35</NAME>
    <OUTCOME>state0</OUTCOME>
    <OUTCOME>state1</OUTCOME>
    <OUTCOME>state2</OUTCOME>
    <PROPERTY>position = (1575, 164)</PROPERTY>
</VARIABLE>
<!-- Variables -->
<VARIABLE TYPE="nature">
    <NAME>node36</NAME>
    <OUTCOME>state0</OUTCOME>
    <OUTCOME>state1</OUTCOME>
    <OUTCOME>state2</OUTCOME>
    <PROPERTY>position = (1485, 29)</PROPERTY>
</VARIABLE>
<!-- Variables -->
<VARIABLE TYPE="nature">
    <NAME>node37</NAME>
    <OUTCOME>state0</OUTCOME>
    <OUTCOME>state1</OUTCOME>
    <OUTCOME>state2</OUTCOME>
    <PROPERTY>position = (1695, 150)</PROPERTY>
</VARIABLE>
<!-- Variables -->
<VARIABLE TYPE="nature">
    <NAME>node38</NAME>
    <OUTCOME>state0</OUTCOME>
    <OUTCOME>state1</OUTCOME>
    <OUTCOME>state2</OUTCOME>
    <PROPERTY>position = (1815, 135)</PROPERTY>
</VARIABLE>
<!-- Variables -->
<VARIABLE TYPE="nature">
    <NAME>node39</NAME>
    <OUTCOME>state0</OUTCOME>
    <OUTCOME>state1</OUTCOME>
    <OUTCOME>state2</OUTCOME>
    <PROPERTY>position = (1004, 269)</PROPERTY>
</VARIABLE>
<!-- Variables -->
<VARIABLE TYPE="nature">
    <NAME>node40</NAME>
    <OUTCOME>state0</OUTCOME>
    <OUTCOME>state1</OUTCOME>
    <OUTCOME>state2</OUTCOME>
    <PROPERTY>position = (1935, 149)</PROPERTY>
</VARIABLE>
<!-- Variables -->
<VARIABLE TYPE="nature">
    <NAME>node41</NAME>
    <OUTCOME>state0</OUTCOME>
    <OUTCOME>state1</OUTCOME>
    <OUTCOME>state2</OUTCOME>
    <PROPERTY>position = (2055, 164)</PROPERTY>
</VARIABLE>
<!-- Variables -->
<VARIABLE TYPE="nature">
    <NAME>node42</NAME>
    <OUTCOME>state0</OUTCOME>
    <OUTCOME>state1</OUTCOME>
    <OUTCOME>state2</OUTCOME>
    <PROPERTY>position = (2175, 150)</PROPERTY>
</VARIABLE>
<!-- Variables -->
<VARIABLE TYPE="nature">
    <NAME>node43</NAME>
    <OUTCOME>state0</OUTCOME>
    <OUTCOME>state1</OUTCOME>
    <OUTCOME>state2</OUTCOME>
    <PROPERTY>position = (2295, 135)</PROPERTY>
</VARIABLE>
<!-- Variables -->
<VARIABLE TYPE="nature">
    <NAME>node44</NAME>
    <OUTCOME>state0</OUTCOME>
    <OUTCOME>state1</OUTCOME>
    <OUTCOME>state2</OUTCOME>
    <PROPERTY>position = (1605, 44)</PROPERTY>
</VARIABLE>
<!-- Variables -->
<VARIABLE TYPE="nature">
    <NAME>node45</NAME>
    <OUTCOME>state0</OUTCOME>
    <OUTCOME>state1</OUTCOME>
    <OUTCOME>state2</OUTCOME>
    <PROPERTY>position = (1725, 30)</PROPERTY>
</VARIABLE>
<!-- Variables -->
<VARIABLE TYPE="nature">
    <NAME>node46</NAME>
    <OUTCOME>state0</OUTCOME>
    <OUTCOME>state1</OUTCOME>
    <OUTCOME>state2</OUTCOME>
    <PROPERTY>position = (1845, 15)</PROPERTY>
</VARIABLE>
<!-- Variables -->
<VARIABLE TYPE="nature">
    <NAME>node47</NAME>
    <OUTCOME>state0</OUTCOME>
    <OUTCOME>state1</OUTCOME>
    <OUTCOME>state2</OUTCOME>
    <PROPERTY>position = (255, 390)</PROPERTY>
</VARIABLE>
<!-- Variables -->
<VARIABLE TYPE="nature">
    <NAME>node48</NAME>
    <OUTCOME>state0</OUTCOME>
    <OUTCOME>state1</OUTCOME>
    <OUTCOME>state2</OUTCOME>
    <PROPERTY>position = (1124, 284)</PROPERTY>
</VARIABLE>
<!-- Variables -->
<VARIABLE TYPE="nature">
    <NAME>node49</NAME>
    <OUTCOME>state0</OUTCOME>
    <OUTCOME>state1</OUTCOME>
    <OUTCOME>state2</OUTCOME>
    <PROPERTY>position = (1965, 29)</PROPERTY>
</VARIABLE>
<!-- Probability Distributions -->
 <DEFINITION>
      <FOR>node0</FOR>
     <TABLE>0.4127 0.169 0.4183 </TABLE>
 </DEFINITION>
 <DEFINITION>
      <FOR>node1</FOR>
      <GIVEN>node46</GIVEN>
      <GIVEN>node11</GIVEN>
     <TABLE>0.2368 0.2868 0.4764 0.4485 0.1414 0.4101 0.3166 0.2875 0.3959 0.492 0.0143 0.4937 0.6993 0.1838 0.1169 0.737 0.095 0.168 0.2077 0.7411 0.0512 0.2229 0.5949 0.1822 0.2671 0.3231 0.4098 </TABLE>
 </DEFINITION>
 <DEFINITION>
      <FOR>node2</FOR>
      <GIVEN>node23</GIVEN>
     <TABLE>0.1116 0.0546 0.8338 0.0422 0.1417 0.8161 0.726 0.1959 0.0781 </TABLE>
 </DEFINITION>
 <DEFINITION>
      <FOR>node3</FOR>
      <GIVEN>node8</GIVEN>
     <TABLE>0.2845 0.4929 0.2226 0.9124 0.0763 0.0113 0.2551 0.5624 0.1825 </TABLE>
 </DEFINITION>
 <DEFINITION>
      <FOR>node4</FOR>
      <GIVEN>node22</GIVEN>
     <TABLE>0.2847 0.6242 0.0911 0.7127 0.0957 0.1916 0.0638 0.0436 0.8926 </TABLE>
 </DEFINITION>
 <DEFINITION>
      <FOR>node5</FOR>
      <GIVEN>node14</GIVEN>
      <GIVEN>node45</GIVEN>
      <GIVEN>node25</GIVEN>
     <TABLE>0.3649 0.6311 0.004 0.0 0.061 0.939 0.8365 0.0235 0.14 0.6957 0.017 0.2873 0.1587 0.2381 0.6032 0.0368 0.0041 0.9591 0.1793 0.067 0.7537 0.3132 0.4136 0.2732 0.1049 0.2735 0.6216 0.0952 0.1459 0.7589 0.4369 0.2173 0.3458 0.2753 0.5463 0.1784 0.3421 0.2952 0.3627 0.5633 0.119 0.3177 0.0527 0.3638 0.5835 0.1348 0.3361 0.5291 0.321 0.6695 0.0095 0.5126 0.3646 0.1228 0.5606 0.3383 0.1011 0.143 0.8158 0.0412 0.5316 0.4042 0.0642 0.5709 0.3838 0.0453 0.3557 0.1154 0.5289 0.2945 0.6019 0.1036 0.0827 0.7426 0.1747 0.3726 0.2242 0.4032 0.7576 0.2071 0.0353 </TABLE>
 </DEFINITION>
 <DEFINITION>
      <FOR>node6</FOR>
     <TABLE>0.7693 0.1132 0.1175 </TABLE>
 </DEFINITION>
 <DEFINITION>
      <FOR>node7</FOR>
      <GIVEN>node37</GIVEN>
      <GIVEN>node19</GIVEN>
      <GIVEN>node48</GIVEN>
     <TABLE>0.0883 0.299 0.6127 0.6523 0.2895 0.0582 0.0762 0.3993 0.5245 0.3255 0.2091 0.4654 0.7564 0.016 0.2276 0.4286 0.2442 0.3272 0.3552 0.085 0.5598 0.1068 0.6765 0.2167 0.1856 0.3483 0.4661 0.262 0.4316 0.3064 0.183 0.145 0.672 0.488 0.2367 0.2753 0.1145 0.7049 0.1806 0.4854 0.0926 0.422 0.1111 0.322 0.5669 0.4768 0.2999 0.2233 0.1062 0.8147 0.0791 0.3163 0.2054 0.4783 0.1266 0.4763 0.3971 0.0095 0.7462 0.2443 0.3949 0.0761 0.529 0.5518 0.3215 0.1267 0.0795 0.3073 0.6132 0.3901 0.4233 0.1866 0.5104 0.1893 0.3003 0.0649 0.5081 0.427 0.0282 0.7135 0.2583 </TABLE>
 </DEFINITION>
 <DEFINITION>
      <FOR>node8</FOR>
      <GIVEN>node44</GIVEN>
     <TABLE>0.1857 0.6474 0.1669 0.1956 0.76 0.0444 0.1278 0.1765 0.6957 </TABLE>
 </DEFINITION>
 <DEFINITION>
      <FOR>node9</FOR>
      <GIVEN>node20</GIVEN>
     <TABLE>0.1244 0.2494 0.6262 0.2917 0.6397 0.0686 0.0196 0.204 0.7764 </TABLE>
 </DEFINITION>
 <DEFINITION>
      <FOR>node10</FOR>
      <GIVEN>node24</GIVEN>
     <TABLE>0.0626 0.0296 0.9078 0.0561 0.1034 0.8405 0.0649 0.6275 0.3076 </TABLE>
 </DEFINITION>
 <DEFINITION>
      <FOR>node11</FOR>
     <TABLE>0.375 0.2764 0.3486 </TABLE>
 </DEFINITION>
 <DEFINITION>
      <FOR>node12</FOR>
      <GIVEN>node38</GIVEN>
      <GIVEN>node49</GIVEN>
     <TABLE>0.5825 0.4034 0.0141 0.656 0.0416 0.3024 0.6814 0.2446 0.074 0.6335 0.1419 0.2246 0.1934 0.2215 0.5851 0.3341 0.4739 0.192 0.1082 0.8462 0.0456 0.3807 0.3418 0.2775 0.0449 0.8696 0.0855 </TABLE>
 </DEFINITION>
 <DEFINITION>
      <FOR>node13</FOR>
     <TABLE>0.1314 0.1793 0.6893 </TABLE>
 </DEFINITION>
 <DEFINITION>
      <FOR>node14</FOR>
     <TABLE>0.0136 0.9476 0.0388 </TABLE>
 </DEFINITION>
 <DEFINITION>
      <FOR>node15</FOR>
      <GIVEN>node13</GIVEN>
     <TABLE>0.2885 0.4216 0.2899 0.2003 0.1252 0.6745 0.6153 0.0133 0.3714 </TABLE>
 </DEFINITION>
 <DEFINITION>
      <FOR>node16</FOR>
      <GIVEN>node23</GIVEN>
     <TABLE>0.7965 0.1484 0.0551 0.3845 0.3248 0.2907 0.4794 0.2906 0.23 </TABLE>
 </DEFINITION>
 <DEFINITION>
      <FOR>node17</FOR>
      <GIVEN>node22</GIVEN>
     <TABLE>0.6768 0.2486 0.0746 0.5609 0.1131 0.326 0.0697 0.7811 0.1492 </TABLE>
 </DEFINITION>
 <DEFINITION>
      <FOR>node18</FOR>
      <GIVEN>node40</GIVEN>
     <TABLE>0.8429 0.101 0.0561 0.447 0.4149 0.1381 0.6323 0.2381 0.1296 </TABLE>
 </DEFINITION>
 <DEFINITION>
      <FOR>node19</FOR>
     <TABLE>0.5495 0.1728 0.2777 </TABLE>
 </DEFINITION>
 <DEFINITION>
      <FOR>node20</FOR>
      <GIVEN>node45</GIVEN>
     <TABLE>0.301 0.0688 0.6302 0.523 0.2106 0.2664 0.2646 0.3693 0.3661 </TABLE>
 </DEFINITION>
 <DEFINITION>
      <FOR>node21</FOR>
      <GIVEN>node15</GIVEN>
      <GIVEN>node46</GIVEN>
     <TABLE>0.1946 0.0713 0.7341 0.7351 0.0039 0.261 0.2777 0.558 0.1643 0.2714 0.2915 0.4371 0.3163 0.374 0.3097 0.0308 0.058 0.9112 0.465 0.1034 0.4316 0.0817 0.7546 0.1637 0.2571 0.6817 0.0612 </TABLE>
 </DEFINITION>
 <DEFINITION>
      <FOR>node22</FOR>
     <TABLE>0.1009 0.8101 0.089 </TABLE>
 </DEFINITION>
 <DEFINITION>
      <FOR>node23</FOR>
     <TABLE>0.749 0.1426 0.1084 </TABLE>
 </DEFINITION>
 <DEFINITION>
      <FOR>node24</FOR>
      <GIVEN>node47</GIVEN>
      <GIVEN>node29</GIVEN>
     <TABLE>0.0422 0.901 0.0568 0.1603 0.4683 0.3714 0.0477 0.4303 0.522 0.0231 0.77 0.2069 0.0867 0.6774 0.2359 0.1532 0.558 0.2888 0.3592 0.4218 0.219 0.0736 0.5729 0.3535 0.35 0.4632 0.1868 </TABLE>
 </DEFINITION>
 <DEFINITION>
      <FOR>node25</FOR>
     <TABLE>0.4104 0.0398 0.5498 </TABLE>
 </DEFINITION>
 <DEFINITION>
      <FOR>node26</FOR>
      <GIVEN>node10</GIVEN>
     <TABLE>0.2553 0.1163 0.6284 0.6979 0.0129 0.2892 0.1082 0.2445 0.6473 </TABLE>
 </DEFINITION>
 <DEFINITION>
      <FOR>node27</FOR>
      <GIVEN>node33</GIVEN>
      <GIVEN>node6</GIVEN>
     <TABLE>0.2625 0.5338 0.2037 0.2194 0.4859 0.2947 0.4762 0.2284 0.2954 0.476 0.2712 0.2528 0.84 0.1304 0.0296 0.5442 0.2936 0.1622 0.4757 0.4551 0.0692 0.5268 0.0123 0.4609 0.3821 0.4455 0.1724 </TABLE>
 </DEFINITION>
 <DEFINITION>
      <FOR>node28</FOR>
      <GIVEN>node41</GIVEN>
      <GIVEN>node25</GIVEN>
     <TABLE>0.613 0.0398 0.3472 0.079 0.7653 0.1557 0.1858 0.2747 0.5395 0.0327 0.0962 0.8711 0.356 0.4778 0.1662 0.1251 0.5467 0.3282 0.7576 0.0048 0.2376 0.506 0.2905 0.2035 0.7192 0.0338 0.247 </TABLE>
 </DEFINITION>
 <DEFINITION>
      <FOR>node29</FOR>
     <TABLE>0.0887 0.4239 0.4874 </TABLE>
 </DEFINITION>
 <DEFINITION>
      <FOR>node30</FOR>
      <GIVEN>node20</GIVEN>
     <TABLE>0.6366 0.0873 0.2761 0.3289 0.4992 0.1719 0.1554 0.5588 0.2858 </TABLE>
 </DEFINITION>
 <DEFINITION>
      <FOR>node31</FOR>
      <GIVEN>node44</GIVEN>
      <GIVEN>node45</GIVEN>
     <TABLE>0.4588 0.2958 0.2454 0.4928 0.4229 0.0843 0.3544 0.2843 0.3613 0.3202 0.0859 0.5939 0.1828 0.2562 0.561 0.0718 0.4583 0.4699 0.1002 0.4608 0.439 0.5071 0.1143 0.3786 0.1372 0.1368 0.726 </TABLE>
 </DEFINITION>
 <DEFINITION>
      <FOR>node32</FOR>
      <GIVEN>node4</GIVEN>
      <GIVEN>node35</GIVEN>
     <TABLE>0.5559 0.1623 0.2818 0.0243 0.795 0.1807 0.5316 0.4113 0.0571 0.7019 0.0928 0.2053 0.2216 0.3345 0.4439 0.5211 0.4374 0.0415 0.5638 0.2054 0.2308 0.5597 0.1388 0.3015 0.0019 0.6006 0.3975 </TABLE>
 </DEFINITION>
 <DEFINITION>
      <FOR>node33</FOR>
     <TABLE>0.2251 0.5236 0.2513 </TABLE>
 </DEFINITION>
 <DEFINITION>
      <FOR>node34</FOR>
     <TABLE>0.524 0.3511 0.1249 </TABLE>
 </DEFINITION>
 <DEFINITION>
      <FOR>node35</FOR>
      <GIVEN>node46</GIVEN>
     <TABLE>0.0312 0.5624 0.4064 0.1292 0.5715 0.2993 0.4233 0.3583 0.2184 </TABLE>
 </DEFINITION>
 <DEFINITION>
      <FOR>node36</FOR>
     <TABLE>0.1023 0.7068 0.1909 </TABLE>
 </DEFINITION>
 <DEFINITION>
      <FOR>node37</FOR>
      <GIVEN>node34</GIVEN>
     <TABLE>0.3968 0.1909 0.4123 0.4419 0.0221 0.536 0.3117 0.6826 0.0057 </TABLE>
 </DEFINITION>
 <DEFINITION>
      <FOR>node38</FOR>
      <GIVEN>node41</GIVEN>
     <TABLE>0.4581 0.3811 0.1608 0.2866 0.3425 0.3709 0.2567 0.3547 0.3886 </TABLE>
 </DEFINITION>
 <DEFINITION>
      <FOR>node39</FOR>
      <GIVEN>node47</GIVEN>
      <GIVEN>node21</GIVEN>
     <TABLE>0.5823 0.063 0.3547 0.0541 0.8694 0.0765 0.4692 0.026 0.5048 0.3178 0.1799 0.5023 0.719 0.0952 0.1858 0.1712 0.2201 0.6087 0.3419 0.6467 0.0114 0.2764 0.1993 0.5243 0.3223 0.4468 0.2309 </TABLE>
 </DEFINITION>
 <DEFINITION>
      <FOR>node40</FOR>
      <GIVEN>node39</GIVEN>
     <TABLE>0.1101 0.1234 0.7665 0.0401 0.0234 0.9365 0.9454 0.0374 0.0172 </TABLE>
 </DEFINITION>
 <DEFINITION>
      <FOR>node41</FOR>
      <GIVEN>node0</GIVEN>
     <TABLE>0.5125 0.1833 0.3042 0.5791 0.3122 0.1087 0.4163 0.454 0.1297 </TABLE>
 </DEFINITION>
 <DEFINITION>
      <FOR>node42</FOR>
      <GIVEN>node39</GIVEN>
     <TABLE>0.5741 0.0899 0.336 0.0241 0.8525 0.1234 0.4565 0.4755 0.068 </TABLE>
 </DEFINITION>
 <DEFINITION>
      <FOR>node43</FOR>
      <GIVEN>node11</GIVEN>
     <TABLE>0.0302 0.8093 0.1605 0.287 0.2761 0.4369 0.0798 0.2047 0.7155 </TABLE>
 </DEFINITION>
 <DEFINITION>
      <FOR>node44</FOR>
     <TABLE>0.5626 0.2287 0.2087 </TABLE>
 </DEFINITION>
 <DEFINITION>
      <FOR>node45</FOR>
     <TABLE>0.0029 0.7392 0.2579 </TABLE>
 </DEFINITION>
 <DEFINITION>
      <FOR>node46</FOR>
     <TABLE>0.5255 0.138 0.3365 </TABLE>
 </DEFINITION>
 <DEFINITION>
      <FOR>node47</FOR>
      <GIVEN>node6</GIVEN>
      <GIVEN>node36</GIVEN>
      <GIVEN>node3</GIVEN>
     <TABLE>0.2567 0.6349 0.1084 0.5153 0.0685 0.4162 0.4063 0.3566 0.2371 0.5067 0.1152 0.3781 0.0853 0.8276 0.0871 0.2193 0.3519 0.4288 0.2835 0.3259 0.3906 0.1778 0.3431 0.4791 0.6682 0.2352 0.0966 0.419 0.2634 0.3176 0.4152 0.153 0.4318 0.2902 0.7007 0.0091 0.4111 0.5555 0.0334 0.3223 0.3393 0.3384 0.1943 0.007 0.7987 0.333 0.4069 0.2601 0.3583 0.6124 0.0293 0.0626 0.0443 0.8931 0.8172 0.0578 0.125 0.541 0.1077 0.3513 0.4074 0.4792 0.1134 0.0437 0.064 0.8923 0.7246 0.0098 0.2656 0.4771 0.3979 0.125 0.4119 0.1644 0.4237 0.3051 0.3614 0.3335 0.0215 0.7941 0.1844 </TABLE>
 </DEFINITION>
 <DEFINITION>
      <FOR>node48</FOR>
      <GIVEN>node16</GIVEN>
      <GIVEN>node17</GIVEN>
     <TABLE>0.116 0.4867 0.3973 0.54 0.2357 0.2243 0.1488 0.0023 0.8489 0.2666 0.047 0.6864 0.0917 0.5106 0.3977 0.7407 0.1416 0.1177 0.3852 0.2158 0.399 0.639 0.0112 0.3498 0.1725 0.5572 0.2703 </TABLE>
 </DEFINITION>
 <DEFINITION>
      <FOR>node49</FOR>
     <TABLE>0.7362 0.1873 0.0765 </TABLE>
 </DEFINITION>
</NETWORK>
</BIF>
