<?xml version="1.0" encoding="US-ASCII"?>


<!--
	Bayesian network in XMLBIF v0.3 (BayesNet Interchange Format)
	Produced by JavaBayes (http://www.cs.cmu.edu/~javabayes/
	Number of nodes:40
	Output created Tue Feb 28 15:48:20 CET 2017
-->



<BIF VERSION="0.3">
<NETWORK>
<NAME>InternalNetwork</NAME>
<!-- Variables -->
<VARIABLE TYPE="nature">
    <NAME>node0</NAME>
    <OUTCOME>state0</OUTCOME>
    <OUTCOME>state1</OUTCOME>
    <OUTCOME>state2</OUTCOME>
    <PROPERTY>position = (45, 30)</PROPERTY>
</VARIABLE>
<!-- Variables -->
<VARIABLE TYPE="nature">
    <NAME>node1</NAME>
    <OUTCOME>state0</OUTCOME>
    <OUTCOME>state1</OUTCOME>
    <PROPERTY>position = (15, 150)</PROPERTY>
</VARIABLE>
<!-- Variables -->
<VARIABLE TYPE="nature">
    <NAME>node2</NAME>
    <OUTCOME>state0</OUTCOME>
    <OUTCOME>state1</OUTCOME>
    <PROPERTY>position = (165, 44)</PROPERTY>
</VARIABLE>
<!-- Variables -->
<VARIABLE TYPE="nature">
    <NAME>node3</NAME>
    <OUTCOME>state0</OUTCOME>
    <OUTCOME>state1</OUTCOME>
    <PROPERTY>position = (285, 30)</PROPERTY>
</VARIABLE>
<!-- Variables -->
<VARIABLE TYPE="nature">
    <NAME>node4</NAME>
    <OUTCOME>state0</OUTCOME>
    <OUTCOME>state1</OUTCOME>
    <PROPERTY>position = (44, 270)</PROPERTY>
</VARIABLE>
<!-- Variables -->
<VARIABLE TYPE="nature">
    <NAME>node5</NAME>
    <OUTCOME>state0</OUTCOME>
    <OUTCOME>state1</OUTCOME>
    <OUTCOME>state2</OUTCOME>
    <PROPERTY>position = (405, 15)</PROPERTY>
</VARIABLE>
<!-- Variables -->
<VARIABLE TYPE="nature">
    <NAME>node6</NAME>
    <OUTCOME>state0</OUTCOME>
    <OUTCOME>state1</OUTCOME>
    <OUTCOME>state2</OUTCOME>
    <OUTCOME>state3</OUTCOME>
    <PROPERTY>position = (525, 29)</PROPERTY>
</VARIABLE>
<!-- Variables -->
<VARIABLE TYPE="nature">
    <NAME>node7</NAME>
    <OUTCOME>state0</OUTCOME>
    <OUTCOME>state1</OUTCOME>
    <OUTCOME>state2</OUTCOME>
    <PROPERTY>position = (15, 630)</PROPERTY>
</VARIABLE>
<!-- Variables -->
<VARIABLE TYPE="nature">
    <NAME>node8</NAME>
    <OUTCOME>state0</OUTCOME>
    <OUTCOME>state1</OUTCOME>
    <PROPERTY>position = (135, 164)</PROPERTY>
</VARIABLE>
<!-- Variables -->
<VARIABLE TYPE="nature">
    <NAME>node9</NAME>
    <OUTCOME>state0</OUTCOME>
    <OUTCOME>state1</OUTCOME>
    <PROPERTY>position = (645, 44)</PROPERTY>
</VARIABLE>
<!-- Variables -->
<VARIABLE TYPE="nature">
    <NAME>node10</NAME>
    <OUTCOME>state0</OUTCOME>
    <OUTCOME>state1</OUTCOME>
    <PROPERTY>position = (164, 284)</PROPERTY>
</VARIABLE>
<!-- Variables -->
<VARIABLE TYPE="nature">
    <NAME>node11</NAME>
    <OUTCOME>state0</OUTCOME>
    <OUTCOME>state1</OUTCOME>
    <OUTCOME>state2</OUTCOME>
    <OUTCOME>state3</OUTCOME>
    <PROPERTY>position = (765, 30)</PROPERTY>
</VARIABLE>
<!-- Variables -->
<VARIABLE TYPE="nature">
    <NAME>node12</NAME>
    <OUTCOME>state0</OUTCOME>
    <OUTCOME>state1</OUTCOME>
    <OUTCOME>state2</OUTCOME>
    <PROPERTY>position = (885, 15)</PROPERTY>
</VARIABLE>
<!-- Variables -->
<VARIABLE TYPE="nature">
    <NAME>node13</NAME>
    <OUTCOME>state0</OUTCOME>
    <OUTCOME>state1</OUTCOME>
    <OUTCOME>state2</OUTCOME>
    <OUTCOME>state3</OUTCOME>
    <PROPERTY>position = (1005, 29)</PROPERTY>
</VARIABLE>
<!-- Variables -->
<VARIABLE TYPE="nature">
    <NAME>node14</NAME>
    <OUTCOME>state0</OUTCOME>
    <OUTCOME>state1</OUTCOME>
    <OUTCOME>state2</OUTCOME>
    <PROPERTY>position = (1125, 44)</PROPERTY>
</VARIABLE>
<!-- Variables -->
<VARIABLE TYPE="nature">
    <NAME>node15</NAME>
    <OUTCOME>state0</OUTCOME>
    <OUTCOME>state1</OUTCOME>
    <OUTCOME>state2</OUTCOME>
    <PROPERTY>position = (1245, 30)</PROPERTY>
</VARIABLE>
<!-- Variables -->
<VARIABLE TYPE="nature">
    <NAME>node16</NAME>
    <OUTCOME>state0</OUTCOME>
    <OUTCOME>state1</OUTCOME>
    <OUTCOME>state2</OUTCOME>
    <OUTCOME>state3</OUTCOME>
    <PROPERTY>position = (255, 150)</PROPERTY>
</VARIABLE>
<!-- Variables -->
<VARIABLE TYPE="nature">
    <NAME>node17</NAME>
    <OUTCOME>state0</OUTCOME>
    <OUTCOME>state1</OUTCOME>
    <PROPERTY>position = (1365, 15)</PROPERTY>
</VARIABLE>
<!-- Variables -->
<VARIABLE TYPE="nature">
    <NAME>node18</NAME>
    <OUTCOME>state0</OUTCOME>
    <OUTCOME>state1</OUTCOME>
    <OUTCOME>state2</OUTCOME>
    <OUTCOME>state3</OUTCOME>
    <PROPERTY>position = (15, 390)</PROPERTY>
</VARIABLE>
<!-- Variables -->
<VARIABLE TYPE="nature">
    <NAME>node19</NAME>
    <OUTCOME>state0</OUTCOME>
    <OUTCOME>state1</OUTCOME>
    <PROPERTY>position = (1485, 29)</PROPERTY>
</VARIABLE>
<!-- Variables -->
<VARIABLE TYPE="nature">
    <NAME>node20</NAME>
    <OUTCOME>state0</OUTCOME>
    <OUTCOME>state1</OUTCOME>
    <PROPERTY>position = (375, 135)</PROPERTY>
</VARIABLE>
<!-- Variables -->
<VARIABLE TYPE="nature">
    <NAME>node21</NAME>
    <OUTCOME>state0</OUTCOME>
    <OUTCOME>state1</OUTCOME>
    <OUTCOME>state2</OUTCOME>
    <OUTCOME>state3</OUTCOME>
    <PROPERTY>position = (284, 270)</PROPERTY>
</VARIABLE>
<!-- Variables -->
<VARIABLE TYPE="nature">
    <NAME>node22</NAME>
    <OUTCOME>state0</OUTCOME>
    <OUTCOME>state1</OUTCOME>
    <OUTCOME>state2</OUTCOME>
    <PROPERTY>position = (1605, 44)</PROPERTY>
</VARIABLE>
<!-- Variables -->
<VARIABLE TYPE="nature">
    <NAME>node23</NAME>
    <OUTCOME>state0</OUTCOME>
    <OUTCOME>state1</OUTCOME>
    <OUTCOME>state2</OUTCOME>
    <PROPERTY>position = (495, 149)</PROPERTY>
</VARIABLE>
<!-- Variables -->
<VARIABLE TYPE="nature">
    <NAME>node24</NAME>
    <OUTCOME>state0</OUTCOME>
    <OUTCOME>state1</OUTCOME>
    <OUTCOME>state2</OUTCOME>
    <PROPERTY>position = (404, 255)</PROPERTY>
</VARIABLE>
<!-- Variables -->
<VARIABLE TYPE="nature">
    <NAME>node25</NAME>
    <OUTCOME>state0</OUTCOME>
    <OUTCOME>state1</OUTCOME>
    <PROPERTY>position = (1725, 30)</PROPERTY>
</VARIABLE>
<!-- Variables -->
<VARIABLE TYPE="nature">
    <NAME>node26</NAME>
    <OUTCOME>state0</OUTCOME>
    <OUTCOME>state1</OUTCOME>
    <PROPERTY>position = (524, 269)</PROPERTY>
</VARIABLE>
<!-- Variables -->
<VARIABLE TYPE="nature">
    <NAME>node27</NAME>
    <OUTCOME>state0</OUTCOME>
    <OUTCOME>state1</OUTCOME>
    <PROPERTY>position = (615, 164)</PROPERTY>
</VARIABLE>
<!-- Variables -->
<VARIABLE TYPE="nature">
    <NAME>node28</NAME>
    <OUTCOME>state0</OUTCOME>
    <OUTCOME>state1</OUTCOME>
    <OUTCOME>state2</OUTCOME>
    <PROPERTY>position = (1845, 15)</PROPERTY>
</VARIABLE>
<!-- Variables -->
<VARIABLE TYPE="nature">
    <NAME>node29</NAME>
    <OUTCOME>state0</OUTCOME>
    <OUTCOME>state1</OUTCOME>
    <OUTCOME>state2</OUTCOME>
    <PROPERTY>position = (735, 150)</PROPERTY>
</VARIABLE>
<!-- Variables -->
<VARIABLE TYPE="nature">
    <NAME>node30</NAME>
    <OUTCOME>state0</OUTCOME>
    <OUTCOME>state1</OUTCOME>
    <OUTCOME>state2</OUTCOME>
    <OUTCOME>state3</OUTCOME>
    <PROPERTY>position = (1965, 29)</PROPERTY>
</VARIABLE>
<!-- Variables -->
<VARIABLE TYPE="nature">
    <NAME>node31</NAME>
    <OUTCOME>state0</OUTCOME>
    <OUTCOME>state1</OUTCOME>
    <OUTCOME>state2</OUTCOME>
    <OUTCOME>state3</OUTCOME>
    <PROPERTY>position = (644, 284)</PROPERTY>
</VARIABLE>
<!-- Variables -->
<VARIABLE TYPE="nature">
    <NAME>node32</NAME>
    <OUTCOME>state0</OUTCOME>
    <OUTCOME>state1</OUTCOME>
    <OUTCOME>state2</OUTCOME>
    <OUTCOME>state3</OUTCOME>
    <PROPERTY>position = (764, 270)</PROPERTY>
</VARIABLE>
<!-- Variables -->
<VARIABLE TYPE="nature">
    <NAME>node33</NAME>
    <OUTCOME>state0</OUTCOME>
    <OUTCOME>state1</OUTCOME>
    <PROPERTY>position = (855, 135)</PROPERTY>
</VARIABLE>
<!-- Variables -->
<VARIABLE TYPE="nature">
    <NAME>node34</NAME>
    <OUTCOME>state0</OUTCOME>
    <OUTCOME>state1</OUTCOME>
    <OUTCOME>state2</OUTCOME>
    <OUTCOME>state3</OUTCOME>
    <PROPERTY>position = (135, 404)</PROPERTY>
</VARIABLE>
<!-- Variables -->
<VARIABLE TYPE="nature">
    <NAME>node35</NAME>
    <OUTCOME>state0</OUTCOME>
    <OUTCOME>state1</OUTCOME>
    <OUTCOME>state2</OUTCOME>
    <OUTCOME>state3</OUTCOME>
    <PROPERTY>position = (975, 149)</PROPERTY>
</VARIABLE>
<!-- Variables -->
<VARIABLE TYPE="nature">
    <NAME>node36</NAME>
    <OUTCOME>state0</OUTCOME>
    <OUTCOME>state1</OUTCOME>
    <OUTCOME>state2</OUTCOME>
    <OUTCOME>state3</OUTCOME>
    <PROPERTY>position = (1095, 164)</PROPERTY>
</VARIABLE>
<!-- Variables -->
<VARIABLE TYPE="nature">
    <NAME>node37</NAME>
    <OUTCOME>state0</OUTCOME>
    <OUTCOME>state1</OUTCOME>
    <PROPERTY>position = (2085, 44)</PROPERTY>
</VARIABLE>
<!-- Variables -->
<VARIABLE TYPE="nature">
    <NAME>node38</NAME>
    <OUTCOME>state0</OUTCOME>
    <OUTCOME>state1</OUTCOME>
    <OUTCOME>state2</OUTCOME>
    <OUTCOME>state3</OUTCOME>
    <PROPERTY>position = (44, 510)</PROPERTY>
</VARIABLE>
<!-- Variables -->
<VARIABLE TYPE="nature">
    <NAME>node39</NAME>
    <OUTCOME>state0</OUTCOME>
    <OUTCOME>state1</OUTCOME>
    <OUTCOME>state2</OUTCOME>
    <OUTCOME>state3</OUTCOME>
    <PROPERTY>position = (2205, 30)</PROPERTY>
</VARIABLE>
<!-- Probability Distributions -->
 <DEFINITION>
      <FOR>node0</FOR>
     <TABLE>0.2324 0.1674 0.6002 </TABLE>
 </DEFINITION>
 <DEFINITION>
      <FOR>node1</FOR>
      <GIVEN>node33</GIVEN>
     <TABLE>0.8567 0.1433 0.4012 0.5988 </TABLE>
 </DEFINITION>
 <DEFINITION>
      <FOR>node2</FOR>
     <TABLE>0.1172 0.8828 </TABLE>
 </DEFINITION>
 <DEFINITION>
      <FOR>node3</FOR>
     <TABLE>0.227 0.773 </TABLE>
 </DEFINITION>
 <DEFINITION>
      <FOR>node4</FOR>
      <GIVEN>node11</GIVEN>
      <GIVEN>node13</GIVEN>
     <TABLE>0.0248 0.9752 0.4619 0.5381 0.282 0.718 0.4277 0.5723 0.0771 0.9229 0.0558 0.9442 0.634 0.366 0.2082 0.7918 0.2181 0.7819 0.6034 0.3966 0.7995 0.2005 0.9539 0.0461 0.0902 0.9098 0.7933 0.2067 0.79 0.21 0.5299 0.4701 </TABLE>
 </DEFINITION>
 <DEFINITION>
      <FOR>node5</FOR>
     <TABLE>0.144 0.7369 0.1191 </TABLE>
 </DEFINITION>
 <DEFINITION>
      <FOR>node6</FOR>
     <TABLE>0.3774 0.2956 0.3146 0.0124 </TABLE>
 </DEFINITION>
 <DEFINITION>
      <FOR>node7</FOR>
      <GIVEN>node38</GIVEN>
      <GIVEN>node3</GIVEN>
      <GIVEN>node15</GIVEN>
      <GIVEN>node21</GIVEN>
      <GIVEN>node17</GIVEN>
     <TABLE>0.7636 0.2091 0.0273 0.127 0.6266 0.2464 0.8883 0.0694 0.0423 0.0119 0.6547 0.3334 0.563 0.4002 0.0368 0.0407 0.1166 0.8427 0.1157 0.6327 0.2516 0.4544 0.0711 0.4745 0.5994 0.3239 0.0767 0.5069 0.1478 0.3453 0.2785 0.6096 0.1119 0.309 0.2154 0.4756 0.2206 0.6814 0.098 0.7161 0.2727 0.0112 0.4136 0.1348 0.4516 0.3317 0.0015 0.6668 0.5521 0.3952 0.0527 0.078 0.7447 0.1773 0.0612 0.5238 0.415 0.8016 0.032 0.1664 0.0962 0.039 0.8648 0.0377 0.699 0.2633 0.0624 0.5554 0.3822 0.4286 0.3756 0.1958 0.2171 0.0241 0.7588 0.2318 0.2606 0.5076 0.6184 0.3451 0.0365 0.1932 0.7105 0.0963 0.0985 0.8727 0.0288 0.1455 0.6024 0.2521 0.4967 0.0574 0.4459 0.4012 0.2863 0.3125 0.0091 0.3269 0.664 0.4966 0.107 0.3964 0.5915 0.0459 0.3626 0.2304 0.615 0.1546 0.7033 0.1336 0.1631 0.3785 0.3725 0.249 0.2432 0.0884 0.6684 0.0754 0.4368 0.4878 0.1929 0.7771 0.03 0.6647 0.0136 0.3217 0.3786 0.4228 0.1986 0.6175 0.1473 0.2352 0.2403 0.5354 0.2243 0.4906 0.4556 0.0538 0.0297 0.0058 0.9645 0.2992 0.3179 0.3829 0.1705 0.1524 0.6771 0.1889 0.0996 0.7115 0.221 0.0759 0.7031 0.367 0.617 0.016 0.1441 0.5773 0.2786 0.6263 0.3499 0.0238 0.3628 0.5297 0.1075 0.3102 0.2523 0.4375 0.3251 0.3838 0.2911 0.7894 0.1258 0.0848 0.2073 0.7909 0.0018 0.4778 0.1826 0.3396 0.2941 0.1858 0.5201 0.0295 0.3654 0.6051 0.4878 0.0378 0.4744 0.6328 0.0018 0.3654 0.294 0.5691 0.1369 0.3238 0.2777 0.3985 0.2048 0.211 0.5842 0.0507 0.0727 0.8766 0.4368 0.5148 0.0484 0.7544 0.061 0.1846 0.2409 0.2551 0.504 0.1271 0.3314 0.5415 0.186 0.7421 0.0719 0.2671 0.1306 0.6023 0.2179 0.2452 0.5369 0.7039 0.2495 0.0466 0.5656 0.427 0.0074 0.1009 0.2789 0.6202 0.4959 0.194 0.3101 0.1286 0.1476 0.7238 0.2755 0.6362 0.0883 0.3615 0.602 0.0365 0.1196 0.2505 0.6299 0.3713 0.5031 0.1256 0.8404 0.0524 0.1072 0.2013 0.0393 0.7594 0.2928 0.1234 0.5838 0.0886 0.7537 0.1577 0.3118 0.0698 0.6184 0.1436 0.6212 0.2352 0.3689 0.1721 0.459 0.1184 0.6228 0.2588 0.4165 0.491 0.0925 0.0965 0.1221 0.7814 0.8434 0.0306 0.126 0.0331 0.412 0.5549 0.3899 0.4448 0.1653 0.0219 0.4648 0.5133 0.8801 0.0719 0.048 0.2923 0.4628 0.2449 0.6269 0.355 0.0181 0.1962 0.1736 0.6302 0.1515 0.4924 0.3561 0.1426 0.8174 0.04 0.4561 0.0666 0.4773 0.6558 0.1544 0.1898 0.6585 0.0797 0.2618 0.0392 0.2523 0.7085 0.0615 0.0328 0.9057 0.1412 0.3917 0.4671 0.3762 0.0827 0.5411 0.2232 0.2181 0.5587 0.2129 0.5829 0.2042 0.1956 0.5501 0.2543 0.2371 0.6773 0.0856 0.3743 0.0581 0.5676 0.2671 0.3251 0.4078 0.2108 0.1275 0.6617 0.1363 0.1589 0.7048 0.1062 0.8789 0.0149 0.3556 0.3577 0.2867 0.6745 0.0097 0.3158 0.1238 0.6755 0.2007 0.0405 0.1732 0.7863 0.541 0.1567 0.3023 0.0213 0.6615 0.3172 0.4934 0.1191 0.3875 0.6773 0.2266 0.0961 0.6911 0.13 0.1789 0.2194 0.2012 0.5794 0.3991 0.5264 0.0745 0.8075 0.0901 0.1024 0.6704 0.2497 0.0799 0.043 0.2513 0.7057 0.0201 0.8482 0.1317 0.4997 0.2694 0.2309 0.0898 0.8299 0.0803 0.584 0.214 0.202 0.6604 0.0503 0.2893 0.432 0.2589 0.3091 0.4641 0.3325 0.2034 0.0572 0.5726 0.3702 0.431 0.4022 0.1668 0.4552 0.2817 0.2631 0.3021 0.3719 0.326 0.6255 0.1191 0.2554 0.7703 0.2247 0.005 0.1086 0.1707 0.7207 0.1998 0.596 0.2042 0.2933 0.391 0.3157 0.491 0.2552 0.2538 0.1011 0.3115 0.5874 0.3923 0.2948 0.3129 0.0206 0.6278 0.3516 0.2547 0.0394 0.7059 0.8425 0.0869 0.0706 0.3037 0.0097 0.6866 0.2969 0.0925 0.6106 0.7161 0.2318 0.0521 0.0302 0.8923 0.0775 0.158 0.6956 0.1464 0.6369 0.3208 0.0423 0.6094 0.1425 0.2481 0.2266 0.0708 0.7026 0.0417 0.5333 0.425 0.2527 0.2127 0.5346 0.0046 0.3903 0.6051 0.334 0.2628 0.4032 0.4805 0.2631 0.2564 0.1932 0.2145 0.5923 0.2836 0.0809 0.6355 0.5026 0.4658 0.0316 0.3318 0.4787 0.1895 0.361 0.5537 0.0853 0.1883 0.7835 0.0282 0.3906 0.5823 0.0271 0.0158 0.1176 0.8666 0.0186 0.4841 0.4973 0.349 0.4303 0.2207 0.3656 0.0464 0.588 0.0101 0.4061 0.5838 0.5393 0.4361 0.0246 0.864 0.0733 0.0627 0.4391 0.3107 0.2502 0.089 0.4179 0.4931 0.1039 0.2063 0.6898 0.5154 0.3174 0.1672 0.4336 0.1075 0.4589 0.2124 0.5787 0.2089 0.2572 0.3748 0.368 0.6753 0.2745 0.0502 0.1287 0.059 0.8123 </TABLE>
 </DEFINITION>
 <DEFINITION>
      <FOR>node8</FOR>
      <GIVEN>node6</GIVEN>
     <TABLE>0.1399 0.8601 0.5396 0.4604 0.9314 0.0686 0.7902 0.2098 </TABLE>
 </DEFINITION>
 <DEFINITION>
      <FOR>node9</FOR>
     <TABLE>0.6308 0.3692 </TABLE>
 </DEFINITION>
 <DEFINITION>
      <FOR>node10</FOR>
      <GIVEN>node5</GIVEN>
      <GIVEN>node2</GIVEN>
     <TABLE>0.5228 0.4772 0.5369 0.4631 0.6961 0.3039 0.3772 0.6228 0.4666 0.5334 0.1249 0.8751 </TABLE>
 </DEFINITION>
 <DEFINITION>
      <FOR>node11</FOR>
     <TABLE>0.1317 0.1293 0.1893 0.5497 </TABLE>
 </DEFINITION>
 <DEFINITION>
      <FOR>node12</FOR>
     <TABLE>0.025 0.3359 0.6391 </TABLE>
 </DEFINITION>
 <DEFINITION>
      <FOR>node13</FOR>
     <TABLE>0.3609 0.2263 0.005 0.4078 </TABLE>
 </DEFINITION>
 <DEFINITION>
      <FOR>node14</FOR>
     <TABLE>0.0039 0.5675 0.4286 </TABLE>
 </DEFINITION>
 <DEFINITION>
      <FOR>node15</FOR>
     <TABLE>0.1628 0.6237 0.2135 </TABLE>
 </DEFINITION>
 <DEFINITION>
      <FOR>node16</FOR>
      <GIVEN>node20</GIVEN>
     <TABLE>0.8968 0.0489 0.0026 0.0517 0.2988 0.3291 0.0168 0.3553 </TABLE>
 </DEFINITION>
 <DEFINITION>
      <FOR>node17</FOR>
     <TABLE>0.3521 0.6479 </TABLE>
 </DEFINITION>
 <DEFINITION>
      <FOR>node18</FOR>
      <GIVEN>node19</GIVEN>
      <GIVEN>node28</GIVEN>
      <GIVEN>node10</GIVEN>
     <TABLE>0.1853 0.2154 0.359 0.2403 0.0258 0.3679 0.1739 0.4324 0.2335 0.1962 0.349 0.2213 0.0668 0.0314 0.8919 0.0099 0.0133 0.0229 0.2736 0.6902 0.2535 0.3594 0.3327 0.0544 0.0222 0.6557 0.2459 0.0762 0.4195 0.0482 0.2111 0.3212 0.4666 0.1197 0.1947 0.219 0.5304 0.093 0.0677 0.3089 0.4523 0.029 0.1807 0.338 0.1703 0.2828 0.4525 0.0944 </TABLE>
 </DEFINITION>
 <DEFINITION>
      <FOR>node19</FOR>
     <TABLE>0.185 0.815 </TABLE>
 </DEFINITION>
 <DEFINITION>
      <FOR>node20</FOR>
      <GIVEN>node39</GIVEN>
     <TABLE>0.2248 0.7752 0.7562 0.2438 0.7159 0.2841 0.4915 0.5085 </TABLE>
 </DEFINITION>
 <DEFINITION>
      <FOR>node21</FOR>
      <GIVEN>node14</GIVEN>
      <GIVEN>node9</GIVEN>
     <TABLE>0.2232 0.0531 0.0171 0.7066 0.4125 0.1337 0.3051 0.1487 0.0342 0.1633 0.0409 0.7616 0.1507 0.0508 0.2758 0.5227 0.4249 0.0623 0.0411 0.4717 0.3582 0.4871 0.0156 0.1391 </TABLE>
 </DEFINITION>
 <DEFINITION>
      <FOR>node22</FOR>
     <TABLE>0.4424 0.2761 0.2815 </TABLE>
 </DEFINITION>
 <DEFINITION>
      <FOR>node23</FOR>
      <GIVEN>node3</GIVEN>
     <TABLE>0.1053 0.3849 0.5098 0.0981 0.1911 0.7108 </TABLE>
 </DEFINITION>
 <DEFINITION>
      <FOR>node24</FOR>
      <GIVEN>node23</GIVEN>
      <GIVEN>node35</GIVEN>
     <TABLE>0.3757 0.177 0.4473 0.1052 0.8902 0.0046 0.1908 0.7363 0.0729 0.5705 0.2108 0.2187 0.4989 0.0064 0.4947 0.0012 0.3975 0.6013 0.2932 0.1419 0.5649 0.7223 0.1471 0.1306 0.2669 0.2069 0.5262 0.2059 0.6247 0.1694 0.8779 0.037 0.0851 0.4896 0.4313 0.0791 </TABLE>
 </DEFINITION>
 <DEFINITION>
      <FOR>node25</FOR>
     <TABLE>0.8933 0.1067 </TABLE>
 </DEFINITION>
 <DEFINITION>
      <FOR>node26</FOR>
      <GIVEN>node30</GIVEN>
      <GIVEN>node11</GIVEN>
     <TABLE>0.1056 0.8944 0.6035 0.3965 0.9622 0.0378 0.1262 0.8738 0.1013 0.8987 0.4421 0.5579 0.1994 0.8006 0.984 0.016 0.199 0.801 0.165 0.835 0.7186 0.2814 0.757 0.243 0.6969 0.3031 0.7266 0.2734 0.2772 0.7228 0.8887 0.1113 </TABLE>
 </DEFINITION>
 <DEFINITION>
      <FOR>node27</FOR>
      <GIVEN>node20</GIVEN>
     <TABLE>0.8296 0.1704 0.986 0.014 </TABLE>
 </DEFINITION>
 <DEFINITION>
      <FOR>node28</FOR>
     <TABLE>0.012 0.5852 0.4028 </TABLE>
 </DEFINITION>
 <DEFINITION>
      <FOR>node29</FOR>
      <GIVEN>node22</GIVEN>
     <TABLE>0.2096 0.4733 0.3171 0.279 0.5832 0.1378 0.1021 0.685 0.2129 </TABLE>
 </DEFINITION>
 <DEFINITION>
      <FOR>node30</FOR>
     <TABLE>0.2964 0.2987 0.1055 0.2994 </TABLE>
 </DEFINITION>
 <DEFINITION>
      <FOR>node31</FOR>
      <GIVEN>node29</GIVEN>
      <GIVEN>node6</GIVEN>
     <TABLE>0.3296 0.467 0.1718 0.0316 0.4279 0.2859 0.1806 0.1056 0.157 0.087 0.2627 0.4933 0.4647 0.0812 0.2524 0.2017 0.5699 0.0022 0.3769 0.051 0.2451 0.0689 0.2876 0.3984 0.5327 0.0934 0.1033 0.2706 0.0074 0.1738 0.7885 0.0303 0.2249 0.1601 0.5527 0.0623 0.0478 0.6111 0.3264 0.0147 0.5476 0.0438 0.2005 0.2081 0.1149 0.1418 0.3719 0.3714 </TABLE>
 </DEFINITION>
 <DEFINITION>
      <FOR>node32</FOR>
      <GIVEN>node28</GIVEN>
      <GIVEN>node24</GIVEN>
     <TABLE>0.7882 0.0764 0.0561 0.0793 0.3144 0.1033 0.3584 0.2239 0.0872 0.3416 0.1603 0.4109 0.4552 0.1129 0.097 0.3349 0.3154 0.1353 0.4137 0.1356 0.4527 0.4049 0.1414 0.001 0.6419 0.0719 0.2654 0.0208 0.755 0.235 0.0061 0.0039 0.3891 0.1281 0.158 0.3248 </TABLE>
 </DEFINITION>
 <DEFINITION>
      <FOR>node33</FOR>
      <GIVEN>node11</GIVEN>
     <TABLE>0.9552 0.0448 0.3441 0.6559 0.7921 0.2079 0.7399 0.2601 </TABLE>
 </DEFINITION>
 <DEFINITION>
      <FOR>node34</FOR>
      <GIVEN>node12</GIVEN>
      <GIVEN>node13</GIVEN>
      <GIVEN>node39</GIVEN>
     <TABLE>0.1316 0.3226 0.1196 0.4262 0.0562 0.0764 0.7164 0.151 0.3325 0.0387 0.3929 0.2359 0.3752 0.0036 0.5442 0.077 0.0743 0.7936 0.1229 0.0092 0.0603 0.0995 0.2954 0.5448 0.6487 0.0969 0.1032 0.1512 0.3936 0.0371 0.01 0.5593 0.3275 0.0405 0.6095 0.0225 0.0315 0.4898 0.3475 0.1312 0.1951 0.3443 0.4591 0.0015 0.1674 0.029 0.2457 0.5579 0.2314 0.002 0.1941 0.5725 0.1325 0.1226 0.4231 0.3218 0.0461 0.5229 0.3759 0.0551 0.1475 0.0486 0.6183 0.1856 0.1579 0.6456 0.1877 0.0088 0.2031 0.4454 0.1473 0.2042 0.5065 0.2517 0.07 0.1718 0.0394 0.1252 0.8202 0.0152 0.0291 0.3592 0.262 0.3497 0.1572 0.1288 0.1595 0.5545 0.3403 0.034 0.1839 0.4418 0.6792 0.0826 0.0117 0.2265 0.2302 0.2902 0.4763 0.0033 0.0985 0.6534 0.1388 0.1093 0.132 0.4828 0.2362 0.149 0.2684 0.1995 0.4858 0.0463 0.0575 0.241 0.1765 0.525 0.1091 0.6905 0.0625 0.1379 0.469 0.3027 0.072 0.1563 0.2526 0.1692 0.559 0.0192 0.0826 0.3753 0.4583 0.0838 0.603 0.098 0.2343 0.0647 0.652 0.0279 0.2457 0.0744 0.3101 0.3727 0.2325 0.0847 0.2936 0.0029 0.4352 0.2683 0.0014 0.7295 0.0364 0.2327 0.53 0.0904 0.2179 0.1617 0.8291 0.0958 0.0078 0.0673 0.1004 0.0292 0.7399 0.1305 0.3654 0.4844 0.0037 0.1465 0.1294 0.5748 0.2141 0.0817 0.2199 0.6498 0.0325 0.0978 0.0094 0.2636 0.2467 0.4803 0.6345 0.0055 0.3121 0.0479 0.1487 0.051 0.6311 0.1692 0.7354 0.014 0.0507 0.1999 </TABLE>
 </DEFINITION>
 <DEFINITION>
      <FOR>node35</FOR>
      <GIVEN>node0</GIVEN>
     <TABLE>0.1085 0.6503 0.0905 0.1507 0.5487 0.202 0.1743 0.075 0.0608 0.7563 0.1728 0.0101 </TABLE>
 </DEFINITION>
 <DEFINITION>
      <FOR>node36</FOR>
      <GIVEN>node12</GIVEN>
     <TABLE>0.0406 0.3205 0.356 0.2829 0.2362 0.1368 0.3072 0.3198 0.2643 0.2337 0.4985 0.0035 </TABLE>
 </DEFINITION>
 <DEFINITION>
      <FOR>node37</FOR>
     <TABLE>0.3232 0.6768 </TABLE>
 </DEFINITION>
 <DEFINITION>
      <FOR>node38</FOR>
      <GIVEN>node37</GIVEN>
      <GIVEN>node25</GIVEN>
      <GIVEN>node31</GIVEN>
      <GIVEN>node33</GIVEN>
     <TABLE>0.6676 0.0958 0.0819 0.1547 0.062 0.0909 0.1273 0.7198 0.0147 0.7967 0.0763 0.1123 0.0388 0.3328 0.0371 0.5913 0.1841 0.3172 0.3038 0.1949 0.2472 0.018 0.5186 0.2162 0.1218 0.3247 0.4879 0.0656 0.1439 0.0643 0.6446 0.1472 0.4848 0.2907 0.085 0.1395 0.0575 0.6256 0.162 0.1549 0.2873 0.0597 0.0491 0.6039 0.0546 0.002 0.4152 0.5282 0.0262 0.3421 0.4656 0.1661 0.3344 0.0328 0.4923 0.1405 0.04 0.2622 0.1396 0.5582 0.1715 0.4982 0.078 0.2523 0.0063 0.515 0.4438 0.0349 0.1162 0.2081 0.3547 0.321 0.3552 0.2077 0.2539 0.1832 0.2053 0.6539 0.0433 0.0975 0.3115 0.1463 0.3452 0.197 0.0327 0.3689 0.462 0.1364 0.024 0.7098 0.0691 0.1971 0.3437 0.0933 0.2827 0.2803 0.2324 0.4029 0.2967 0.068 0.4207 0.0755 0.0323 0.4715 0.2512 0.0015 0.0919 0.6554 0.0448 0.0825 0.8282 0.0445 0.1316 0.4575 0.3188 0.0921 0.0043 0.4805 0.2356 0.2796 0.0617 0.4827 0.4326 0.023 0.2318 0.5732 0.1077 0.0873 </TABLE>
 </DEFINITION>
 <DEFINITION>
      <FOR>node39</FOR>
     <TABLE>0.5181 0.3692 0.0696 0.0431 </TABLE>
 </DEFINITION>
</NETWORK>
</BIF>
