<?xml version="1.0" encoding="US-ASCII"?>


<!--
	Bayesian network in XMLBIF v0.3 (BayesNet Interchange Format)
	Produced by JavaBayes (http://www.cs.cmu.edu/~javabayes/
	Number of nodes:10
	Output created Wed Mar 01 12:19:44 CET 2017
-->



<BIF VERSION="0.3">
<NETWORK>
<NAME>InternalNetwork</NAME>
<!-- Variables -->
<VARIABLE TYPE="nature">
    <NAME>node0</NAME>
    <OUTCOME>state0</OUTCOME>
    <OUTCOME>state1</OUTCOME>
    <OUTCOME>state2</OUTCOME>
    <PROPERTY>position = (15, 150)</PROPERTY>
</VARIABLE>
<!-- Variables -->
<VARIABLE TYPE="nature">
    <NAME>node1</NAME>
    <OUTCOME>state0</OUTCOME>
    <OUTCOME>state1</OUTCOME>
    <PROPERTY>position = (44, 270)</PROPERTY>
</VARIABLE>
<!-- Variables -->
<VARIABLE TYPE="nature">
    <NAME>node2</NAME>
    <OUTCOME>state0</OUTCOME>
    <OUTCOME>state1</OUTCOME>
    <PROPERTY>position = (164, 284)</PROPERTY>
</VARIABLE>
<!-- Variables -->
<VARIABLE TYPE="nature">
    <NAME>node3</NAME>
    <OUTCOME>state0</OUTCOME>
    <OUTCOME>state1</OUTCOME>
    <PROPERTY>position = (45, 30)</PROPERTY>
</VARIABLE>
<!-- Variables -->
<VARIABLE TYPE="nature">
    <NAME>node4</NAME>
    <OUTCOME>state0</OUTCOME>
    <OUTCOME>state1</OUTCOME>
    <OUTCOME>state2</OUTCOME>
    <PROPERTY>position = (165, 44)</PROPERTY>
</VARIABLE>
<!-- Variables -->
<VARIABLE TYPE="nature">
    <NAME>node5</NAME>
    <OUTCOME>state0</OUTCOME>
    <OUTCOME>state1</OUTCOME>
    <PROPERTY>position = (135, 164)</PROPERTY>
</VARIABLE>
<!-- Variables -->
<VARIABLE TYPE="nature">
    <NAME>node6</NAME>
    <OUTCOME>state0</OUTCOME>
    <OUTCOME>state1</OUTCOME>
    <OUTCOME>state2</OUTCOME>
    <PROPERTY>position = (255, 150)</PROPERTY>
</VARIABLE>
<!-- Variables -->
<VARIABLE TYPE="nature">
    <NAME>node7</NAME>
    <OUTCOME>state0</OUTCOME>
    <OUTCOME>state1</OUTCOME>
    <OUTCOME>state2</OUTCOME>
    <PROPERTY>position = (285, 30)</PROPERTY>
</VARIABLE>
<!-- Variables -->
<VARIABLE TYPE="nature">
    <NAME>node8</NAME>
    <OUTCOME>state0</OUTCOME>
    <OUTCOME>state1</OUTCOME>
    <PROPERTY>position = (284, 270)</PROPERTY>
</VARIABLE>
<!-- Variables -->
<VARIABLE TYPE="nature">
    <NAME>node9</NAME>
    <OUTCOME>state0</OUTCOME>
    <OUTCOME>state1</OUTCOME>
    <PROPERTY>position = (405, 15)</PROPERTY>
</VARIABLE>
<!-- Probability Distributions -->
 <DEFINITION>
      <FOR>node0</FOR>
      <GIVEN>node4</GIVEN>
     <TABLE>0.0882 0.0839 0.8279 0.0062 0.8613 0.1325 0.3433 0.3136 0.3431 </TABLE>
 </DEFINITION>
 <DEFINITION>
      <FOR>node1</FOR>
      <GIVEN>node3</GIVEN>
      <GIVEN>node9</GIVEN>
     <TABLE>0.7241 0.2759 0.7212 0.2788 0.5115 0.4885 0.5832 0.4168 </TABLE>
 </DEFINITION>
 <DEFINITION>
      <FOR>node2</FOR>
      <GIVEN>node1</GIVEN>
      <GIVEN>node7</GIVEN>
     <TABLE>0.0782 0.9218 0.9107 0.0893 0.5847 0.4153 0.508 0.492 0.7458 0.2542 0.0381 0.9619 </TABLE>
 </DEFINITION>
 <DEFINITION>
      <FOR>node3</FOR>
     <TABLE>0.7043 0.2957 </TABLE>
 </DEFINITION>
 <DEFINITION>
      <FOR>node4</FOR>
     <TABLE>0.3441 0.3277 0.3282 </TABLE>
 </DEFINITION>
 <DEFINITION>
      <FOR>node5</FOR>
      <GIVEN>node9</GIVEN>
     <TABLE>0.8342 0.1658 0.7679 0.2321 </TABLE>
 </DEFINITION>
 <DEFINITION>
      <FOR>node6</FOR>
      <GIVEN>node3</GIVEN>
     <TABLE>0.0896 0.2263 0.6841 0.0259 0.0969 0.8772 </TABLE>
 </DEFINITION>
 <DEFINITION>
      <FOR>node7</FOR>
     <TABLE>0.019 0.4454 0.5356 </TABLE>
 </DEFINITION>
 <DEFINITION>
      <FOR>node8</FOR>
      <GIVEN>node3</GIVEN>
      <GIVEN>node0</GIVEN>
     <TABLE>0.539 0.461 0.833 0.167 0.4488 0.5512 0.0105 0.9895 0.6471 0.3529 0.448 0.552 </TABLE>
 </DEFINITION>
 <DEFINITION>
      <FOR>node9</FOR>
     <TABLE>0.1716 0.8284 </TABLE>
 </DEFINITION>
</NETWORK>
</BIF>
