<?xml version="1.0" encoding="US-ASCII"?>


<!--
	Bayesian network in XMLBIF v0.3 (BayesNet Interchange Format)
	Produced by JavaBayes (http://www.cs.cmu.edu/~javabayes/
	Number of nodes:40
	Output created Tue Feb 28 15:48:20 CET 2017
-->



<BIF VERSION="0.3">
<NETWORK>
<NAME>InternalNetwork</NAME>
<!-- Variables -->
<VARIABLE TYPE="nature">
    <NAME>node0</NAME>
    <OUTCOME>state0</OUTCOME>
    <OUTCOME>state1</OUTCOME>
    <OUTCOME>state2</OUTCOME>
    <PROPERTY>position = (44, 270)</PROPERTY>
</VARIABLE>
<!-- Variables -->
<VARIABLE TYPE="nature">
    <NAME>node1</NAME>
    <OUTCOME>state0</OUTCOME>
    <OUTCOME>state1</OUTCOME>
    <PROPERTY>position = (45, 30)</PROPERTY>
</VARIABLE>
<!-- Variables -->
<VARIABLE TYPE="nature">
    <NAME>node2</NAME>
    <OUTCOME>state0</OUTCOME>
    <OUTCOME>state1</OUTCOME>
    <OUTCOME>state2</OUTCOME>
    <PROPERTY>position = (15, 150)</PROPERTY>
</VARIABLE>
<!-- Variables -->
<VARIABLE TYPE="nature">
    <NAME>node3</NAME>
    <OUTCOME>state0</OUTCOME>
    <OUTCOME>state1</OUTCOME>
    <OUTCOME>state2</OUTCOME>
    <PROPERTY>position = (165, 44)</PROPERTY>
</VARIABLE>
<!-- Variables -->
<VARIABLE TYPE="nature">
    <NAME>node4</NAME>
    <OUTCOME>state0</OUTCOME>
    <OUTCOME>state1</OUTCOME>
    <OUTCOME>state2</OUTCOME>
    <OUTCOME>state3</OUTCOME>
    <PROPERTY>position = (164, 284)</PROPERTY>
</VARIABLE>
<!-- Variables -->
<VARIABLE TYPE="nature">
    <NAME>node5</NAME>
    <OUTCOME>state0</OUTCOME>
    <OUTCOME>state1</OUTCOME>
    <OUTCOME>state2</OUTCOME>
    <OUTCOME>state3</OUTCOME>
    <PROPERTY>position = (285, 30)</PROPERTY>
</VARIABLE>
<!-- Variables -->
<VARIABLE TYPE="nature">
    <NAME>node6</NAME>
    <OUTCOME>state0</OUTCOME>
    <OUTCOME>state1</OUTCOME>
    <PROPERTY>position = (135, 164)</PROPERTY>
</VARIABLE>
<!-- Variables -->
<VARIABLE TYPE="nature">
    <NAME>node7</NAME>
    <OUTCOME>state0</OUTCOME>
    <OUTCOME>state1</OUTCOME>
    <PROPERTY>position = (284, 270)</PROPERTY>
</VARIABLE>
<!-- Variables -->
<VARIABLE TYPE="nature">
    <NAME>node8</NAME>
    <OUTCOME>state0</OUTCOME>
    <OUTCOME>state1</OUTCOME>
    <OUTCOME>state2</OUTCOME>
    <OUTCOME>state3</OUTCOME>
    <PROPERTY>position = (404, 255)</PROPERTY>
</VARIABLE>
<!-- Variables -->
<VARIABLE TYPE="nature">
    <NAME>node9</NAME>
    <OUTCOME>state0</OUTCOME>
    <OUTCOME>state1</OUTCOME>
    <OUTCOME>state2</OUTCOME>
    <OUTCOME>state3</OUTCOME>
    <PROPERTY>position = (405, 15)</PROPERTY>
</VARIABLE>
<!-- Variables -->
<VARIABLE TYPE="nature">
    <NAME>node10</NAME>
    <OUTCOME>state0</OUTCOME>
    <OUTCOME>state1</OUTCOME>
    <OUTCOME>state2</OUTCOME>
    <PROPERTY>position = (524, 269)</PROPERTY>
</VARIABLE>
<!-- Variables -->
<VARIABLE TYPE="nature">
    <NAME>node11</NAME>
    <OUTCOME>state0</OUTCOME>
    <OUTCOME>state1</OUTCOME>
    <OUTCOME>state2</OUTCOME>
    <OUTCOME>state3</OUTCOME>
    <PROPERTY>position = (525, 29)</PROPERTY>
</VARIABLE>
<!-- Variables -->
<VARIABLE TYPE="nature">
    <NAME>node12</NAME>
    <OUTCOME>state0</OUTCOME>
    <OUTCOME>state1</OUTCOME>
    <OUTCOME>state2</OUTCOME>
    <PROPERTY>position = (645, 44)</PROPERTY>
</VARIABLE>
<!-- Variables -->
<VARIABLE TYPE="nature">
    <NAME>node13</NAME>
    <OUTCOME>state0</OUTCOME>
    <OUTCOME>state1</OUTCOME>
    <OUTCOME>state2</OUTCOME>
    <PROPERTY>position = (255, 150)</PROPERTY>
</VARIABLE>
<!-- Variables -->
<VARIABLE TYPE="nature">
    <NAME>node14</NAME>
    <OUTCOME>state0</OUTCOME>
    <OUTCOME>state1</OUTCOME>
    <OUTCOME>state2</OUTCOME>
    <OUTCOME>state3</OUTCOME>
    <PROPERTY>position = (765, 30)</PROPERTY>
</VARIABLE>
<!-- Variables -->
<VARIABLE TYPE="nature">
    <NAME>node15</NAME>
    <OUTCOME>state0</OUTCOME>
    <OUTCOME>state1</OUTCOME>
    <OUTCOME>state2</OUTCOME>
    <PROPERTY>position = (644, 284)</PROPERTY>
</VARIABLE>
<!-- Variables -->
<VARIABLE TYPE="nature">
    <NAME>node16</NAME>
    <OUTCOME>state0</OUTCOME>
    <OUTCOME>state1</OUTCOME>
    <PROPERTY>position = (885, 15)</PROPERTY>
</VARIABLE>
<!-- Variables -->
<VARIABLE TYPE="nature">
    <NAME>node17</NAME>
    <OUTCOME>state0</OUTCOME>
    <OUTCOME>state1</OUTCOME>
    <PROPERTY>position = (764, 270)</PROPERTY>
</VARIABLE>
<!-- Variables -->
<VARIABLE TYPE="nature">
    <NAME>node18</NAME>
    <OUTCOME>state0</OUTCOME>
    <OUTCOME>state1</OUTCOME>
    <OUTCOME>state2</OUTCOME>
    <PROPERTY>position = (1005, 29)</PROPERTY>
</VARIABLE>
<!-- Variables -->
<VARIABLE TYPE="nature">
    <NAME>node19</NAME>
    <OUTCOME>state0</OUTCOME>
    <OUTCOME>state1</OUTCOME>
    <PROPERTY>position = (375, 135)</PROPERTY>
</VARIABLE>
<!-- Variables -->
<VARIABLE TYPE="nature">
    <NAME>node20</NAME>
    <OUTCOME>state0</OUTCOME>
    <OUTCOME>state1</OUTCOME>
    <OUTCOME>state2</OUTCOME>
    <OUTCOME>state3</OUTCOME>
    <PROPERTY>position = (495, 149)</PROPERTY>
</VARIABLE>
<!-- Variables -->
<VARIABLE TYPE="nature">
    <NAME>node21</NAME>
    <OUTCOME>state0</OUTCOME>
    <OUTCOME>state1</OUTCOME>
    <PROPERTY>position = (615, 164)</PROPERTY>
</VARIABLE>
<!-- Variables -->
<VARIABLE TYPE="nature">
    <NAME>node22</NAME>
    <OUTCOME>state0</OUTCOME>
    <OUTCOME>state1</OUTCOME>
    <PROPERTY>position = (884, 255)</PROPERTY>
</VARIABLE>
<!-- Variables -->
<VARIABLE TYPE="nature">
    <NAME>node23</NAME>
    <OUTCOME>state0</OUTCOME>
    <OUTCOME>state1</OUTCOME>
    <OUTCOME>state2</OUTCOME>
    <OUTCOME>state3</OUTCOME>
    <PROPERTY>position = (735, 150)</PROPERTY>
</VARIABLE>
<!-- Variables -->
<VARIABLE TYPE="nature">
    <NAME>node24</NAME>
    <OUTCOME>state0</OUTCOME>
    <OUTCOME>state1</OUTCOME>
    <PROPERTY>position = (1004, 269)</PROPERTY>
</VARIABLE>
<!-- Variables -->
<VARIABLE TYPE="nature">
    <NAME>node25</NAME>
    <OUTCOME>state0</OUTCOME>
    <OUTCOME>state1</OUTCOME>
    <OUTCOME>state2</OUTCOME>
    <OUTCOME>state3</OUTCOME>
    <PROPERTY>position = (1124, 284)</PROPERTY>
</VARIABLE>
<!-- Variables -->
<VARIABLE TYPE="nature">
    <NAME>node26</NAME>
    <OUTCOME>state0</OUTCOME>
    <OUTCOME>state1</OUTCOME>
    <OUTCOME>state2</OUTCOME>
    <PROPERTY>position = (855, 135)</PROPERTY>
</VARIABLE>
<!-- Variables -->
<VARIABLE TYPE="nature">
    <NAME>node27</NAME>
    <OUTCOME>state0</OUTCOME>
    <OUTCOME>state1</OUTCOME>
    <PROPERTY>position = (1125, 44)</PROPERTY>
</VARIABLE>
<!-- Variables -->
<VARIABLE TYPE="nature">
    <NAME>node28</NAME>
    <OUTCOME>state0</OUTCOME>
    <OUTCOME>state1</OUTCOME>
    <OUTCOME>state2</OUTCOME>
    <PROPERTY>position = (975, 149)</PROPERTY>
</VARIABLE>
<!-- Variables -->
<VARIABLE TYPE="nature">
    <NAME>node29</NAME>
    <OUTCOME>state0</OUTCOME>
    <OUTCOME>state1</OUTCOME>
    <OUTCOME>state2</OUTCOME>
    <PROPERTY>position = (1244, 270)</PROPERTY>
</VARIABLE>
<!-- Variables -->
<VARIABLE TYPE="nature">
    <NAME>node30</NAME>
    <OUTCOME>state0</OUTCOME>
    <OUTCOME>state1</OUTCOME>
    <OUTCOME>state2</OUTCOME>
    <OUTCOME>state3</OUTCOME>
    <PROPERTY>position = (1245, 30)</PROPERTY>
</VARIABLE>
<!-- Variables -->
<VARIABLE TYPE="nature">
    <NAME>node31</NAME>
    <OUTCOME>state0</OUTCOME>
    <OUTCOME>state1</OUTCOME>
    <PROPERTY>position = (1095, 164)</PROPERTY>
</VARIABLE>
<!-- Variables -->
<VARIABLE TYPE="nature">
    <NAME>node32</NAME>
    <OUTCOME>state0</OUTCOME>
    <OUTCOME>state1</OUTCOME>
    <PROPERTY>position = (1215, 150)</PROPERTY>
</VARIABLE>
<!-- Variables -->
<VARIABLE TYPE="nature">
    <NAME>node33</NAME>
    <OUTCOME>state0</OUTCOME>
    <OUTCOME>state1</OUTCOME>
    <OUTCOME>state2</OUTCOME>
    <PROPERTY>position = (1335, 135)</PROPERTY>
</VARIABLE>
<!-- Variables -->
<VARIABLE TYPE="nature">
    <NAME>node34</NAME>
    <OUTCOME>state0</OUTCOME>
    <OUTCOME>state1</OUTCOME>
    <PROPERTY>position = (1455, 149)</PROPERTY>
</VARIABLE>
<!-- Variables -->
<VARIABLE TYPE="nature">
    <NAME>node35</NAME>
    <OUTCOME>state0</OUTCOME>
    <OUTCOME>state1</OUTCOME>
    <PROPERTY>position = (1364, 255)</PROPERTY>
</VARIABLE>
<!-- Variables -->
<VARIABLE TYPE="nature">
    <NAME>node36</NAME>
    <OUTCOME>state0</OUTCOME>
    <OUTCOME>state1</OUTCOME>
    <OUTCOME>state2</OUTCOME>
    <PROPERTY>position = (1365, 15)</PROPERTY>
</VARIABLE>
<!-- Variables -->
<VARIABLE TYPE="nature">
    <NAME>node37</NAME>
    <OUTCOME>state0</OUTCOME>
    <OUTCOME>state1</OUTCOME>
    <OUTCOME>state2</OUTCOME>
    <PROPERTY>position = (1485, 29)</PROPERTY>
</VARIABLE>
<!-- Variables -->
<VARIABLE TYPE="nature">
    <NAME>node38</NAME>
    <OUTCOME>state0</OUTCOME>
    <OUTCOME>state1</OUTCOME>
    <OUTCOME>state2</OUTCOME>
    <OUTCOME>state3</OUTCOME>
    <PROPERTY>position = (1575, 164)</PROPERTY>
</VARIABLE>
<!-- Variables -->
<VARIABLE TYPE="nature">
    <NAME>node39</NAME>
    <OUTCOME>state0</OUTCOME>
    <OUTCOME>state1</OUTCOME>
    <OUTCOME>state2</OUTCOME>
    <OUTCOME>state3</OUTCOME>
    <PROPERTY>position = (1695, 150)</PROPERTY>
</VARIABLE>
<!-- Probability Distributions -->
 <DEFINITION>
      <FOR>node0</FOR>
      <GIVEN>node24</GIVEN>
      <GIVEN>node6</GIVEN>
     <TABLE>0.7727 0.0012 0.2261 0.3771 0.6138 0.0091 0.3961 0.2384 0.3655 0.0099 0.4229 0.5672 </TABLE>
 </DEFINITION>
 <DEFINITION>
      <FOR>node1</FOR>
     <TABLE>0.9055 0.0945 </TABLE>
 </DEFINITION>
 <DEFINITION>
      <FOR>node2</FOR>
      <GIVEN>node24</GIVEN>
     <TABLE>0.0716 0.1752 0.7532 0.0816 0.0134 0.905 </TABLE>
 </DEFINITION>
 <DEFINITION>
      <FOR>node3</FOR>
     <TABLE>0.2956 0.474 0.2304 </TABLE>
 </DEFINITION>
 <DEFINITION>
      <FOR>node4</FOR>
      <GIVEN>node13</GIVEN>
      <GIVEN>node3</GIVEN>
     <TABLE>0.4899 0.0511 0.0548 0.4042 0.1034 0.3726 0.2779 0.2461 0.6348 0.1083 0.1067 0.1502 0.1187 0.1554 0.6047 0.1212 0.5192 0.0721 0.2154 0.1933 0.528 0.1565 0.2533 0.0622 0.0929 0.3914 0.5086 0.0071 0.0519 0.1373 0.622 0.1888 0.5569 0.0903 0.0039 0.3489 </TABLE>
 </DEFINITION>
 <DEFINITION>
      <FOR>node5</FOR>
     <TABLE>0.2338 0.081 0.178 0.5072 </TABLE>
 </DEFINITION>
 <DEFINITION>
      <FOR>node6</FOR>
      <GIVEN>node39</GIVEN>
     <TABLE>0.5691 0.4309 0.0484 0.9516 0.9203 0.0797 0.1062 0.8938 </TABLE>
 </DEFINITION>
 <DEFINITION>
      <FOR>node7</FOR>
      <GIVEN>node30</GIVEN>
      <GIVEN>node36</GIVEN>
     <TABLE>0.492 0.508 0.4675 0.5325 0.1912 0.8088 0.4825 0.5175 0.4229 0.5771 0.2845 0.7155 0.1136 0.8864 0.141 0.859 0.9741 0.0259 0.4522 0.5478 0.6565 0.3435 0.3913 0.6087 </TABLE>
 </DEFINITION>
 <DEFINITION>
      <FOR>node8</FOR>
      <GIVEN>node14</GIVEN>
      <GIVEN>node35</GIVEN>
     <TABLE>0.455 0.1656 0.2165 0.1629 0.0188 0.1338 0.842 0.0054 0.1868 0.074 0.1642 0.575 0.224 0.4335 0.0951 0.2474 0.5779 0.2002 0.0963 0.1256 0.1849 0.0507 0.5096 0.2548 0.065 0.1956 0.1492 0.5902 0.1675 0.6005 0.0096 0.2224 </TABLE>
 </DEFINITION>
 <DEFINITION>
      <FOR>node9</FOR>
     <TABLE>0.0803 0.3885 0.4135 0.1177 </TABLE>
 </DEFINITION>
 <DEFINITION>
      <FOR>node10</FOR>
      <GIVEN>node20</GIVEN>
      <GIVEN>node19</GIVEN>
     <TABLE>0.2677 0.4196 0.3127 0.3553 0.4486 0.1961 0.2012 0.7757 0.0231 0.7755 0.1672 0.0573 0.3498 0.4107 0.2395 0.0258 0.0784 0.8958 0.438 0.1822 0.3798 0.8169 0.1537 0.0294 </TABLE>
 </DEFINITION>
 <DEFINITION>
      <FOR>node11</FOR>
     <TABLE>0.3116 0.0975 0.1994 0.3915 </TABLE>
 </DEFINITION>
 <DEFINITION>
      <FOR>node12</FOR>
     <TABLE>0.6111 0.2558 0.1331 </TABLE>
 </DEFINITION>
 <DEFINITION>
      <FOR>node13</FOR>
      <GIVEN>node12</GIVEN>
     <TABLE>0.2653 0.6932 0.0415 0.6838 0.2076 0.1086 0.031 0.3673 0.6017 </TABLE>
 </DEFINITION>
 <DEFINITION>
      <FOR>node14</FOR>
     <TABLE>0.0991 0.7197 0.02 0.1612 </TABLE>
 </DEFINITION>
 <DEFINITION>
      <FOR>node15</FOR>
      <GIVEN>node27</GIVEN>
      <GIVEN>node5</GIVEN>
     <TABLE>0.1508 0.3332 0.516 0.3554 0.4633 0.1813 0.0237 0.4747 0.5016 0.1182 0.5949 0.2869 0.1576 0.1125 0.7299 0.9122 0.0845 0.0033 0.8322 0.1059 0.0619 0.3967 0.5721 0.0312 </TABLE>
 </DEFINITION>
 <DEFINITION>
      <FOR>node16</FOR>
     <TABLE>0.9011 0.0989 </TABLE>
 </DEFINITION>
 <DEFINITION>
      <FOR>node17</FOR>
      <GIVEN>node18</GIVEN>
      <GIVEN>node22</GIVEN>
     <TABLE>0.444 0.556 0.0918 0.9082 0.7905 0.2095 0.8526 0.1474 0.7414 0.2586 0.2688 0.7312 </TABLE>
 </DEFINITION>
 <DEFINITION>
      <FOR>node18</FOR>
     <TABLE>0.1571 0.5412 0.3017 </TABLE>
 </DEFINITION>
 <DEFINITION>
      <FOR>node19</FOR>
      <GIVEN>node11</GIVEN>
     <TABLE>0.029 0.971 0.5693 0.4307 0.3173 0.6827 0.0785 0.9215 </TABLE>
 </DEFINITION>
 <DEFINITION>
      <FOR>node20</FOR>
      <GIVEN>node31</GIVEN>
     <TABLE>0.6715 0.138 0.0853 0.1052 0.1418 0.6891 0.0702 0.0989 </TABLE>
 </DEFINITION>
 <DEFINITION>
      <FOR>node21</FOR>
      <GIVEN>node1</GIVEN>
     <TABLE>0.6847 0.3153 0.3472 0.6528 </TABLE>
 </DEFINITION>
 <DEFINITION>
      <FOR>node22</FOR>
      <GIVEN>node1</GIVEN>
      <GIVEN>node7</GIVEN>
     <TABLE>0.4557 0.5443 0.6377 0.3623 0.6301 0.3699 0.3344 0.6656 </TABLE>
 </DEFINITION>
 <DEFINITION>
      <FOR>node23</FOR>
      <GIVEN>node32</GIVEN>
     <TABLE>0.1684 0.3677 0.0976 0.3663 0.6668 6.0E-4 0.1244 0.2082 </TABLE>
 </DEFINITION>
 <DEFINITION>
      <FOR>node24</FOR>
      <GIVEN>node28</GIVEN>
      <GIVEN>node38</GIVEN>
     <TABLE>0.3294 0.6706 0.7096 0.2904 0.953 0.047 0.4711 0.5289 0.5329 0.4671 0.8494 0.1506 0.9897 0.0103 0.9726 0.0274 0.3475 0.6525 0.5703 0.4297 0.1019 0.8981 0.4691 0.5309 </TABLE>
 </DEFINITION>
 <DEFINITION>
      <FOR>node25</FOR>
      <GIVEN>node10</GIVEN>
      <GIVEN>node30</GIVEN>
     <TABLE>0.0258 0.5013 0.4105 0.0624 0.1344 0.1722 0.4522 0.2412 0.2264 0.2448 0.4088 0.12 0.3056 0.0641 0.1401 0.4902 0.2353 0.4316 0.2352 0.0979 0.3126 0.0745 0.5975 0.0154 0.0758 0.3225 0.2103 0.3914 0.1288 0.4371 0.3645 0.0696 0.6055 0.1864 0.0678 0.1403 0.0338 0.1484 0.4052 0.4126 0.0658 0.4649 0.4498 0.0195 0.3886 0.2509 0.1805 0.18 </TABLE>
 </DEFINITION>
 <DEFINITION>
      <FOR>node26</FOR>
      <GIVEN>node24</GIVEN>
     <TABLE>0.1271 0.4062 0.4667 0.1117 0.0034 0.8849 </TABLE>
 </DEFINITION>
 <DEFINITION>
      <FOR>node27</FOR>
     <TABLE>0.0454 0.9546 </TABLE>
 </DEFINITION>
 <DEFINITION>
      <FOR>node28</FOR>
      <GIVEN>node37</GIVEN>
     <TABLE>0.2004 0.4535 0.3461 0.6487 0.1417 0.2096 0.0284 0.9029 0.0687 </TABLE>
 </DEFINITION>
 <DEFINITION>
      <FOR>node29</FOR>
      <GIVEN>node36</GIVEN>
      <GIVEN>node3</GIVEN>
     <TABLE>0.3532 0.4648 0.182 0.1461 0.1383 0.7156 0.4907 0.4926 0.0167 0.0193 0.8388 0.1419 0.3593 0.0929 0.5478 0.0776 0.2355 0.6869 0.0557 0.1795 0.7648 0.1435 0.6947 0.1618 0.239 0.6404 0.1206 </TABLE>
 </DEFINITION>
 <DEFINITION>
      <FOR>node30</FOR>
     <TABLE>0.195 0.576 0.0843 0.1447 </TABLE>
 </DEFINITION>
 <DEFINITION>
      <FOR>node31</FOR>
      <GIVEN>node16</GIVEN>
     <TABLE>0.6764 0.3236 0.9004 0.0996 </TABLE>
 </DEFINITION>
 <DEFINITION>
      <FOR>node32</FOR>
      <GIVEN>node14</GIVEN>
     <TABLE>0.1213 0.8787 0.0632 0.9368 0.865 0.135 0.9497 0.0503 </TABLE>
 </DEFINITION>
 <DEFINITION>
      <FOR>node33</FOR>
      <GIVEN>node35</GIVEN>
     <TABLE>0.4495 0.4543 0.0962 0.4004 0.2613 0.3383 </TABLE>
 </DEFINITION>
 <DEFINITION>
      <FOR>node34</FOR>
      <GIVEN>node12</GIVEN>
     <TABLE>0.2997 0.7003 0.5969 0.4031 0.8965 0.1035 </TABLE>
 </DEFINITION>
 <DEFINITION>
      <FOR>node35</FOR>
      <GIVEN>node29</GIVEN>
      <GIVEN>node9</GIVEN>
     <TABLE>0.1907 0.8093 0.0632 0.9368 0.2278 0.7722 0.6366 0.3634 0.1336 0.8664 0.1129 0.8871 0.8213 0.1787 0.9693 0.0307 0.4645 0.5355 0.2151 0.7849 0.3886 0.6114 0.7158 0.2842 </TABLE>
 </DEFINITION>
 <DEFINITION>
      <FOR>node36</FOR>
     <TABLE>0.6957 0.0887 0.2156 </TABLE>
 </DEFINITION>
 <DEFINITION>
      <FOR>node37</FOR>
     <TABLE>0.7318 0.0423 0.2259 </TABLE>
 </DEFINITION>
 <DEFINITION>
      <FOR>node38</FOR>
      <GIVEN>node14</GIVEN>
     <TABLE>0.4798 0.2112 0.2426 0.0664 0.4673 0.1705 0.0638 0.2984 0.018 0.2423 0.0811 0.6586 0.2879 0.0268 0.2784 0.4069 </TABLE>
 </DEFINITION>
 <DEFINITION>
      <FOR>node39</FOR>
      <GIVEN>node5</GIVEN>
     <TABLE>0.2257 0.2449 0.4087 0.1207 0.3553 0.4857 2.0E-4 0.1588 0.2378 0.1985 0.2177 0.346 0.1 0.0738 0.3646 0.4616 </TABLE>
 </DEFINITION>
</NETWORK>
</BIF>
