<?xml version="1.0" encoding="US-ASCII"?>


<!--
	Bayesian network in XMLBIF v0.3 (BayesNet Interchange Format)
	Produced by JavaBayes (http://www.cs.cmu.edu/~javabayes/
	Number of nodes:40
	Output created Tue Feb 28 15:48:20 CET 2017
-->



<BIF VERSION="0.3">
<NETWORK>
<NAME>InternalNetwork</NAME>
<!-- Variables -->
<VARIABLE TYPE="nature">
    <NAME>node0</NAME>
    <OUTCOME>state0</OUTCOME>
    <OUTCOME>state1</OUTCOME>
    <OUTCOME>state2</OUTCOME>
    <OUTCOME>state3</OUTCOME>
    <PROPERTY>position = (15, 150)</PROPERTY>
</VARIABLE>
<!-- Variables -->
<VARIABLE TYPE="nature">
    <NAME>node1</NAME>
    <OUTCOME>state0</OUTCOME>
    <OUTCOME>state1</OUTCOME>
    <OUTCOME>state2</OUTCOME>
    <OUTCOME>state3</OUTCOME>
    <PROPERTY>position = (44, 270)</PROPERTY>
</VARIABLE>
<!-- Variables -->
<VARIABLE TYPE="nature">
    <NAME>node2</NAME>
    <OUTCOME>state0</OUTCOME>
    <OUTCOME>state1</OUTCOME>
    <PROPERTY>position = (135, 164)</PROPERTY>
</VARIABLE>
<!-- Variables -->
<VARIABLE TYPE="nature">
    <NAME>node3</NAME>
    <OUTCOME>state0</OUTCOME>
    <OUTCOME>state1</OUTCOME>
    <OUTCOME>state2</OUTCOME>
    <OUTCOME>state3</OUTCOME>
    <PROPERTY>position = (45, 30)</PROPERTY>
</VARIABLE>
<!-- Variables -->
<VARIABLE TYPE="nature">
    <NAME>node4</NAME>
    <OUTCOME>state0</OUTCOME>
    <OUTCOME>state1</OUTCOME>
    <OUTCOME>state2</OUTCOME>
    <PROPERTY>position = (15, 390)</PROPERTY>
</VARIABLE>
<!-- Variables -->
<VARIABLE TYPE="nature">
    <NAME>node5</NAME>
    <OUTCOME>state0</OUTCOME>
    <OUTCOME>state1</OUTCOME>
    <OUTCOME>state2</OUTCOME>
    <PROPERTY>position = (165, 44)</PROPERTY>
</VARIABLE>
<!-- Variables -->
<VARIABLE TYPE="nature">
    <NAME>node6</NAME>
    <OUTCOME>state0</OUTCOME>
    <OUTCOME>state1</OUTCOME>
    <OUTCOME>state2</OUTCOME>
    <PROPERTY>position = (164, 284)</PROPERTY>
</VARIABLE>
<!-- Variables -->
<VARIABLE TYPE="nature">
    <NAME>node7</NAME>
    <OUTCOME>state0</OUTCOME>
    <OUTCOME>state1</OUTCOME>
    <OUTCOME>state2</OUTCOME>
    <PROPERTY>position = (284, 270)</PROPERTY>
</VARIABLE>
<!-- Variables -->
<VARIABLE TYPE="nature">
    <NAME>node8</NAME>
    <OUTCOME>state0</OUTCOME>
    <OUTCOME>state1</OUTCOME>
    <OUTCOME>state2</OUTCOME>
    <OUTCOME>state3</OUTCOME>
    <PROPERTY>position = (285, 30)</PROPERTY>
</VARIABLE>
<!-- Variables -->
<VARIABLE TYPE="nature">
    <NAME>node9</NAME>
    <OUTCOME>state0</OUTCOME>
    <OUTCOME>state1</OUTCOME>
    <OUTCOME>state2</OUTCOME>
    <PROPERTY>position = (255, 150)</PROPERTY>
</VARIABLE>
<!-- Variables -->
<VARIABLE TYPE="nature">
    <NAME>node10</NAME>
    <OUTCOME>state0</OUTCOME>
    <OUTCOME>state1</OUTCOME>
    <OUTCOME>state2</OUTCOME>
    <OUTCOME>state3</OUTCOME>
    <PROPERTY>position = (404, 255)</PROPERTY>
</VARIABLE>
<!-- Variables -->
<VARIABLE TYPE="nature">
    <NAME>node11</NAME>
    <OUTCOME>state0</OUTCOME>
    <OUTCOME>state1</OUTCOME>
    <OUTCOME>state2</OUTCOME>
    <PROPERTY>position = (405, 15)</PROPERTY>
</VARIABLE>
<!-- Variables -->
<VARIABLE TYPE="nature">
    <NAME>node12</NAME>
    <OUTCOME>state0</OUTCOME>
    <OUTCOME>state1</OUTCOME>
    <PROPERTY>position = (525, 29)</PROPERTY>
</VARIABLE>
<!-- Variables -->
<VARIABLE TYPE="nature">
    <NAME>node13</NAME>
    <OUTCOME>state0</OUTCOME>
    <OUTCOME>state1</OUTCOME>
    <PROPERTY>position = (524, 269)</PROPERTY>
</VARIABLE>
<!-- Variables -->
<VARIABLE TYPE="nature">
    <NAME>node14</NAME>
    <OUTCOME>state0</OUTCOME>
    <OUTCOME>state1</OUTCOME>
    <PROPERTY>position = (375, 135)</PROPERTY>
</VARIABLE>
<!-- Variables -->
<VARIABLE TYPE="nature">
    <NAME>node15</NAME>
    <OUTCOME>state0</OUTCOME>
    <OUTCOME>state1</OUTCOME>
    <OUTCOME>state2</OUTCOME>
    <PROPERTY>position = (495, 149)</PROPERTY>
</VARIABLE>
<!-- Variables -->
<VARIABLE TYPE="nature">
    <NAME>node16</NAME>
    <OUTCOME>state0</OUTCOME>
    <OUTCOME>state1</OUTCOME>
    <PROPERTY>position = (644, 284)</PROPERTY>
</VARIABLE>
<!-- Variables -->
<VARIABLE TYPE="nature">
    <NAME>node17</NAME>
    <OUTCOME>state0</OUTCOME>
    <OUTCOME>state1</OUTCOME>
    <OUTCOME>state2</OUTCOME>
    <PROPERTY>position = (645, 44)</PROPERTY>
</VARIABLE>
<!-- Variables -->
<VARIABLE TYPE="nature">
    <NAME>node18</NAME>
    <OUTCOME>state0</OUTCOME>
    <OUTCOME>state1</OUTCOME>
    <OUTCOME>state2</OUTCOME>
    <PROPERTY>position = (765, 30)</PROPERTY>
</VARIABLE>
<!-- Variables -->
<VARIABLE TYPE="nature">
    <NAME>node19</NAME>
    <OUTCOME>state0</OUTCOME>
    <OUTCOME>state1</OUTCOME>
    <PROPERTY>position = (764, 270)</PROPERTY>
</VARIABLE>
<!-- Variables -->
<VARIABLE TYPE="nature">
    <NAME>node20</NAME>
    <OUTCOME>state0</OUTCOME>
    <OUTCOME>state1</OUTCOME>
    <PROPERTY>position = (615, 164)</PROPERTY>
</VARIABLE>
<!-- Variables -->
<VARIABLE TYPE="nature">
    <NAME>node21</NAME>
    <OUTCOME>state0</OUTCOME>
    <OUTCOME>state1</OUTCOME>
    <PROPERTY>position = (885, 15)</PROPERTY>
</VARIABLE>
<!-- Variables -->
<VARIABLE TYPE="nature">
    <NAME>node22</NAME>
    <OUTCOME>state0</OUTCOME>
    <OUTCOME>state1</OUTCOME>
    <PROPERTY>position = (1005, 29)</PROPERTY>
</VARIABLE>
<!-- Variables -->
<VARIABLE TYPE="nature">
    <NAME>node23</NAME>
    <OUTCOME>state0</OUTCOME>
    <OUTCOME>state1</OUTCOME>
    <OUTCOME>state2</OUTCOME>
    <PROPERTY>position = (735, 150)</PROPERTY>
</VARIABLE>
<!-- Variables -->
<VARIABLE TYPE="nature">
    <NAME>node24</NAME>
    <OUTCOME>state0</OUTCOME>
    <OUTCOME>state1</OUTCOME>
    <OUTCOME>state2</OUTCOME>
    <PROPERTY>position = (855, 135)</PROPERTY>
</VARIABLE>
<!-- Variables -->
<VARIABLE TYPE="nature">
    <NAME>node25</NAME>
    <OUTCOME>state0</OUTCOME>
    <OUTCOME>state1</OUTCOME>
    <OUTCOME>state2</OUTCOME>
    <PROPERTY>position = (975, 149)</PROPERTY>
</VARIABLE>
<!-- Variables -->
<VARIABLE TYPE="nature">
    <NAME>node26</NAME>
    <OUTCOME>state0</OUTCOME>
    <OUTCOME>state1</OUTCOME>
    <PROPERTY>position = (1095, 164)</PROPERTY>
</VARIABLE>
<!-- Variables -->
<VARIABLE TYPE="nature">
    <NAME>node27</NAME>
    <OUTCOME>state0</OUTCOME>
    <OUTCOME>state1</OUTCOME>
    <OUTCOME>state2</OUTCOME>
    <OUTCOME>state3</OUTCOME>
    <PROPERTY>position = (1125, 44)</PROPERTY>
</VARIABLE>
<!-- Variables -->
<VARIABLE TYPE="nature">
    <NAME>node28</NAME>
    <OUTCOME>state0</OUTCOME>
    <OUTCOME>state1</OUTCOME>
    <OUTCOME>state2</OUTCOME>
    <PROPERTY>position = (1215, 150)</PROPERTY>
</VARIABLE>
<!-- Variables -->
<VARIABLE TYPE="nature">
    <NAME>node29</NAME>
    <OUTCOME>state0</OUTCOME>
    <OUTCOME>state1</OUTCOME>
    <OUTCOME>state2</OUTCOME>
    <PROPERTY>position = (1335, 135)</PROPERTY>
</VARIABLE>
<!-- Variables -->
<VARIABLE TYPE="nature">
    <NAME>node30</NAME>
    <OUTCOME>state0</OUTCOME>
    <OUTCOME>state1</OUTCOME>
    <OUTCOME>state2</OUTCOME>
    <PROPERTY>position = (1245, 30)</PROPERTY>
</VARIABLE>
<!-- Variables -->
<VARIABLE TYPE="nature">
    <NAME>node31</NAME>
    <OUTCOME>state0</OUTCOME>
    <OUTCOME>state1</OUTCOME>
    <OUTCOME>state2</OUTCOME>
    <OUTCOME>state3</OUTCOME>
    <PROPERTY>position = (1455, 149)</PROPERTY>
</VARIABLE>
<!-- Variables -->
<VARIABLE TYPE="nature">
    <NAME>node32</NAME>
    <OUTCOME>state0</OUTCOME>
    <OUTCOME>state1</OUTCOME>
    <OUTCOME>state2</OUTCOME>
    <OUTCOME>state3</OUTCOME>
    <PROPERTY>position = (884, 255)</PROPERTY>
</VARIABLE>
<!-- Variables -->
<VARIABLE TYPE="nature">
    <NAME>node33</NAME>
    <OUTCOME>state0</OUTCOME>
    <OUTCOME>state1</OUTCOME>
    <OUTCOME>state2</OUTCOME>
    <OUTCOME>state3</OUTCOME>
    <PROPERTY>position = (135, 404)</PROPERTY>
</VARIABLE>
<!-- Variables -->
<VARIABLE TYPE="nature">
    <NAME>node34</NAME>
    <OUTCOME>state0</OUTCOME>
    <OUTCOME>state1</OUTCOME>
    <OUTCOME>state2</OUTCOME>
    <PROPERTY>position = (1575, 164)</PROPERTY>
</VARIABLE>
<!-- Variables -->
<VARIABLE TYPE="nature">
    <NAME>node35</NAME>
    <OUTCOME>state0</OUTCOME>
    <OUTCOME>state1</OUTCOME>
    <OUTCOME>state2</OUTCOME>
    <PROPERTY>position = (1695, 150)</PROPERTY>
</VARIABLE>
<!-- Variables -->
<VARIABLE TYPE="nature">
    <NAME>node36</NAME>
    <OUTCOME>state0</OUTCOME>
    <OUTCOME>state1</OUTCOME>
    <PROPERTY>position = (1365, 15)</PROPERTY>
</VARIABLE>
<!-- Variables -->
<VARIABLE TYPE="nature">
    <NAME>node37</NAME>
    <OUTCOME>state0</OUTCOME>
    <OUTCOME>state1</OUTCOME>
    <OUTCOME>state2</OUTCOME>
    <PROPERTY>position = (1815, 135)</PROPERTY>
</VARIABLE>
<!-- Variables -->
<VARIABLE TYPE="nature">
    <NAME>node38</NAME>
    <OUTCOME>state0</OUTCOME>
    <OUTCOME>state1</OUTCOME>
    <PROPERTY>position = (1935, 149)</PROPERTY>
</VARIABLE>
<!-- Variables -->
<VARIABLE TYPE="nature">
    <NAME>node39</NAME>
    <OUTCOME>state0</OUTCOME>
    <OUTCOME>state1</OUTCOME>
    <PROPERTY>position = (1485, 29)</PROPERTY>
</VARIABLE>
<!-- Probability Distributions -->
 <DEFINITION>
      <FOR>node0</FOR>
      <GIVEN>node1</GIVEN>
     <TABLE>0.0364 0.0965 0.6292 0.2379 0.108 0.7224 0.0191 0.1505 0.0583 0.3779 0.1641 0.3997 0.5755 0.0829 0.2027 0.1389 </TABLE>
 </DEFINITION>
 <DEFINITION>
      <FOR>node1</FOR>
      <GIVEN>node31</GIVEN>
      <GIVEN>node22</GIVEN>
     <TABLE>0.2589 0.3604 0.001 0.3797 0.6409 0.0544 0.0542 0.2505 0.056 0.1231 0.5106 0.3103 0.2783 0.0622 0.3591 0.3004 0.4525 0.2217 0.2702 0.0556 0.2357 0.4409 0.1552 0.1682 0.1091 0.466 0.2383 0.1866 0.0493 0.4184 0.1246 0.4077 </TABLE>
 </DEFINITION>
 <DEFINITION>
      <FOR>node2</FOR>
      <GIVEN>node3</GIVEN>
     <TABLE>0.8558 0.1442 0.2126 0.7874 0.7349 0.2651 0.3541 0.6459 </TABLE>
 </DEFINITION>
 <DEFINITION>
      <FOR>node3</FOR>
     <TABLE>0.585 0.049 0.204 0.162 </TABLE>
 </DEFINITION>
 <DEFINITION>
      <FOR>node4</FOR>
      <GIVEN>node13</GIVEN>
      <GIVEN>node23</GIVEN>
      <GIVEN>node21</GIVEN>
     <TABLE>0.0164 0.7376 0.246 0.4329 0.2031 0.364 0.1154 0.2561 0.6285 0.3479 0.26 0.3921 0.4656 0.1509 0.3835 0.1727 0.4099 0.4174 0.3945 0.229 0.3765 0.4504 0.4791 0.0705 0.1137 0.8549 0.0314 0.1008 0.4238 0.4754 0.116 0.2462 0.6378 0.015 0.3081 0.6769 </TABLE>
 </DEFINITION>
 <DEFINITION>
      <FOR>node5</FOR>
     <TABLE>0.5747 0.4106 0.0147 </TABLE>
 </DEFINITION>
 <DEFINITION>
      <FOR>node6</FOR>
      <GIVEN>node10</GIVEN>
      <GIVEN>node9</GIVEN>
     <TABLE>0.536 0.3325 0.1315 0.0612 0.5588 0.38 0.5883 0.0551 0.3566 0.6071 0.3264 0.0665 0.0782 0.4666 0.4552 0.2909 0.2328 0.4763 0.0607 0.3042 0.6351 0.6682 0.0597 0.2721 0.5555 0.083 0.3615 0.4063 0.1279 0.4658 0.8346 0.1111 0.0543 0.4046 0.3109 0.2845 </TABLE>
 </DEFINITION>
 <DEFINITION>
      <FOR>node7</FOR>
      <GIVEN>node18</GIVEN>
      <GIVEN>node19</GIVEN>
     <TABLE>0.0081 0.6316 0.3603 0.1199 0.7767 0.1034 0.7389 0.2536 0.0075 0.0432 0.697 0.2598 0.4101 0.343 0.2469 0.1828 0.5335 0.2837 </TABLE>
 </DEFINITION>
 <DEFINITION>
      <FOR>node8</FOR>
     <TABLE>0.7196 0.0309 0.0559 0.1936 </TABLE>
 </DEFINITION>
 <DEFINITION>
      <FOR>node9</FOR>
      <GIVEN>node31</GIVEN>
     <TABLE>0.5143 0.1249 0.3608 0.0968 0.1892 0.714 0.7387 0.0934 0.1679 0.1571 0.6377 0.2052 </TABLE>
 </DEFINITION>
 <DEFINITION>
      <FOR>node10</FOR>
      <GIVEN>node32</GIVEN>
      <GIVEN>node14</GIVEN>
     <TABLE>0.1069 0.4008 0.301 0.1913 0.1459 0.25 0.0187 0.5854 0.3722 0.2216 0.0986 0.3076 0.1941 0.625 0.1023 0.0786 0.3963 0.0497 0.3598 0.1942 0.044 0.4456 0.4307 0.0797 0.3259 0.2694 0.3265 0.0782 0.1632 0.4621 0.3728 0.0019 </TABLE>
 </DEFINITION>
 <DEFINITION>
      <FOR>node11</FOR>
     <TABLE>0.4395 0.4035 0.157 </TABLE>
 </DEFINITION>
 <DEFINITION>
      <FOR>node12</FOR>
     <TABLE>0.5148 0.4852 </TABLE>
 </DEFINITION>
 <DEFINITION>
      <FOR>node13</FOR>
      <GIVEN>node24</GIVEN>
      <GIVEN>node19</GIVEN>
     <TABLE>0.38 0.62 0.566 0.434 0.7405 0.2595 0.7833 0.2167 0.1173 0.8827 0.2813 0.7187 </TABLE>
 </DEFINITION>
 <DEFINITION>
      <FOR>node14</FOR>
      <GIVEN>node12</GIVEN>
     <TABLE>0.4515 0.5485 0.0365 0.9635 </TABLE>
 </DEFINITION>
 <DEFINITION>
      <FOR>node15</FOR>
      <GIVEN>node38</GIVEN>
     <TABLE>0.0278 0.6551 0.3171 0.2897 0.1137 0.5966 </TABLE>
 </DEFINITION>
 <DEFINITION>
      <FOR>node16</FOR>
      <GIVEN>node24</GIVEN>
      <GIVEN>node17</GIVEN>
     <TABLE>0.5497 0.4503 0.9819 0.0181 0.6698 0.3302 0.4945 0.5055 0.6448 0.3552 0.0451 0.9549 0.3717 0.6283 0.855 0.145 0.6786 0.3214 </TABLE>
 </DEFINITION>
 <DEFINITION>
      <FOR>node17</FOR>
     <TABLE>0.016 0.7957 0.1883 </TABLE>
 </DEFINITION>
 <DEFINITION>
      <FOR>node18</FOR>
     <TABLE>0.1244 0.2068 0.6688 </TABLE>
 </DEFINITION>
 <DEFINITION>
      <FOR>node19</FOR>
      <GIVEN>node29</GIVEN>
      <GIVEN>node30</GIVEN>
     <TABLE>0.2824 0.7176 0.0536 0.9464 0.5988 0.4012 0.3227 0.6773 0.9868 0.0132 0.2721 0.7279 0.9218 0.0782 0.6306 0.3694 0.2021 0.7979 </TABLE>
 </DEFINITION>
 <DEFINITION>
      <FOR>node20</FOR>
      <GIVEN>node8</GIVEN>
     <TABLE>0.4618 0.5382 0.2236 0.7764 0.7856 0.2144 0.2091 0.7909 </TABLE>
 </DEFINITION>
 <DEFINITION>
      <FOR>node21</FOR>
     <TABLE>0.1323 0.8677 </TABLE>
 </DEFINITION>
 <DEFINITION>
      <FOR>node22</FOR>
     <TABLE>0.9751 0.0249 </TABLE>
 </DEFINITION>
 <DEFINITION>
      <FOR>node23</FOR>
      <GIVEN>node8</GIVEN>
     <TABLE>0.5338 0.2292 0.237 0.6893 0.0047 0.306 0.1445 0.0305 0.825 0.5114 0.4749 0.0137 </TABLE>
 </DEFINITION>
 <DEFINITION>
      <FOR>node24</FOR>
      <GIVEN>node3</GIVEN>
     <TABLE>0.1034 0.6038 0.2928 0.2551 0.4145 0.3304 0.0551 0.9099 0.035 0.1964 0.6277 0.1759 </TABLE>
 </DEFINITION>
 <DEFINITION>
      <FOR>node25</FOR>
      <GIVEN>node6</GIVEN>
     <TABLE>0.4111 0.1691 0.4198 0.1206 0.2741 0.6053 0.0505 0.7967 0.1528 </TABLE>
 </DEFINITION>
 <DEFINITION>
      <FOR>node26</FOR>
      <GIVEN>node39</GIVEN>
     <TABLE>0.951 0.049 0.8425 0.1575 </TABLE>
 </DEFINITION>
 <DEFINITION>
      <FOR>node27</FOR>
     <TABLE>0.4474 0.3525 0.1607 0.0394 </TABLE>
 </DEFINITION>
 <DEFINITION>
      <FOR>node28</FOR>
      <GIVEN>node5</GIVEN>
     <TABLE>0.215 0.5265 0.2585 0.1963 0.446 0.3577 0.2239 0.2728 0.5033 </TABLE>
 </DEFINITION>
 <DEFINITION>
      <FOR>node29</FOR>
      <GIVEN>node1</GIVEN>
     <TABLE>0.373 0.2708 0.3562 0.3267 0.2934 0.3799 0.5071 0.1665 0.3264 0.382 0.1116 0.5064 </TABLE>
 </DEFINITION>
 <DEFINITION>
      <FOR>node30</FOR>
     <TABLE>0.3792 0.1739 0.4469 </TABLE>
 </DEFINITION>
 <DEFINITION>
      <FOR>node31</FOR>
      <GIVEN>node36</GIVEN>
     <TABLE>0.349 0.1312 0.1948 0.325 0.1944 0.5525 0.0981 0.155 </TABLE>
 </DEFINITION>
 <DEFINITION>
      <FOR>node32</FOR>
      <GIVEN>node27</GIVEN>
      <GIVEN>node5</GIVEN>
     <TABLE>0.2501 0.149 0.2225 0.3784 0.1023 0.7698 0.0325 0.0954 0.0533 0.4441 0.0795 0.4231 0.5347 0.3653 0.0101 0.0899 0.1918 0.2747 0.0356 0.4979 0.1525 0.471 0.3005 0.076 0.2376 0.2974 0.112 0.353 0.1197 0.8467 0.0189 0.0147 0.1191 0.4156 0.1469 0.3184 0.285 0.0106 0.5822 0.1222 0.1657 0.4336 0.125 0.2757 0.2981 0.3464 0.0446 0.3109 </TABLE>
 </DEFINITION>
 <DEFINITION>
      <FOR>node33</FOR>
      <GIVEN>node11</GIVEN>
      <GIVEN>node25</GIVEN>
      <GIVEN>node39</GIVEN>
     <TABLE>0.3199 0.1247 0.3303 0.2251 0.0327 0.2927 0.1501 0.5245 0.2091 0.0307 0.3346 0.4256 0.4772 0.0245 0.4532 0.0451 0.1636 0.4642 0.3342 0.038 0.1768 0.1965 0.0634 0.5633 0.379 0.0925 0.0701 0.4584 0.1848 0.0061 0.6512 0.1579 0.1691 0.0581 0.4598 0.313 0.2678 0.2111 0.4715 0.0496 0.4029 0.1148 0.4122 0.0701 0.1163 0.3134 0.069 0.5013 0.0513 0.5556 0.3418 0.0513 0.3031 0.4259 0.2457 0.0253 0.2017 0.1031 0.6615 0.0337 0.321 0.4505 0.002 0.2265 0.1438 0.0121 0.3245 0.5196 0.168 0.3825 0.3493 0.1002 </TABLE>
 </DEFINITION>
 <DEFINITION>
      <FOR>node34</FOR>
      <GIVEN>node22</GIVEN>
     <TABLE>0.2661 0.282 0.4519 0.0202 0.5451 0.4347 </TABLE>
 </DEFINITION>
 <DEFINITION>
      <FOR>node35</FOR>
      <GIVEN>node27</GIVEN>
     <TABLE>0.8686 0.1249 0.0065 0.3011 0.1878 0.5111 0.0854 0.5633 0.3513 0.0211 0.0584 0.9205 </TABLE>
 </DEFINITION>
 <DEFINITION>
      <FOR>node36</FOR>
     <TABLE>0.6568 0.3432 </TABLE>
 </DEFINITION>
 <DEFINITION>
      <FOR>node37</FOR>
      <GIVEN>node12</GIVEN>
     <TABLE>0.1423 0.0525 0.8052 0.7171 0.2222 0.0607 </TABLE>
 </DEFINITION>
 <DEFINITION>
      <FOR>node38</FOR>
      <GIVEN>node32</GIVEN>
     <TABLE>0.5669 0.4331 0.8403 0.1597 0.0726 0.9274 0.5343 0.4657 </TABLE>
 </DEFINITION>
 <DEFINITION>
      <FOR>node39</FOR>
     <TABLE>0.2636 0.7364 </TABLE>
 </DEFINITION>
</NETWORK>
</BIF>
