<?xml version="1.0" encoding="US-ASCII"?>


<!--
	Bayesian network in XMLBIF v0.3 (BayesNet Interchange Format)
	Produced by JavaBayes (http://www.cs.cmu.edu/~javabayes/
	Number of nodes:10
	Output created Wed Mar 01 12:19:44 CET 2017
-->



<BIF VERSION="0.3">
<NETWORK>
<NAME>InternalNetwork</NAME>
<!-- Variables -->
<VARIABLE TYPE="nature">
    <NAME>node0</NAME>
    <OUTCOME>state0</OUTCOME>
    <OUTCOME>state1</OUTCOME>
    <PROPERTY>position = (15, 150)</PROPERTY>
</VARIABLE>
<!-- Variables -->
<VARIABLE TYPE="nature">
    <NAME>node1</NAME>
    <OUTCOME>state0</OUTCOME>
    <OUTCOME>state1</OUTCOME>
    <OUTCOME>state2</OUTCOME>
    <PROPERTY>position = (15, 390)</PROPERTY>
</VARIABLE>
<!-- Variables -->
<VARIABLE TYPE="nature">
    <NAME>node2</NAME>
    <OUTCOME>state0</OUTCOME>
    <OUTCOME>state1</OUTCOME>
    <PROPERTY>position = (45, 30)</PROPERTY>
</VARIABLE>
<!-- Variables -->
<VARIABLE TYPE="nature">
    <NAME>node3</NAME>
    <OUTCOME>state0</OUTCOME>
    <OUTCOME>state1</OUTCOME>
    <OUTCOME>state2</OUTCOME>
    <PROPERTY>position = (135, 164)</PROPERTY>
</VARIABLE>
<!-- Variables -->
<VARIABLE TYPE="nature">
    <NAME>node4</NAME>
    <OUTCOME>state0</OUTCOME>
    <OUTCOME>state1</OUTCOME>
    <OUTCOME>state2</OUTCOME>
    <PROPERTY>position = (255, 150)</PROPERTY>
</VARIABLE>
<!-- Variables -->
<VARIABLE TYPE="nature">
    <NAME>node5</NAME>
    <OUTCOME>state0</OUTCOME>
    <OUTCOME>state1</OUTCOME>
    <OUTCOME>state2</OUTCOME>
    <PROPERTY>position = (165, 44)</PROPERTY>
</VARIABLE>
<!-- Variables -->
<VARIABLE TYPE="nature">
    <NAME>node6</NAME>
    <OUTCOME>state0</OUTCOME>
    <OUTCOME>state1</OUTCOME>
    <OUTCOME>state2</OUTCOME>
    <PROPERTY>position = (375, 135)</PROPERTY>
</VARIABLE>
<!-- Variables -->
<VARIABLE TYPE="nature">
    <NAME>node7</NAME>
    <OUTCOME>state0</OUTCOME>
    <OUTCOME>state1</OUTCOME>
    <PROPERTY>position = (285, 30)</PROPERTY>
</VARIABLE>
<!-- Variables -->
<VARIABLE TYPE="nature">
    <NAME>node8</NAME>
    <OUTCOME>state0</OUTCOME>
    <OUTCOME>state1</OUTCOME>
    <PROPERTY>position = (495, 149)</PROPERTY>
</VARIABLE>
<!-- Variables -->
<VARIABLE TYPE="nature">
    <NAME>node9</NAME>
    <OUTCOME>state0</OUTCOME>
    <OUTCOME>state1</OUTCOME>
    <PROPERTY>position = (615, 164)</PROPERTY>
</VARIABLE>
<!-- Probability Distributions -->
 <DEFINITION>
      <FOR>node0</FOR>
      <GIVEN>node2</GIVEN>
     <TABLE>0.8858 0.1142 0.5579 0.4421 </TABLE>
 </DEFINITION>
 <DEFINITION>
      <FOR>node1</FOR>
      <GIVEN>node0</GIVEN>
      <GIVEN>node5</GIVEN>
      <GIVEN>node7</GIVEN>
     <TABLE>0.0647 0.5242 0.4111 0.7905 0.0384 0.1711 0.4292 0.1751 0.3957 0.0703 0.5972 0.3325 0.1949 0.7239 0.0812 0.1731 0.7717 0.0552 0.2758 0.6187 0.1055 0.1833 0.7485 0.0682 0.464 0.1017 0.4343 0.2494 0.6118 0.1388 0.1983 0.465 0.3367 0.1563 0.2878 0.5559 </TABLE>
 </DEFINITION>
 <DEFINITION>
      <FOR>node2</FOR>
     <TABLE>0.2078 0.7922 </TABLE>
 </DEFINITION>
 <DEFINITION>
      <FOR>node3</FOR>
      <GIVEN>node4</GIVEN>
     <TABLE>0.0301 0.87 0.0999 0.0985 0.0507 0.8508 0.2732 0.3269 0.3999 </TABLE>
 </DEFINITION>
 <DEFINITION>
      <FOR>node4</FOR>
      <GIVEN>node6</GIVEN>
     <TABLE>0.4171 0.0195 0.5634 0.0781 0.5329 0.389 0.4721 0.4933 0.0346 </TABLE>
 </DEFINITION>
 <DEFINITION>
      <FOR>node5</FOR>
     <TABLE>0.0129 0.8182 0.1689 </TABLE>
 </DEFINITION>
 <DEFINITION>
      <FOR>node6</FOR>
      <GIVEN>node5</GIVEN>
     <TABLE>0.4784 0.2875 0.2341 0.3042 0.1849 0.5109 0.2749 0.197 0.5281 </TABLE>
 </DEFINITION>
 <DEFINITION>
      <FOR>node7</FOR>
     <TABLE>0.1236 0.8764 </TABLE>
 </DEFINITION>
 <DEFINITION>
      <FOR>node8</FOR>
      <GIVEN>node5</GIVEN>
     <TABLE>0.948 0.052 0.0919 0.9081 0.1716 0.8284 </TABLE>
 </DEFINITION>
 <DEFINITION>
      <FOR>node9</FOR>
      <GIVEN>node2</GIVEN>
     <TABLE>0.4277 0.5723 0.5011 0.4989 </TABLE>
 </DEFINITION>
</NETWORK>
</BIF>
