<?xml version="1.0" encoding="US-ASCII"?>


<!--
	Bayesian network in XMLBIF v0.3 (BayesNet Interchange Format)
	Produced by JavaBayes (http://www.cs.cmu.edu/~javabayes/
	Number of nodes:40
	Output created Tue Feb 28 15:48:20 CET 2017
-->



<BIF VERSION="0.3">
<NETWORK>
<NAME>InternalNetwork</NAME>
<!-- Variables -->
<VARIABLE TYPE="nature">
    <NAME>node0</NAME>
    <OUTCOME>state0</OUTCOME>
    <OUTCOME>state1</OUTCOME>
    <PROPERTY>position = (44, 270)</PROPERTY>
</VARIABLE>
<!-- Variables -->
<VARIABLE TYPE="nature">
    <NAME>node1</NAME>
    <OUTCOME>state0</OUTCOME>
    <OUTCOME>state1</OUTCOME>
    <OUTCOME>state2</OUTCOME>
    <OUTCOME>state3</OUTCOME>
    <PROPERTY>position = (164, 284)</PROPERTY>
</VARIABLE>
<!-- Variables -->
<VARIABLE TYPE="nature">
    <NAME>node2</NAME>
    <OUTCOME>state0</OUTCOME>
    <OUTCOME>state1</OUTCOME>
    <OUTCOME>state2</OUTCOME>
    <OUTCOME>state3</OUTCOME>
    <PROPERTY>position = (15, 150)</PROPERTY>
</VARIABLE>
<!-- Variables -->
<VARIABLE TYPE="nature">
    <NAME>node3</NAME>
    <OUTCOME>state0</OUTCOME>
    <OUTCOME>state1</OUTCOME>
    <OUTCOME>state2</OUTCOME>
    <PROPERTY>position = (45, 30)</PROPERTY>
</VARIABLE>
<!-- Variables -->
<VARIABLE TYPE="nature">
    <NAME>node4</NAME>
    <OUTCOME>state0</OUTCOME>
    <OUTCOME>state1</OUTCOME>
    <PROPERTY>position = (135, 164)</PROPERTY>
</VARIABLE>
<!-- Variables -->
<VARIABLE TYPE="nature">
    <NAME>node5</NAME>
    <OUTCOME>state0</OUTCOME>
    <OUTCOME>state1</OUTCOME>
    <PROPERTY>position = (165, 44)</PROPERTY>
</VARIABLE>
<!-- Variables -->
<VARIABLE TYPE="nature">
    <NAME>node6</NAME>
    <OUTCOME>state0</OUTCOME>
    <OUTCOME>state1</OUTCOME>
    <OUTCOME>state2</OUTCOME>
    <OUTCOME>state3</OUTCOME>
    <PROPERTY>position = (285, 30)</PROPERTY>
</VARIABLE>
<!-- Variables -->
<VARIABLE TYPE="nature">
    <NAME>node7</NAME>
    <OUTCOME>state0</OUTCOME>
    <OUTCOME>state1</OUTCOME>
    <OUTCOME>state2</OUTCOME>
    <PROPERTY>position = (255, 150)</PROPERTY>
</VARIABLE>
<!-- Variables -->
<VARIABLE TYPE="nature">
    <NAME>node8</NAME>
    <OUTCOME>state0</OUTCOME>
    <OUTCOME>state1</OUTCOME>
    <OUTCOME>state2</OUTCOME>
    <OUTCOME>state3</OUTCOME>
    <PROPERTY>position = (284, 270)</PROPERTY>
</VARIABLE>
<!-- Variables -->
<VARIABLE TYPE="nature">
    <NAME>node9</NAME>
    <OUTCOME>state0</OUTCOME>
    <OUTCOME>state1</OUTCOME>
    <OUTCOME>state2</OUTCOME>
    <OUTCOME>state3</OUTCOME>
    <PROPERTY>position = (375, 135)</PROPERTY>
</VARIABLE>
<!-- Variables -->
<VARIABLE TYPE="nature">
    <NAME>node10</NAME>
    <OUTCOME>state0</OUTCOME>
    <OUTCOME>state1</OUTCOME>
    <OUTCOME>state2</OUTCOME>
    <PROPERTY>position = (404, 255)</PROPERTY>
</VARIABLE>
<!-- Variables -->
<VARIABLE TYPE="nature">
    <NAME>node11</NAME>
    <OUTCOME>state0</OUTCOME>
    <OUTCOME>state1</OUTCOME>
    <OUTCOME>state2</OUTCOME>
    <PROPERTY>position = (405, 15)</PROPERTY>
</VARIABLE>
<!-- Variables -->
<VARIABLE TYPE="nature">
    <NAME>node12</NAME>
    <OUTCOME>state0</OUTCOME>
    <OUTCOME>state1</OUTCOME>
    <OUTCOME>state2</OUTCOME>
    <PROPERTY>position = (44, 510)</PROPERTY>
</VARIABLE>
<!-- Variables -->
<VARIABLE TYPE="nature">
    <NAME>node13</NAME>
    <OUTCOME>state0</OUTCOME>
    <OUTCOME>state1</OUTCOME>
    <PROPERTY>position = (495, 149)</PROPERTY>
</VARIABLE>
<!-- Variables -->
<VARIABLE TYPE="nature">
    <NAME>node14</NAME>
    <OUTCOME>state0</OUTCOME>
    <OUTCOME>state1</OUTCOME>
    <OUTCOME>state2</OUTCOME>
    <OUTCOME>state3</OUTCOME>
    <PROPERTY>position = (525, 29)</PROPERTY>
</VARIABLE>
<!-- Variables -->
<VARIABLE TYPE="nature">
    <NAME>node15</NAME>
    <OUTCOME>state0</OUTCOME>
    <OUTCOME>state1</OUTCOME>
    <PROPERTY>position = (615, 164)</PROPERTY>
</VARIABLE>
<!-- Variables -->
<VARIABLE TYPE="nature">
    <NAME>node16</NAME>
    <OUTCOME>state0</OUTCOME>
    <OUTCOME>state1</OUTCOME>
    <PROPERTY>position = (735, 150)</PROPERTY>
</VARIABLE>
<!-- Variables -->
<VARIABLE TYPE="nature">
    <NAME>node17</NAME>
    <OUTCOME>state0</OUTCOME>
    <OUTCOME>state1</OUTCOME>
    <OUTCOME>state2</OUTCOME>
    <PROPERTY>position = (855, 135)</PROPERTY>
</VARIABLE>
<!-- Variables -->
<VARIABLE TYPE="nature">
    <NAME>node18</NAME>
    <OUTCOME>state0</OUTCOME>
    <OUTCOME>state1</OUTCOME>
    <OUTCOME>state2</OUTCOME>
    <PROPERTY>position = (645, 44)</PROPERTY>
</VARIABLE>
<!-- Variables -->
<VARIABLE TYPE="nature">
    <NAME>node19</NAME>
    <OUTCOME>state0</OUTCOME>
    <OUTCOME>state1</OUTCOME>
    <OUTCOME>state2</OUTCOME>
    <PROPERTY>position = (765, 30)</PROPERTY>
</VARIABLE>
<!-- Variables -->
<VARIABLE TYPE="nature">
    <NAME>node20</NAME>
    <OUTCOME>state0</OUTCOME>
    <OUTCOME>state1</OUTCOME>
    <PROPERTY>position = (524, 269)</PROPERTY>
</VARIABLE>
<!-- Variables -->
<VARIABLE TYPE="nature">
    <NAME>node21</NAME>
    <OUTCOME>state0</OUTCOME>
    <OUTCOME>state1</OUTCOME>
    <OUTCOME>state2</OUTCOME>
    <OUTCOME>state3</OUTCOME>
    <PROPERTY>position = (644, 284)</PROPERTY>
</VARIABLE>
<!-- Variables -->
<VARIABLE TYPE="nature">
    <NAME>node22</NAME>
    <OUTCOME>state0</OUTCOME>
    <OUTCOME>state1</OUTCOME>
    <OUTCOME>state2</OUTCOME>
    <OUTCOME>state3</OUTCOME>
    <PROPERTY>position = (885, 15)</PROPERTY>
</VARIABLE>
<!-- Variables -->
<VARIABLE TYPE="nature">
    <NAME>node23</NAME>
    <OUTCOME>state0</OUTCOME>
    <OUTCOME>state1</OUTCOME>
    <PROPERTY>position = (1005, 29)</PROPERTY>
</VARIABLE>
<!-- Variables -->
<VARIABLE TYPE="nature">
    <NAME>node24</NAME>
    <OUTCOME>state0</OUTCOME>
    <OUTCOME>state1</OUTCOME>
    <OUTCOME>state2</OUTCOME>
    <OUTCOME>state3</OUTCOME>
    <PROPERTY>position = (975, 149)</PROPERTY>
</VARIABLE>
<!-- Variables -->
<VARIABLE TYPE="nature">
    <NAME>node25</NAME>
    <OUTCOME>state0</OUTCOME>
    <OUTCOME>state1</OUTCOME>
    <OUTCOME>state2</OUTCOME>
    <PROPERTY>position = (1125, 44)</PROPERTY>
</VARIABLE>
<!-- Variables -->
<VARIABLE TYPE="nature">
    <NAME>node26</NAME>
    <OUTCOME>state0</OUTCOME>
    <OUTCOME>state1</OUTCOME>
    <OUTCOME>state2</OUTCOME>
    <OUTCOME>state3</OUTCOME>
    <PROPERTY>position = (1095, 164)</PROPERTY>
</VARIABLE>
<!-- Variables -->
<VARIABLE TYPE="nature">
    <NAME>node27</NAME>
    <OUTCOME>state0</OUTCOME>
    <OUTCOME>state1</OUTCOME>
    <PROPERTY>position = (1245, 30)</PROPERTY>
</VARIABLE>
<!-- Variables -->
<VARIABLE TYPE="nature">
    <NAME>node28</NAME>
    <OUTCOME>state0</OUTCOME>
    <OUTCOME>state1</OUTCOME>
    <OUTCOME>state2</OUTCOME>
    <OUTCOME>state3</OUTCOME>
    <PROPERTY>position = (1365, 15)</PROPERTY>
</VARIABLE>
<!-- Variables -->
<VARIABLE TYPE="nature">
    <NAME>node29</NAME>
    <OUTCOME>state0</OUTCOME>
    <OUTCOME>state1</OUTCOME>
    <OUTCOME>state2</OUTCOME>
    <OUTCOME>state3</OUTCOME>
    <PROPERTY>position = (1485, 29)</PROPERTY>
</VARIABLE>
<!-- Variables -->
<VARIABLE TYPE="nature">
    <NAME>node30</NAME>
    <OUTCOME>state0</OUTCOME>
    <OUTCOME>state1</OUTCOME>
    <PROPERTY>position = (1215, 150)</PROPERTY>
</VARIABLE>
<!-- Variables -->
<VARIABLE TYPE="nature">
    <NAME>node31</NAME>
    <OUTCOME>state0</OUTCOME>
    <OUTCOME>state1</OUTCOME>
    <OUTCOME>state2</OUTCOME>
    <OUTCOME>state3</OUTCOME>
    <PROPERTY>position = (1335, 135)</PROPERTY>
</VARIABLE>
<!-- Variables -->
<VARIABLE TYPE="nature">
    <NAME>node32</NAME>
    <OUTCOME>state0</OUTCOME>
    <OUTCOME>state1</OUTCOME>
    <OUTCOME>state2</OUTCOME>
    <OUTCOME>state3</OUTCOME>
    <PROPERTY>position = (764, 270)</PROPERTY>
</VARIABLE>
<!-- Variables -->
<VARIABLE TYPE="nature">
    <NAME>node33</NAME>
    <OUTCOME>state0</OUTCOME>
    <OUTCOME>state1</OUTCOME>
    <PROPERTY>position = (1605, 44)</PROPERTY>
</VARIABLE>
<!-- Variables -->
<VARIABLE TYPE="nature">
    <NAME>node34</NAME>
    <OUTCOME>state0</OUTCOME>
    <OUTCOME>state1</OUTCOME>
    <OUTCOME>state2</OUTCOME>
    <PROPERTY>position = (884, 255)</PROPERTY>
</VARIABLE>
<!-- Variables -->
<VARIABLE TYPE="nature">
    <NAME>node35</NAME>
    <OUTCOME>state0</OUTCOME>
    <OUTCOME>state1</OUTCOME>
    <OUTCOME>state2</OUTCOME>
    <PROPERTY>position = (15, 390)</PROPERTY>
</VARIABLE>
<!-- Variables -->
<VARIABLE TYPE="nature">
    <NAME>node36</NAME>
    <OUTCOME>state0</OUTCOME>
    <OUTCOME>state1</OUTCOME>
    <OUTCOME>state2</OUTCOME>
    <OUTCOME>state3</OUTCOME>
    <PROPERTY>position = (1725, 30)</PROPERTY>
</VARIABLE>
<!-- Variables -->
<VARIABLE TYPE="nature">
    <NAME>node37</NAME>
    <OUTCOME>state0</OUTCOME>
    <OUTCOME>state1</OUTCOME>
    <PROPERTY>position = (1455, 149)</PROPERTY>
</VARIABLE>
<!-- Variables -->
<VARIABLE TYPE="nature">
    <NAME>node38</NAME>
    <OUTCOME>state0</OUTCOME>
    <OUTCOME>state1</OUTCOME>
    <OUTCOME>state2</OUTCOME>
    <PROPERTY>position = (1575, 164)</PROPERTY>
</VARIABLE>
<!-- Variables -->
<VARIABLE TYPE="nature">
    <NAME>node39</NAME>
    <OUTCOME>state0</OUTCOME>
    <OUTCOME>state1</OUTCOME>
    <OUTCOME>state2</OUTCOME>
    <PROPERTY>position = (1004, 269)</PROPERTY>
</VARIABLE>
<!-- Probability Distributions -->
 <DEFINITION>
      <FOR>node0</FOR>
      <GIVEN>node39</GIVEN>
      <GIVEN>node30</GIVEN>
     <TABLE>0.1933 0.8067 0.0325 0.9675 0.7149 0.2851 0.8764 0.1236 0.2254 0.7746 0.4621 0.5379 </TABLE>
 </DEFINITION>
 <DEFINITION>
      <FOR>node1</FOR>
      <GIVEN>node3</GIVEN>
      <GIVEN>node33</GIVEN>
     <TABLE>0.1799 0.1228 0.5464 0.1509 0.0863 0.3771 0.463 0.0736 0.2963 0.4598 0.0915 0.1524 0.0342 0.4521 0.4668 0.0469 0.1489 0.4602 0.372 0.0189 0.0372 0.9152 0.0295 0.0181 </TABLE>
 </DEFINITION>
 <DEFINITION>
      <FOR>node2</FOR>
      <GIVEN>node16</GIVEN>
     <TABLE>0.3261 0.2723 0.1722 0.2294 0.7464 0.0282 0.0505 0.1749 </TABLE>
 </DEFINITION>
 <DEFINITION>
      <FOR>node3</FOR>
     <TABLE>0.5563 0.4291 0.0146 </TABLE>
 </DEFINITION>
 <DEFINITION>
      <FOR>node4</FOR>
      <GIVEN>node17</GIVEN>
     <TABLE>0.6113 0.3887 0.8575 0.1425 0.9043 0.0957 </TABLE>
 </DEFINITION>
 <DEFINITION>
      <FOR>node5</FOR>
     <TABLE>0.3714 0.6286 </TABLE>
 </DEFINITION>
 <DEFINITION>
      <FOR>node6</FOR>
     <TABLE>0.0933 0.084 0.1102 0.7125 </TABLE>
 </DEFINITION>
 <DEFINITION>
      <FOR>node7</FOR>
      <GIVEN>node29</GIVEN>
     <TABLE>0.0895 0.7297 0.1808 0.5052 0.038 0.4568 0.1091 0.3694 0.5215 0.0893 0.4948 0.4159 </TABLE>
 </DEFINITION>
 <DEFINITION>
      <FOR>node8</FOR>
      <GIVEN>node26</GIVEN>
      <GIVEN>node0</GIVEN>
     <TABLE>0.3541 0.1403 0.4076 0.098 0.3937 0.5539 0.0344 0.018 0.4654 0.5213 0.0089 0.0044 0.1997 0.4605 0.2581 0.0817 0.0994 0.2731 0.6261 0.0014 0.3754 0.0095 0.477 0.1381 0.0645 0.0337 0.8671 0.0347 0.1153 0.1286 0.1013 0.6548 </TABLE>
 </DEFINITION>
 <DEFINITION>
      <FOR>node9</FOR>
      <GIVEN>node12</GIVEN>
     <TABLE>0.6254 0.0646 0.0532 0.2568 0.3638 0.1206 0.1378 0.3778 0.2892 0.2608 0.361 0.089 </TABLE>
 </DEFINITION>
 <DEFINITION>
      <FOR>node10</FOR>
      <GIVEN>node27</GIVEN>
      <GIVEN>node18</GIVEN>
     <TABLE>0.0157 0.5673 0.417 0.1942 0.3681 0.4377 0.1926 0.2828 0.5246 0.6946 0.0062 0.2992 0.2207 0.7644 0.0149 0.5127 0.266 0.2213 </TABLE>
 </DEFINITION>
 <DEFINITION>
      <FOR>node11</FOR>
     <TABLE>0.5784 0.3857 0.0359 </TABLE>
 </DEFINITION>
 <DEFINITION>
      <FOR>node12</FOR>
      <GIVEN>node18</GIVEN>
      <GIVEN>node7</GIVEN>
      <GIVEN>node30</GIVEN>
      <GIVEN>node25</GIVEN>
     <TABLE>0.4874 0.3594 0.1532 0.4448 0.4936 0.0616 0.6266 0.188 0.1854 0.3168 0.5134 0.1698 0.0106 0.7806 0.2088 0.6531 0.0639 0.283 0.3877 0.5002 0.1121 0.3342 0.5623 0.1035 0.3488 0.6438 0.0074 0.0215 0.3719 0.6066 0.2673 0.4881 0.2446 0.1679 0.1148 0.7173 0.6339 0.2065 0.1596 0.8754 0.0566 0.068 0.4001 0.0053 0.5946 0.8127 0.1605 0.0268 0.6554 0.0226 0.322 0.2567 0.5785 0.1648 0.7595 0.2134 0.0271 0.4047 0.3671 0.2282 0.7205 0.0568 0.2227 0.0921 0.7974 0.1105 0.2514 0.5859 0.1627 0.5427 0.2847 0.1726 0.0243 0.2032 0.7725 0.0918 0.5112 0.397 0.5802 0.4054 0.0144 0.6046 0.2277 0.1677 0.1923 0.7389 0.0688 0.0779 0.6712 0.2509 0.3236 0.4133 0.2631 0.1047 0.2498 0.6455 0.392 0.2401 0.3679 0.3608 0.116 0.5232 0.7094 0.0282 0.2624 0.0421 0.7391 0.2188 0.2994 0.2055 0.4951 0.2535 0.5558 0.1907 0.1576 0.6974 0.145 0.7814 0.1867 0.0319 0.2088 0.6424 0.1488 0.5932 0.1016 0.3052 0.2453 0.107 0.6477 0.3969 0.5037 0.0994 0.0208 0.2476 0.7316 0.1192 0.3739 0.5069 0.4818 0.1152 0.403 0.393 0.23 0.377 0.5818 0.1666 0.2516 0.0966 0.6944 0.209 0.0953 0.7291 0.1756 0.1026 0.4705 0.4269 0.0951 0.3233 0.5816 0.8011 0.0123 0.1866 </TABLE>
 </DEFINITION>
 <DEFINITION>
      <FOR>node13</FOR>
      <GIVEN>node25</GIVEN>
     <TABLE>0.2344 0.7656 0.9591 0.0409 0.1397 0.8603 </TABLE>
 </DEFINITION>
 <DEFINITION>
      <FOR>node14</FOR>
     <TABLE>0.7422 0.1172 0.1102 0.0304 </TABLE>
 </DEFINITION>
 <DEFINITION>
      <FOR>node15</FOR>
      <GIVEN>node8</GIVEN>
     <TABLE>0.8312 0.1688 0.7629 0.2371 0.8583 0.1417 0.0117 0.9883 </TABLE>
 </DEFINITION>
 <DEFINITION>
      <FOR>node16</FOR>
      <GIVEN>node34</GIVEN>
     <TABLE>0.8076 0.1924 0.4373 0.5627 0.5126 0.4874 </TABLE>
 </DEFINITION>
 <DEFINITION>
      <FOR>node17</FOR>
      <GIVEN>node22</GIVEN>
     <TABLE>0.0772 0.2494 0.6734 0.0392 0.8912 0.0696 0.2325 0.3373 0.4302 0.145 0.6641 0.1909 </TABLE>
 </DEFINITION>
 <DEFINITION>
      <FOR>node18</FOR>
     <TABLE>0.4729 0.3623 0.1648 </TABLE>
 </DEFINITION>
 <DEFINITION>
      <FOR>node19</FOR>
     <TABLE>0.1925 0.168 0.6395 </TABLE>
 </DEFINITION>
 <DEFINITION>
      <FOR>node20</FOR>
      <GIVEN>node11</GIVEN>
      <GIVEN>node36</GIVEN>
     <TABLE>0.0605 0.9395 0.2784 0.7216 0.7203 0.2797 0.34 0.66 0.6341 0.3659 0.9198 0.0802 0.1702 0.8298 0.224 0.776 0.9089 0.0911 0.2696 0.7304 0.6357 0.3643 0.1683 0.8317 </TABLE>
 </DEFINITION>
 <DEFINITION>
      <FOR>node21</FOR>
      <GIVEN>node11</GIVEN>
      <GIVEN>node22</GIVEN>
     <TABLE>0.0262 0.6776 0.2183 0.0779 0.275 0.0018 0.1479 0.5753 0.1971 0.1421 0.5354 0.1254 0.0726 0.5586 0.1239 0.2449 0.5456 0.2001 0.046 0.2083 0.0786 0.5383 0.1982 0.1849 0.2641 0.1707 0.0705 0.4947 0.9155 0.0109 0.046 0.0276 0.3856 0.4358 0.1155 0.0631 0.092 0.1729 0.3347 0.4004 0.1021 0.2796 0.0888 0.5295 0.6002 0.2207 0.1438 0.0353 </TABLE>
 </DEFINITION>
 <DEFINITION>
      <FOR>node22</FOR>
     <TABLE>0.1353 0.0503 0.0988 0.7156 </TABLE>
 </DEFINITION>
 <DEFINITION>
      <FOR>node23</FOR>
     <TABLE>0.6275 0.3725 </TABLE>
 </DEFINITION>
 <DEFINITION>
      <FOR>node24</FOR>
      <GIVEN>node16</GIVEN>
     <TABLE>0.0298 0.4167 0.5006 0.0529 0.0606 0.1533 0.0884 0.6977 </TABLE>
 </DEFINITION>
 <DEFINITION>
      <FOR>node25</FOR>
     <TABLE>0.0363 0.2517 0.712 </TABLE>
 </DEFINITION>
 <DEFINITION>
      <FOR>node26</FOR>
      <GIVEN>node23</GIVEN>
     <TABLE>0.1544 0.0425 0.7332 0.0699 0.0132 0.7993 0.1087 0.0788 </TABLE>
 </DEFINITION>
 <DEFINITION>
      <FOR>node27</FOR>
     <TABLE>0.7901 0.2099 </TABLE>
 </DEFINITION>
 <DEFINITION>
      <FOR>node28</FOR>
     <TABLE>0.8204 0.0617 0.1153 0.0026 </TABLE>
 </DEFINITION>
 <DEFINITION>
      <FOR>node29</FOR>
     <TABLE>0.3332 0.0603 0.2585 0.348 </TABLE>
 </DEFINITION>
 <DEFINITION>
      <FOR>node30</FOR>
      <GIVEN>node19</GIVEN>
     <TABLE>0.3753 0.6247 0.4229 0.5771 0.7845 0.2155 </TABLE>
 </DEFINITION>
 <DEFINITION>
      <FOR>node31</FOR>
      <GIVEN>node33</GIVEN>
     <TABLE>0.3037 0.5343 0.0702 0.0918 0.141 0.3887 0.1068 0.3635 </TABLE>
 </DEFINITION>
 <DEFINITION>
      <FOR>node32</FOR>
      <GIVEN>node14</GIVEN>
      <GIVEN>node2</GIVEN>
     <TABLE>0.2776 0.3793 0.0477 0.2954 0.0854 0.4465 0.3471 0.121 0.3362 0.2705 0.1848 0.2085 0.7827 0.0895 0.0179 0.1099 0.0521 0.0184 0.2118 0.7177 0.4329 0.0296 0.2317 0.3058 0.6364 0.3011 0.0275 0.035 0.3971 0.3394 0.0382 0.2253 0.6081 0.1487 0.0034 0.2398 0.2296 0.1196 0.0756 0.5752 0.2593 0.3012 0.314 0.1255 0.1473 0.3556 0.1375 0.3596 0.1577 0.0975 0.089 0.6558 0.5775 0.1948 0.1273 0.1004 0.1517 0.0805 0.2455 0.5223 0.2111 0.1377 0.5166 0.1346 </TABLE>
 </DEFINITION>
 <DEFINITION>
      <FOR>node33</FOR>
     <TABLE>0.8798 0.1202 </TABLE>
 </DEFINITION>
 <DEFINITION>
      <FOR>node34</FOR>
      <GIVEN>node4</GIVEN>
      <GIVEN>node6</GIVEN>
     <TABLE>0.1948 0.5034 0.3018 0.1146 0.2199 0.6655 0.9121 0.034 0.0539 0.3361 0.2462 0.4177 0.1448 0.8049 0.0503 0.0583 0.6027 0.339 0.0303 0.745 0.2247 0.1977 0.4042 0.3981 </TABLE>
 </DEFINITION>
 <DEFINITION>
      <FOR>node35</FOR>
      <GIVEN>node3</GIVEN>
      <GIVEN>node11</GIVEN>
      <GIVEN>node28</GIVEN>
     <TABLE>0.2693 0.0178 0.7129 0.1919 0.6255 0.1826 0.2485 0.451 0.3005 0.3941 0.4181 0.1878 0.2962 0.6743 0.0295 0.658 0.2404 0.1016 0.2337 0.182 0.5843 0.3021 0.2522 0.4457 0.066 0.825 0.109 0.1894 0.5857 0.2249 0.0337 0.0688 0.8975 0.4092 0.0955 0.4953 0.0815 0.7139 0.2046 0.2225 0.0997 0.6778 0.4056 0.0238 0.5706 0.3468 0.4606 0.1926 0.1178 0.8813 9.0E-4 0.4918 0.2628 0.2454 0.2861 0.1065 0.6074 0.3893 0.4119 0.1988 0.5088 0.0285 0.4627 0.3 0.4346 0.2654 0.13 0.2476 0.6224 0.6205 0.1517 0.2278 0.5544 0.2757 0.1699 0.2826 0.2432 0.4742 0.6356 0.1506 0.2138 0.9726 0.008 0.0194 0.2779 0.4493 0.2728 0.1263 0.1347 0.739 0.9385 0.0118 0.0497 0.2259 0.4459 0.3282 0.7996 0.0326 0.1678 0.5847 0.1097 0.3056 0.0025 0.101 0.8965 0.6607 0.1796 0.1597 </TABLE>
 </DEFINITION>
 <DEFINITION>
      <FOR>node36</FOR>
     <TABLE>0.1745 0.0876 0.0051 0.7328 </TABLE>
 </DEFINITION>
 <DEFINITION>
      <FOR>node37</FOR>
      <GIVEN>node38</GIVEN>
     <TABLE>0.8957 0.1043 0.1169 0.8831 0.6643 0.3357 </TABLE>
 </DEFINITION>
 <DEFINITION>
      <FOR>node38</FOR>
      <GIVEN>node14</GIVEN>
     <TABLE>0.1913 0.5982 0.2105 0.6314 0.0016 0.367 0.6736 0.314 0.0124 0.1605 0.1446 0.6949 </TABLE>
 </DEFINITION>
 <DEFINITION>
      <FOR>node39</FOR>
      <GIVEN>node21</GIVEN>
      <GIVEN>node5</GIVEN>
     <TABLE>0.731 0.2451 0.0239 0.4185 0.5747 0.0068 0.3456 0.3346 0.3198 0.5863 0.3752 0.0385 0.1622 0.5655 0.2723 0.5776 0.3622 0.0602 0.5056 0.2334 0.261 0.3186 0.6306 0.0508 </TABLE>
 </DEFINITION>
</NETWORK>
</BIF>
