<?xml version="1.0" encoding="US-ASCII"?>


<!--
	Bayesian network in XMLBIF v0.3 (BayesNet Interchange Format)
	Produced by JavaBayes (http://www.cs.cmu.edu/~javabayes/
	Number of nodes:40
	Output created Tue Feb 28 15:48:20 CET 2017
-->



<BIF VERSION="0.3">
<NETWORK>
<NAME>InternalNetwork</NAME>
<!-- Variables -->
<VARIABLE TYPE="nature">
    <NAME>node0</NAME>
    <OUTCOME>state0</OUTCOME>
    <OUTCOME>state1</OUTCOME>
    <OUTCOME>state2</OUTCOME>
    <OUTCOME>state3</OUTCOME>
    <PROPERTY>position = (45, 30)</PROPERTY>
</VARIABLE>
<!-- Variables -->
<VARIABLE TYPE="nature">
    <NAME>node1</NAME>
    <OUTCOME>state0</OUTCOME>
    <OUTCOME>state1</OUTCOME>
    <OUTCOME>state2</OUTCOME>
    <OUTCOME>state3</OUTCOME>
    <PROPERTY>position = (165, 44)</PROPERTY>
</VARIABLE>
<!-- Variables -->
<VARIABLE TYPE="nature">
    <NAME>node2</NAME>
    <OUTCOME>state0</OUTCOME>
    <OUTCOME>state1</OUTCOME>
    <OUTCOME>state2</OUTCOME>
    <OUTCOME>state3</OUTCOME>
    <PROPERTY>position = (44, 270)</PROPERTY>
</VARIABLE>
<!-- Variables -->
<VARIABLE TYPE="nature">
    <NAME>node3</NAME>
    <OUTCOME>state0</OUTCOME>
    <OUTCOME>state1</OUTCOME>
    <OUTCOME>state2</OUTCOME>
    <OUTCOME>state3</OUTCOME>
    <PROPERTY>position = (15, 150)</PROPERTY>
</VARIABLE>
<!-- Variables -->
<VARIABLE TYPE="nature">
    <NAME>node4</NAME>
    <OUTCOME>state0</OUTCOME>
    <OUTCOME>state1</OUTCOME>
    <OUTCOME>state2</OUTCOME>
    <OUTCOME>state3</OUTCOME>
    <PROPERTY>position = (285, 30)</PROPERTY>
</VARIABLE>
<!-- Variables -->
<VARIABLE TYPE="nature">
    <NAME>node5</NAME>
    <OUTCOME>state0</OUTCOME>
    <OUTCOME>state1</OUTCOME>
    <PROPERTY>position = (135, 164)</PROPERTY>
</VARIABLE>
<!-- Variables -->
<VARIABLE TYPE="nature">
    <NAME>node6</NAME>
    <OUTCOME>state0</OUTCOME>
    <OUTCOME>state1</OUTCOME>
    <OUTCOME>state2</OUTCOME>
    <OUTCOME>state3</OUTCOME>
    <PROPERTY>position = (164, 284)</PROPERTY>
</VARIABLE>
<!-- Variables -->
<VARIABLE TYPE="nature">
    <NAME>node7</NAME>
    <OUTCOME>state0</OUTCOME>
    <OUTCOME>state1</OUTCOME>
    <OUTCOME>state2</OUTCOME>
    <OUTCOME>state3</OUTCOME>
    <PROPERTY>position = (284, 270)</PROPERTY>
</VARIABLE>
<!-- Variables -->
<VARIABLE TYPE="nature">
    <NAME>node8</NAME>
    <OUTCOME>state0</OUTCOME>
    <OUTCOME>state1</OUTCOME>
    <PROPERTY>position = (405, 15)</PROPERTY>
</VARIABLE>
<!-- Variables -->
<VARIABLE TYPE="nature">
    <NAME>node9</NAME>
    <OUTCOME>state0</OUTCOME>
    <OUTCOME>state1</OUTCOME>
    <OUTCOME>state2</OUTCOME>
    <OUTCOME>state3</OUTCOME>
    <PROPERTY>position = (404, 255)</PROPERTY>
</VARIABLE>
<!-- Variables -->
<VARIABLE TYPE="nature">
    <NAME>node10</NAME>
    <OUTCOME>state0</OUTCOME>
    <OUTCOME>state1</OUTCOME>
    <OUTCOME>state2</OUTCOME>
    <PROPERTY>position = (255, 150)</PROPERTY>
</VARIABLE>
<!-- Variables -->
<VARIABLE TYPE="nature">
    <NAME>node11</NAME>
    <OUTCOME>state0</OUTCOME>
    <OUTCOME>state1</OUTCOME>
    <OUTCOME>state2</OUTCOME>
    <PROPERTY>position = (524, 269)</PROPERTY>
</VARIABLE>
<!-- Variables -->
<VARIABLE TYPE="nature">
    <NAME>node12</NAME>
    <OUTCOME>state0</OUTCOME>
    <OUTCOME>state1</OUTCOME>
    <PROPERTY>position = (644, 284)</PROPERTY>
</VARIABLE>
<!-- Variables -->
<VARIABLE TYPE="nature">
    <NAME>node13</NAME>
    <OUTCOME>state0</OUTCOME>
    <OUTCOME>state1</OUTCOME>
    <OUTCOME>state2</OUTCOME>
    <OUTCOME>state3</OUTCOME>
    <PROPERTY>position = (525, 29)</PROPERTY>
</VARIABLE>
<!-- Variables -->
<VARIABLE TYPE="nature">
    <NAME>node14</NAME>
    <OUTCOME>state0</OUTCOME>
    <OUTCOME>state1</OUTCOME>
    <OUTCOME>state2</OUTCOME>
    <PROPERTY>position = (375, 135)</PROPERTY>
</VARIABLE>
<!-- Variables -->
<VARIABLE TYPE="nature">
    <NAME>node15</NAME>
    <OUTCOME>state0</OUTCOME>
    <OUTCOME>state1</OUTCOME>
    <PROPERTY>position = (645, 44)</PROPERTY>
</VARIABLE>
<!-- Variables -->
<VARIABLE TYPE="nature">
    <NAME>node16</NAME>
    <OUTCOME>state0</OUTCOME>
    <OUTCOME>state1</OUTCOME>
    <OUTCOME>state2</OUTCOME>
    <OUTCOME>state3</OUTCOME>
    <PROPERTY>position = (495, 149)</PROPERTY>
</VARIABLE>
<!-- Variables -->
<VARIABLE TYPE="nature">
    <NAME>node17</NAME>
    <OUTCOME>state0</OUTCOME>
    <OUTCOME>state1</OUTCOME>
    <OUTCOME>state2</OUTCOME>
    <PROPERTY>position = (765, 30)</PROPERTY>
</VARIABLE>
<!-- Variables -->
<VARIABLE TYPE="nature">
    <NAME>node18</NAME>
    <OUTCOME>state0</OUTCOME>
    <OUTCOME>state1</OUTCOME>
    <PROPERTY>position = (615, 164)</PROPERTY>
</VARIABLE>
<!-- Variables -->
<VARIABLE TYPE="nature">
    <NAME>node19</NAME>
    <OUTCOME>state0</OUTCOME>
    <OUTCOME>state1</OUTCOME>
    <PROPERTY>position = (735, 150)</PROPERTY>
</VARIABLE>
<!-- Variables -->
<VARIABLE TYPE="nature">
    <NAME>node20</NAME>
    <OUTCOME>state0</OUTCOME>
    <OUTCOME>state1</OUTCOME>
    <PROPERTY>position = (855, 135)</PROPERTY>
</VARIABLE>
<!-- Variables -->
<VARIABLE TYPE="nature">
    <NAME>node21</NAME>
    <OUTCOME>state0</OUTCOME>
    <OUTCOME>state1</OUTCOME>
    <OUTCOME>state2</OUTCOME>
    <PROPERTY>position = (975, 149)</PROPERTY>
</VARIABLE>
<!-- Variables -->
<VARIABLE TYPE="nature">
    <NAME>node22</NAME>
    <OUTCOME>state0</OUTCOME>
    <OUTCOME>state1</OUTCOME>
    <OUTCOME>state2</OUTCOME>
    <OUTCOME>state3</OUTCOME>
    <PROPERTY>position = (1095, 164)</PROPERTY>
</VARIABLE>
<!-- Variables -->
<VARIABLE TYPE="nature">
    <NAME>node23</NAME>
    <OUTCOME>state0</OUTCOME>
    <OUTCOME>state1</OUTCOME>
    <OUTCOME>state2</OUTCOME>
    <PROPERTY>position = (15, 390)</PROPERTY>
</VARIABLE>
<!-- Variables -->
<VARIABLE TYPE="nature">
    <NAME>node24</NAME>
    <OUTCOME>state0</OUTCOME>
    <OUTCOME>state1</OUTCOME>
    <PROPERTY>position = (135, 404)</PROPERTY>
</VARIABLE>
<!-- Variables -->
<VARIABLE TYPE="nature">
    <NAME>node25</NAME>
    <OUTCOME>state0</OUTCOME>
    <OUTCOME>state1</OUTCOME>
    <PROPERTY>position = (1215, 150)</PROPERTY>
</VARIABLE>
<!-- Variables -->
<VARIABLE TYPE="nature">
    <NAME>node26</NAME>
    <OUTCOME>state0</OUTCOME>
    <OUTCOME>state1</OUTCOME>
    <PROPERTY>position = (1335, 135)</PROPERTY>
</VARIABLE>
<!-- Variables -->
<VARIABLE TYPE="nature">
    <NAME>node27</NAME>
    <OUTCOME>state0</OUTCOME>
    <OUTCOME>state1</OUTCOME>
    <OUTCOME>state2</OUTCOME>
    <PROPERTY>position = (1455, 149)</PROPERTY>
</VARIABLE>
<!-- Variables -->
<VARIABLE TYPE="nature">
    <NAME>node28</NAME>
    <OUTCOME>state0</OUTCOME>
    <OUTCOME>state1</OUTCOME>
    <OUTCOME>state2</OUTCOME>
    <PROPERTY>position = (1575, 164)</PROPERTY>
</VARIABLE>
<!-- Variables -->
<VARIABLE TYPE="nature">
    <NAME>node29</NAME>
    <OUTCOME>state0</OUTCOME>
    <OUTCOME>state1</OUTCOME>
    <PROPERTY>position = (764, 270)</PROPERTY>
</VARIABLE>
<!-- Variables -->
<VARIABLE TYPE="nature">
    <NAME>node30</NAME>
    <OUTCOME>state0</OUTCOME>
    <OUTCOME>state1</OUTCOME>
    <OUTCOME>state2</OUTCOME>
    <OUTCOME>state3</OUTCOME>
    <PROPERTY>position = (1695, 150)</PROPERTY>
</VARIABLE>
<!-- Variables -->
<VARIABLE TYPE="nature">
    <NAME>node31</NAME>
    <OUTCOME>state0</OUTCOME>
    <OUTCOME>state1</OUTCOME>
    <PROPERTY>position = (885, 15)</PROPERTY>
</VARIABLE>
<!-- Variables -->
<VARIABLE TYPE="nature">
    <NAME>node32</NAME>
    <OUTCOME>state0</OUTCOME>
    <OUTCOME>state1</OUTCOME>
    <OUTCOME>state2</OUTCOME>
    <OUTCOME>state3</OUTCOME>
    <PROPERTY>position = (1005, 29)</PROPERTY>
</VARIABLE>
<!-- Variables -->
<VARIABLE TYPE="nature">
    <NAME>node33</NAME>
    <OUTCOME>state0</OUTCOME>
    <OUTCOME>state1</OUTCOME>
    <PROPERTY>position = (1815, 135)</PROPERTY>
</VARIABLE>
<!-- Variables -->
<VARIABLE TYPE="nature">
    <NAME>node34</NAME>
    <OUTCOME>state0</OUTCOME>
    <OUTCOME>state1</OUTCOME>
    <OUTCOME>state2</OUTCOME>
    <OUTCOME>state3</OUTCOME>
    <PROPERTY>position = (1935, 149)</PROPERTY>
</VARIABLE>
<!-- Variables -->
<VARIABLE TYPE="nature">
    <NAME>node35</NAME>
    <OUTCOME>state0</OUTCOME>
    <OUTCOME>state1</OUTCOME>
    <OUTCOME>state2</OUTCOME>
    <OUTCOME>state3</OUTCOME>
    <PROPERTY>position = (1125, 44)</PROPERTY>
</VARIABLE>
<!-- Variables -->
<VARIABLE TYPE="nature">
    <NAME>node36</NAME>
    <OUTCOME>state0</OUTCOME>
    <OUTCOME>state1</OUTCOME>
    <OUTCOME>state2</OUTCOME>
    <PROPERTY>position = (2055, 164)</PROPERTY>
</VARIABLE>
<!-- Variables -->
<VARIABLE TYPE="nature">
    <NAME>node37</NAME>
    <OUTCOME>state0</OUTCOME>
    <OUTCOME>state1</OUTCOME>
    <OUTCOME>state2</OUTCOME>
    <OUTCOME>state3</OUTCOME>
    <PROPERTY>position = (1245, 30)</PROPERTY>
</VARIABLE>
<!-- Variables -->
<VARIABLE TYPE="nature">
    <NAME>node38</NAME>
    <OUTCOME>state0</OUTCOME>
    <OUTCOME>state1</OUTCOME>
    <OUTCOME>state2</OUTCOME>
    <OUTCOME>state3</OUTCOME>
    <PROPERTY>position = (1365, 15)</PROPERTY>
</VARIABLE>
<!-- Variables -->
<VARIABLE TYPE="nature">
    <NAME>node39</NAME>
    <OUTCOME>state0</OUTCOME>
    <OUTCOME>state1</OUTCOME>
    <OUTCOME>state2</OUTCOME>
    <PROPERTY>position = (2175, 150)</PROPERTY>
</VARIABLE>
<!-- Probability Distributions -->
 <DEFINITION>
      <FOR>node0</FOR>
     <TABLE>0.0987 0.4665 0.3712 0.0636 </TABLE>
 </DEFINITION>
 <DEFINITION>
      <FOR>node1</FOR>
     <TABLE>0.2426 0.1288 0.1971 0.4315 </TABLE>
 </DEFINITION>
 <DEFINITION>
      <FOR>node2</FOR>
      <GIVEN>node15</GIVEN>
      <GIVEN>node17</GIVEN>
     <TABLE>0.442 0.1967 0.1857 0.1756 0.8514 0.0251 0.1002 0.0233 0.0192 0.092 0.2615 0.6273 0.6719 0.0789 0.2154 0.0338 3.0E-4 0.0961 0.8287 0.0749 0.5445 0.1877 0.2083 0.0595 </TABLE>
 </DEFINITION>
 <DEFINITION>
      <FOR>node3</FOR>
      <GIVEN>node17</GIVEN>
     <TABLE>0.6441 0.1293 0.1742 0.0524 0.3936 0.4485 0.1462 0.0117 0.0023 0.1007 0.1403 0.7567 </TABLE>
 </DEFINITION>
 <DEFINITION>
      <FOR>node4</FOR>
     <TABLE>0.6283 0.0995 0.1239 0.1483 </TABLE>
 </DEFINITION>
 <DEFINITION>
      <FOR>node5</FOR>
      <GIVEN>node34</GIVEN>
     <TABLE>0.0336 0.9664 0.1474 0.8526 0.8113 0.1887 0.3657 0.6343 </TABLE>
 </DEFINITION>
 <DEFINITION>
      <FOR>node6</FOR>
      <GIVEN>node13</GIVEN>
      <GIVEN>node20</GIVEN>
     <TABLE>0.0337 0.2298 0.2812 0.4553 0.2981 0.5623 0.1178 0.0218 0.0237 0.7252 0.2506 5.0E-4 0.4633 0.3059 0.2209 0.0099 0.4085 0.0091 0.3617 0.2207 0.2206 0.0928 0.1762 0.5104 0.2552 0.2879 0.0506 0.4063 0.6083 0.0426 0.2415 0.1076 </TABLE>
 </DEFINITION>
 <DEFINITION>
      <FOR>node7</FOR>
      <GIVEN>node37</GIVEN>
      <GIVEN>node1</GIVEN>
     <TABLE>0.3246 0.1209 0.1464 0.4081 0.2005 0.4794 0.0738 0.2463 0.1916 0.0436 0.4179 0.3469 0.1863 0.1012 0.1017 0.6108 0.5797 0.232 0.0281 0.1602 0.2983 0.1841 0.432 0.0856 0.0496 0.4715 0.0072 0.4717 0.1135 0.3446 0.0345 0.5074 0.3739 0.0914 0.1363 0.3984 0.2655 0.0142 0.6679 0.0524 0.4019 0.3487 0.0328 0.2166 0.6774 0.0467 0.1845 0.0914 0.1929 0.7265 0.0298 0.0508 0.2509 0.6533 0.0935 0.0023 0.1024 0.8606 0.0196 0.0174 0.1569 0.475 0.2815 0.0866 </TABLE>
 </DEFINITION>
 <DEFINITION>
      <FOR>node8</FOR>
     <TABLE>0.8079 0.1921 </TABLE>
 </DEFINITION>
 <DEFINITION>
      <FOR>node9</FOR>
      <GIVEN>node29</GIVEN>
      <GIVEN>node26</GIVEN>
     <TABLE>0.0292 0.7129 0.0208 0.2371 0.2564 0.1506 0.4036 0.1894 0.0357 0.0285 0.8112 0.1246 0.2678 0.0379 0.2733 0.421 </TABLE>
 </DEFINITION>
 <DEFINITION>
      <FOR>node10</FOR>
      <GIVEN>node30</GIVEN>
     <TABLE>0.0305 0.8519 0.1176 0.0849 0.2346 0.6805 0.4927 0.4976 0.0097 0.0244 0.4355 0.5401 </TABLE>
 </DEFINITION>
 <DEFINITION>
      <FOR>node11</FOR>
      <GIVEN>node16</GIVEN>
      <GIVEN>node0</GIVEN>
     <TABLE>0.1267 0.4561 0.4172 0.0189 0.3431 0.638 0.768 0.1003 0.1317 0.1672 0.1916 0.6412 0.1986 0.4624 0.339 0.5419 0.3618 0.0963 0.2106 0.0728 0.7166 0.0298 0.845 0.1252 0.2376 0.2788 0.4836 0.0074 0.6705 0.3221 0.0209 0.9565 0.0226 0.8144 0.1577 0.0279 0.1341 0.2226 0.6433 0.3272 0.289 0.3838 0.6701 0.2551 0.0748 0.0506 0.1531 0.7963 </TABLE>
 </DEFINITION>
 <DEFINITION>
      <FOR>node12</FOR>
      <GIVEN>node7</GIVEN>
      <GIVEN>node29</GIVEN>
     <TABLE>0.8006 0.1994 0.8331 0.1669 0.4834 0.5166 0.8088 0.1912 0.4115 0.5885 0.3737 0.6263 0.5174 0.4826 0.8699 0.1301 </TABLE>
 </DEFINITION>
 <DEFINITION>
      <FOR>node13</FOR>
     <TABLE>0.0496 0.1307 0.312 0.5077 </TABLE>
 </DEFINITION>
 <DEFINITION>
      <FOR>node14</FOR>
      <GIVEN>node32</GIVEN>
     <TABLE>0.1777 0.0853 0.737 0.1866 0.4977 0.3157 0.3749 0.5375 0.0876 0.2959 0.4322 0.2719 </TABLE>
 </DEFINITION>
 <DEFINITION>
      <FOR>node15</FOR>
     <TABLE>0.4861 0.5139 </TABLE>
 </DEFINITION>
 <DEFINITION>
      <FOR>node16</FOR>
      <GIVEN>node6</GIVEN>
     <TABLE>0.1866 0.006 0.6619 0.1455 0.2509 0.0139 0.4164 0.3188 0.1189 0.3377 0.3389 0.2045 0.0489 0.6038 0.1849 0.1624 </TABLE>
 </DEFINITION>
 <DEFINITION>
      <FOR>node17</FOR>
     <TABLE>0.1746 0.3205 0.5049 </TABLE>
 </DEFINITION>
 <DEFINITION>
      <FOR>node18</FOR>
      <GIVEN>node11</GIVEN>
     <TABLE>0.2434 0.7566 0.1483 0.8517 0.6631 0.3369 </TABLE>
 </DEFINITION>
 <DEFINITION>
      <FOR>node19</FOR>
      <GIVEN>node32</GIVEN>
     <TABLE>0.278 0.722 0.9125 0.0875 0.156 0.844 0.907 0.093 </TABLE>
 </DEFINITION>
 <DEFINITION>
      <FOR>node20</FOR>
      <GIVEN>node15</GIVEN>
     <TABLE>0.4597 0.5403 0.5755 0.4245 </TABLE>
 </DEFINITION>
 <DEFINITION>
      <FOR>node21</FOR>
      <GIVEN>node16</GIVEN>
     <TABLE>0.7752 0.2014 0.0234 0.3658 0.5141 0.1201 0.6379 0.07 0.2921 0.2335 0.3079 0.4586 </TABLE>
 </DEFINITION>
 <DEFINITION>
      <FOR>node22</FOR>
      <GIVEN>node35</GIVEN>
     <TABLE>0.0366 0.4928 0.3901 0.0805 0.031 0.1751 0.3119 0.482 0.0209 0.8513 0.1138 0.014 0.0072 0.0316 0.2147 0.7465 </TABLE>
 </DEFINITION>
 <DEFINITION>
      <FOR>node23</FOR>
      <GIVEN>node31</GIVEN>
      <GIVEN>node5</GIVEN>
      <GIVEN>node32</GIVEN>
     <TABLE>0.1128 0.6955 0.1917 0.6742 0.0525 0.2733 0.6118 0.1977 0.1905 0.2248 0.1581 0.6171 0.1345 0.587 0.2785 0.2261 0.1398 0.6341 0.2237 0.1148 0.6615 0.4496 0.1028 0.4476 0.1286 0.2635 0.6079 0.5879 0.2642 0.1479 0.0967 0.4399 0.4634 0.1124 0.234 0.6536 0.0781 0.5647 0.3572 0.0538 0.2248 0.7214 0.7219 0.211 0.0671 0.5417 0.3565 0.1018 </TABLE>
 </DEFINITION>
 <DEFINITION>
      <FOR>node24</FOR>
      <GIVEN>node29</GIVEN>
      <GIVEN>node38</GIVEN>
      <GIVEN>node23</GIVEN>
     <TABLE>0.7493 0.2507 0.8094 0.1906 0.1996 0.8004 0.1997 0.8003 0.3619 0.6381 0.0469 0.9531 0.6408 0.3592 0.8891 0.1109 0.3438 0.6562 0.1598 0.8402 0.9783 0.0217 0.7207 0.2793 0.4991 0.5009 0.1801 0.8199 0.576 0.424 0.7089 0.2911 0.3919 0.6081 0.1669 0.8331 0.0529 0.9471 0.9821 0.0179 0.5404 0.4596 0.9735 0.0265 0.5761 0.4239 0.845 0.155 </TABLE>
 </DEFINITION>
 <DEFINITION>
      <FOR>node25</FOR>
      <GIVEN>node12</GIVEN>
     <TABLE>0.0543 0.9457 0.9288 0.0712 </TABLE>
 </DEFINITION>
 <DEFINITION>
      <FOR>node26</FOR>
      <GIVEN>node3</GIVEN>
     <TABLE>0.5779 0.4221 0.088 0.912 0.7666 0.2334 0.868 0.132 </TABLE>
 </DEFINITION>
 <DEFINITION>
      <FOR>node27</FOR>
      <GIVEN>node5</GIVEN>
     <TABLE>0.5413 0.4182 0.0405 0.0282 0.5991 0.3727 </TABLE>
 </DEFINITION>
 <DEFINITION>
      <FOR>node28</FOR>
      <GIVEN>node32</GIVEN>
     <TABLE>0.1177 0.208 0.6743 0.583 0.0485 0.3685 0.1711 0.5378 0.2911 0.3308 0.6073 0.0619 </TABLE>
 </DEFINITION>
 <DEFINITION>
      <FOR>node29</FOR>
      <GIVEN>node8</GIVEN>
      <GIVEN>node4</GIVEN>
     <TABLE>0.3629 0.6371 0.3441 0.6559 0.3632 0.6368 0.8853 0.1147 0.121 0.879 0.0292 0.9708 0.0364 0.9636 0.1011 0.8989 </TABLE>
 </DEFINITION>
 <DEFINITION>
      <FOR>node30</FOR>
      <GIVEN>node22</GIVEN>
     <TABLE>0.1108 0.3593 0.4853 0.0446 0.0162 0.2649 0.681 0.0379 0.3224 0.0747 0.375 0.2279 0.4883 0.3099 0.1789 0.0229 </TABLE>
 </DEFINITION>
 <DEFINITION>
      <FOR>node31</FOR>
     <TABLE>0.0733 0.9267 </TABLE>
 </DEFINITION>
 <DEFINITION>
      <FOR>node32</FOR>
     <TABLE>0.0639 0.1437 0.1744 0.618 </TABLE>
 </DEFINITION>
 <DEFINITION>
      <FOR>node33</FOR>
      <GIVEN>node22</GIVEN>
     <TABLE>0.5924 0.4076 0.0482 0.9518 0.5315 0.4685 0.8712 0.1288 </TABLE>
 </DEFINITION>
 <DEFINITION>
      <FOR>node34</FOR>
      <GIVEN>node30</GIVEN>
     <TABLE>0.2019 0.0331 0.2801 0.4849 0.4642 0.0199 0.506 0.0099 0.1675 0.3124 0.3519 0.1682 0.5574 0.3327 0.105 0.0049 </TABLE>
 </DEFINITION>
 <DEFINITION>
      <FOR>node35</FOR>
     <TABLE>0.0094 0.2945 0.6002 0.0959 </TABLE>
 </DEFINITION>
 <DEFINITION>
      <FOR>node36</FOR>
      <GIVEN>node11</GIVEN>
     <TABLE>0.0172 0.524 0.4588 0.3403 0.1853 0.4744 0.2291 0.3496 0.4213 </TABLE>
 </DEFINITION>
 <DEFINITION>
      <FOR>node37</FOR>
     <TABLE>0.1158 0.1968 0.4529 0.2345 </TABLE>
 </DEFINITION>
 <DEFINITION>
      <FOR>node38</FOR>
     <TABLE>0.3999 0.3436 0.0705 0.186 </TABLE>
 </DEFINITION>
 <DEFINITION>
      <FOR>node39</FOR>
      <GIVEN>node26</GIVEN>
     <TABLE>0.2285 0.5386 0.2329 0.3577 0.3974 0.2449 </TABLE>
 </DEFINITION>
</NETWORK>
</BIF>
