<?xml version="1.0" encoding="US-ASCII"?>


<!--
	Bayesian network in XMLBIF v0.3 (BayesNet Interchange Format)
	Produced by JavaBayes (http://www.cs.cmu.edu/~javabayes/
	Number of nodes:40
	Output created Tue Feb 28 15:48:20 CET 2017
-->



<BIF VERSION="0.3">
<NETWORK>
<NAME>InternalNetwork</NAME>
<!-- Variables -->
<VARIABLE TYPE="nature">
    <NAME>node0</NAME>
    <OUTCOME>state0</OUTCOME>
    <OUTCOME>state1</OUTCOME>
    <OUTCOME>state2</OUTCOME>
    <OUTCOME>state3</OUTCOME>
    <PROPERTY>position = (44, 270)</PROPERTY>
</VARIABLE>
<!-- Variables -->
<VARIABLE TYPE="nature">
    <NAME>node1</NAME>
    <OUTCOME>state0</OUTCOME>
    <OUTCOME>state1</OUTCOME>
    <OUTCOME>state2</OUTCOME>
    <OUTCOME>state3</OUTCOME>
    <PROPERTY>position = (15, 150)</PROPERTY>
</VARIABLE>
<!-- Variables -->
<VARIABLE TYPE="nature">
    <NAME>node2</NAME>
    <OUTCOME>state0</OUTCOME>
    <OUTCOME>state1</OUTCOME>
    <PROPERTY>position = (135, 164)</PROPERTY>
</VARIABLE>
<!-- Variables -->
<VARIABLE TYPE="nature">
    <NAME>node3</NAME>
    <OUTCOME>state0</OUTCOME>
    <OUTCOME>state1</OUTCOME>
    <PROPERTY>position = (45, 30)</PROPERTY>
</VARIABLE>
<!-- Variables -->
<VARIABLE TYPE="nature">
    <NAME>node4</NAME>
    <OUTCOME>state0</OUTCOME>
    <OUTCOME>state1</OUTCOME>
    <PROPERTY>position = (165, 44)</PROPERTY>
</VARIABLE>
<!-- Variables -->
<VARIABLE TYPE="nature">
    <NAME>node5</NAME>
    <OUTCOME>state0</OUTCOME>
    <OUTCOME>state1</OUTCOME>
    <OUTCOME>state2</OUTCOME>
    <OUTCOME>state3</OUTCOME>
    <PROPERTY>position = (164, 284)</PROPERTY>
</VARIABLE>
<!-- Variables -->
<VARIABLE TYPE="nature">
    <NAME>node6</NAME>
    <OUTCOME>state0</OUTCOME>
    <OUTCOME>state1</OUTCOME>
    <PROPERTY>position = (255, 150)</PROPERTY>
</VARIABLE>
<!-- Variables -->
<VARIABLE TYPE="nature">
    <NAME>node7</NAME>
    <OUTCOME>state0</OUTCOME>
    <OUTCOME>state1</OUTCOME>
    <OUTCOME>state2</OUTCOME>
    <OUTCOME>state3</OUTCOME>
    <PROPERTY>position = (285, 30)</PROPERTY>
</VARIABLE>
<!-- Variables -->
<VARIABLE TYPE="nature">
    <NAME>node8</NAME>
    <OUTCOME>state0</OUTCOME>
    <OUTCOME>state1</OUTCOME>
    <OUTCOME>state2</OUTCOME>
    <OUTCOME>state3</OUTCOME>
    <PROPERTY>position = (284, 270)</PROPERTY>
</VARIABLE>
<!-- Variables -->
<VARIABLE TYPE="nature">
    <NAME>node9</NAME>
    <OUTCOME>state0</OUTCOME>
    <OUTCOME>state1</OUTCOME>
    <PROPERTY>position = (405, 15)</PROPERTY>
</VARIABLE>
<!-- Variables -->
<VARIABLE TYPE="nature">
    <NAME>node10</NAME>
    <OUTCOME>state0</OUTCOME>
    <OUTCOME>state1</OUTCOME>
    <OUTCOME>state2</OUTCOME>
    <PROPERTY>position = (404, 255)</PROPERTY>
</VARIABLE>
<!-- Variables -->
<VARIABLE TYPE="nature">
    <NAME>node11</NAME>
    <OUTCOME>state0</OUTCOME>
    <OUTCOME>state1</OUTCOME>
    <PROPERTY>position = (375, 135)</PROPERTY>
</VARIABLE>
<!-- Variables -->
<VARIABLE TYPE="nature">
    <NAME>node12</NAME>
    <OUTCOME>state0</OUTCOME>
    <OUTCOME>state1</OUTCOME>
    <OUTCOME>state2</OUTCOME>
    <PROPERTY>position = (495, 149)</PROPERTY>
</VARIABLE>
<!-- Variables -->
<VARIABLE TYPE="nature">
    <NAME>node13</NAME>
    <OUTCOME>state0</OUTCOME>
    <OUTCOME>state1</OUTCOME>
    <OUTCOME>state2</OUTCOME>
    <PROPERTY>position = (615, 164)</PROPERTY>
</VARIABLE>
<!-- Variables -->
<VARIABLE TYPE="nature">
    <NAME>node14</NAME>
    <OUTCOME>state0</OUTCOME>
    <OUTCOME>state1</OUTCOME>
    <OUTCOME>state2</OUTCOME>
    <PROPERTY>position = (735, 150)</PROPERTY>
</VARIABLE>
<!-- Variables -->
<VARIABLE TYPE="nature">
    <NAME>node15</NAME>
    <OUTCOME>state0</OUTCOME>
    <OUTCOME>state1</OUTCOME>
    <OUTCOME>state2</OUTCOME>
    <PROPERTY>position = (15, 390)</PROPERTY>
</VARIABLE>
<!-- Variables -->
<VARIABLE TYPE="nature">
    <NAME>node16</NAME>
    <OUTCOME>state0</OUTCOME>
    <OUTCOME>state1</OUTCOME>
    <OUTCOME>state2</OUTCOME>
    <OUTCOME>state3</OUTCOME>
    <PROPERTY>position = (525, 29)</PROPERTY>
</VARIABLE>
<!-- Variables -->
<VARIABLE TYPE="nature">
    <NAME>node17</NAME>
    <OUTCOME>state0</OUTCOME>
    <OUTCOME>state1</OUTCOME>
    <PROPERTY>position = (645, 44)</PROPERTY>
</VARIABLE>
<!-- Variables -->
<VARIABLE TYPE="nature">
    <NAME>node18</NAME>
    <OUTCOME>state0</OUTCOME>
    <OUTCOME>state1</OUTCOME>
    <OUTCOME>state2</OUTCOME>
    <OUTCOME>state3</OUTCOME>
    <PROPERTY>position = (855, 135)</PROPERTY>
</VARIABLE>
<!-- Variables -->
<VARIABLE TYPE="nature">
    <NAME>node19</NAME>
    <OUTCOME>state0</OUTCOME>
    <OUTCOME>state1</OUTCOME>
    <OUTCOME>state2</OUTCOME>
    <PROPERTY>position = (765, 30)</PROPERTY>
</VARIABLE>
<!-- Variables -->
<VARIABLE TYPE="nature">
    <NAME>node20</NAME>
    <OUTCOME>state0</OUTCOME>
    <OUTCOME>state1</OUTCOME>
    <PROPERTY>position = (524, 269)</PROPERTY>
</VARIABLE>
<!-- Variables -->
<VARIABLE TYPE="nature">
    <NAME>node21</NAME>
    <OUTCOME>state0</OUTCOME>
    <OUTCOME>state1</OUTCOME>
    <OUTCOME>state2</OUTCOME>
    <OUTCOME>state3</OUTCOME>
    <PROPERTY>position = (885, 15)</PROPERTY>
</VARIABLE>
<!-- Variables -->
<VARIABLE TYPE="nature">
    <NAME>node22</NAME>
    <OUTCOME>state0</OUTCOME>
    <OUTCOME>state1</OUTCOME>
    <PROPERTY>position = (975, 149)</PROPERTY>
</VARIABLE>
<!-- Variables -->
<VARIABLE TYPE="nature">
    <NAME>node23</NAME>
    <OUTCOME>state0</OUTCOME>
    <OUTCOME>state1</OUTCOME>
    <OUTCOME>state2</OUTCOME>
    <OUTCOME>state3</OUTCOME>
    <PROPERTY>position = (1095, 164)</PROPERTY>
</VARIABLE>
<!-- Variables -->
<VARIABLE TYPE="nature">
    <NAME>node24</NAME>
    <OUTCOME>state0</OUTCOME>
    <OUTCOME>state1</OUTCOME>
    <PROPERTY>position = (1215, 150)</PROPERTY>
</VARIABLE>
<!-- Variables -->
<VARIABLE TYPE="nature">
    <NAME>node25</NAME>
    <OUTCOME>state0</OUTCOME>
    <OUTCOME>state1</OUTCOME>
    <OUTCOME>state2</OUTCOME>
    <OUTCOME>state3</OUTCOME>
    <PROPERTY>position = (1005, 29)</PROPERTY>
</VARIABLE>
<!-- Variables -->
<VARIABLE TYPE="nature">
    <NAME>node26</NAME>
    <OUTCOME>state0</OUTCOME>
    <OUTCOME>state1</OUTCOME>
    <PROPERTY>position = (644, 284)</PROPERTY>
</VARIABLE>
<!-- Variables -->
<VARIABLE TYPE="nature">
    <NAME>node27</NAME>
    <OUTCOME>state0</OUTCOME>
    <OUTCOME>state1</OUTCOME>
    <OUTCOME>state2</OUTCOME>
    <OUTCOME>state3</OUTCOME>
    <PROPERTY>position = (1125, 44)</PROPERTY>
</VARIABLE>
<!-- Variables -->
<VARIABLE TYPE="nature">
    <NAME>node28</NAME>
    <OUTCOME>state0</OUTCOME>
    <OUTCOME>state1</OUTCOME>
    <PROPERTY>position = (764, 270)</PROPERTY>
</VARIABLE>
<!-- Variables -->
<VARIABLE TYPE="nature">
    <NAME>node29</NAME>
    <OUTCOME>state0</OUTCOME>
    <OUTCOME>state1</OUTCOME>
    <OUTCOME>state2</OUTCOME>
    <PROPERTY>position = (1245, 30)</PROPERTY>
</VARIABLE>
<!-- Variables -->
<VARIABLE TYPE="nature">
    <NAME>node30</NAME>
    <OUTCOME>state0</OUTCOME>
    <OUTCOME>state1</OUTCOME>
    <OUTCOME>state2</OUTCOME>
    <OUTCOME>state3</OUTCOME>
    <PROPERTY>position = (1335, 135)</PROPERTY>
</VARIABLE>
<!-- Variables -->
<VARIABLE TYPE="nature">
    <NAME>node31</NAME>
    <OUTCOME>state0</OUTCOME>
    <OUTCOME>state1</OUTCOME>
    <PROPERTY>position = (884, 255)</PROPERTY>
</VARIABLE>
<!-- Variables -->
<VARIABLE TYPE="nature">
    <NAME>node32</NAME>
    <OUTCOME>state0</OUTCOME>
    <OUTCOME>state1</OUTCOME>
    <OUTCOME>state2</OUTCOME>
    <PROPERTY>position = (1455, 149)</PROPERTY>
</VARIABLE>
<!-- Variables -->
<VARIABLE TYPE="nature">
    <NAME>node33</NAME>
    <OUTCOME>state0</OUTCOME>
    <OUTCOME>state1</OUTCOME>
    <OUTCOME>state2</OUTCOME>
    <OUTCOME>state3</OUTCOME>
    <PROPERTY>position = (1365, 15)</PROPERTY>
</VARIABLE>
<!-- Variables -->
<VARIABLE TYPE="nature">
    <NAME>node34</NAME>
    <OUTCOME>state0</OUTCOME>
    <OUTCOME>state1</OUTCOME>
    <OUTCOME>state2</OUTCOME>
    <OUTCOME>state3</OUTCOME>
    <PROPERTY>position = (135, 404)</PROPERTY>
</VARIABLE>
<!-- Variables -->
<VARIABLE TYPE="nature">
    <NAME>node35</NAME>
    <OUTCOME>state0</OUTCOME>
    <OUTCOME>state1</OUTCOME>
    <PROPERTY>position = (1575, 164)</PROPERTY>
</VARIABLE>
<!-- Variables -->
<VARIABLE TYPE="nature">
    <NAME>node36</NAME>
    <OUTCOME>state0</OUTCOME>
    <OUTCOME>state1</OUTCOME>
    <OUTCOME>state2</OUTCOME>
    <OUTCOME>state3</OUTCOME>
    <PROPERTY>position = (1485, 29)</PROPERTY>
</VARIABLE>
<!-- Variables -->
<VARIABLE TYPE="nature">
    <NAME>node37</NAME>
    <OUTCOME>state0</OUTCOME>
    <OUTCOME>state1</OUTCOME>
    <PROPERTY>position = (1695, 150)</PROPERTY>
</VARIABLE>
<!-- Variables -->
<VARIABLE TYPE="nature">
    <NAME>node38</NAME>
    <OUTCOME>state0</OUTCOME>
    <OUTCOME>state1</OUTCOME>
    <OUTCOME>state2</OUTCOME>
    <PROPERTY>position = (1815, 135)</PROPERTY>
</VARIABLE>
<!-- Variables -->
<VARIABLE TYPE="nature">
    <NAME>node39</NAME>
    <OUTCOME>state0</OUTCOME>
    <OUTCOME>state1</OUTCOME>
    <PROPERTY>position = (1935, 149)</PROPERTY>
</VARIABLE>
<!-- Probability Distributions -->
 <DEFINITION>
      <FOR>node0</FOR>
      <GIVEN>node29</GIVEN>
      <GIVEN>node34</GIVEN>
     <TABLE>0.4084 0.0999 0.3758 0.1159 0.5007 0.0656 0.284 0.1497 0.1466 0.1658 0.6481 0.0395 0.2923 0.0434 0.1754 0.4889 0.4927 0.1783 0.0703 0.2587 0.1019 0.2534 0.0868 0.5579 0.1417 0.4267 0.0828 0.3488 0.3348 0.1786 0.202 0.2846 0.176 0.5835 0.1658 0.0747 0.0946 0.3464 0.1282 0.4308 0.4143 0.0273 0.4786 0.0798 0.1634 0.1731 0.482 0.1815 </TABLE>
 </DEFINITION>
 <DEFINITION>
      <FOR>node1</FOR>
      <GIVEN>node11</GIVEN>
     <TABLE>0.0228 0.0248 0.4681 0.4843 0.4562 0.2498 0.1969 0.0971 </TABLE>
 </DEFINITION>
 <DEFINITION>
      <FOR>node2</FOR>
      <GIVEN>node23</GIVEN>
     <TABLE>0.4102 0.5898 0.4413 0.5587 0.717 0.283 0.3055 0.6945 </TABLE>
 </DEFINITION>
 <DEFINITION>
      <FOR>node3</FOR>
     <TABLE>0.9603 0.0397 </TABLE>
 </DEFINITION>
 <DEFINITION>
      <FOR>node4</FOR>
     <TABLE>0.3036 0.6964 </TABLE>
 </DEFINITION>
 <DEFINITION>
      <FOR>node5</FOR>
      <GIVEN>node36</GIVEN>
      <GIVEN>node18</GIVEN>
     <TABLE>0.0952 0.0211 0.7675 0.1162 0.2283 0.3502 0.1106 0.3109 0.2243 0.1415 0.1383 0.4959 0.3224 0.1131 0.3305 0.234 0.4368 0.2537 0.2909 0.0186 0.0671 0.6996 0.2198 0.0135 0.2547 0.3027 0.1132 0.3294 0.0054 0.5014 0.4861 0.0071 0.1667 0.2342 0.2143 0.3848 0.1477 0.5162 0.0156 0.3205 0.831 0.1307 0.0309 0.0074 0.059 0.1289 0.7532 0.0589 0.1662 0.0887 0.7366 0.0085 0.1536 0.2235 0.2269 0.396 0.0976 0.1206 0.4951 0.2867 0.1974 0.0148 0.5349 0.2529 </TABLE>
 </DEFINITION>
 <DEFINITION>
      <FOR>node6</FOR>
      <GIVEN>node36</GIVEN>
     <TABLE>0.1818 0.8182 0.0345 0.9655 0.428 0.572 0.4133 0.5867 </TABLE>
 </DEFINITION>
 <DEFINITION>
      <FOR>node7</FOR>
     <TABLE>0.3538 0.08 0.1739 0.3923 </TABLE>
 </DEFINITION>
 <DEFINITION>
      <FOR>node8</FOR>
      <GIVEN>node17</GIVEN>
      <GIVEN>node7</GIVEN>
     <TABLE>0.3338 0.0631 0.132 0.4711 0.0715 0.3549 0.3725 0.2011 0.1989 0.1481 0.1287 0.5243 0.3836 0.0525 0.4021 0.1618 0.0769 0.1502 0.0534 0.7195 0.2653 0.2672 0.0426 0.4249 0.5621 0.0542 0.3275 0.0562 0.149 0.7778 0.0143 0.0589 </TABLE>
 </DEFINITION>
 <DEFINITION>
      <FOR>node9</FOR>
     <TABLE>0.5531 0.4469 </TABLE>
 </DEFINITION>
 <DEFINITION>
      <FOR>node10</FOR>
      <GIVEN>node3</GIVEN>
      <GIVEN>node26</GIVEN>
     <TABLE>0.3246 0.6433 0.0321 0.4068 0.4873 0.1059 0.7154 0.0456 0.239 0.2723 0.5953 0.1324 </TABLE>
 </DEFINITION>
 <DEFINITION>
      <FOR>node11</FOR>
      <GIVEN>node17</GIVEN>
     <TABLE>0.2316 0.7684 0.7771 0.2229 </TABLE>
 </DEFINITION>
 <DEFINITION>
      <FOR>node12</FOR>
      <GIVEN>node17</GIVEN>
     <TABLE>0.1146 0.7414 0.144 0.4696 0.1601 0.3703 </TABLE>
 </DEFINITION>
 <DEFINITION>
      <FOR>node13</FOR>
      <GIVEN>node25</GIVEN>
     <TABLE>0.0854 0.8824 0.0322 0.0858 0.454 0.4602 0.266 0.2285 0.5055 0.4642 0.0091 0.5267 </TABLE>
 </DEFINITION>
 <DEFINITION>
      <FOR>node14</FOR>
      <GIVEN>node10</GIVEN>
     <TABLE>0.6696 0.0929 0.2375 0.1066 0.6626 0.2308 0.6358 0.1396 0.2246 </TABLE>
 </DEFINITION>
 <DEFINITION>
      <FOR>node15</FOR>
      <GIVEN>node13</GIVEN>
      <GIVEN>node18</GIVEN>
      <GIVEN>node9</GIVEN>
     <TABLE>0.0331 0.2899 0.677 0.0373 0.35 0.6127 0.4871 0.2956 0.2173 0.684 0.2262 0.0898 0.1419 0.7457 0.1124 0.5598 0.2947 0.1455 0.2233 0.7566 0.0201 0.3363 0.5839 0.0798 0.695 0.3011 0.0039 0.0363 0.8778 0.0859 0.2074 0.2938 0.4988 0.5569 0.1226 0.3205 0.1875 0.6741 0.1384 0.0403 0.3811 0.5786 0.3203 0.1271 0.5526 0.2354 0.6814 0.0832 0.3681 0.5161 0.1158 0.0049 0.545 0.4501 0.3571 0.2512 0.3917 0.274 0.0194 0.7066 0.8327 0.1233 0.044 0.5702 0.0959 0.3339 0.1928 0.5198 0.2874 0.0342 0.3951 0.5707 </TABLE>
 </DEFINITION>
 <DEFINITION>
      <FOR>node16</FOR>
     <TABLE>0.4502 0.4909 0.0427 0.0162 </TABLE>
 </DEFINITION>
 <DEFINITION>
      <FOR>node17</FOR>
     <TABLE>0.2426 0.7574 </TABLE>
 </DEFINITION>
 <DEFINITION>
      <FOR>node18</FOR>
      <GIVEN>node21</GIVEN>
     <TABLE>0.1815 0.5949 0.1337 0.0899 0.2919 0.0177 0.4565 0.2339 0.1529 0.2298 0.4497 0.1676 0.1081 0.4594 0.0815 0.351 </TABLE>
 </DEFINITION>
 <DEFINITION>
      <FOR>node19</FOR>
     <TABLE>0.3216 0.0751 0.6033 </TABLE>
 </DEFINITION>
 <DEFINITION>
      <FOR>node20</FOR>
      <GIVEN>node19</GIVEN>
      <GIVEN>node4</GIVEN>
     <TABLE>0.1488 0.8512 0.0967 0.9033 0.6541 0.3459 0.786 0.214 0.5366 0.4634 0.4915 0.5085 </TABLE>
 </DEFINITION>
 <DEFINITION>
      <FOR>node21</FOR>
     <TABLE>0.0923 0.1764 0.6131 0.1182 </TABLE>
 </DEFINITION>
 <DEFINITION>
      <FOR>node22</FOR>
      <GIVEN>node25</GIVEN>
     <TABLE>0.2346 0.7654 0.1847 0.8153 0.9322 0.0678 0.222 0.778 </TABLE>
 </DEFINITION>
 <DEFINITION>
      <FOR>node23</FOR>
      <GIVEN>node18</GIVEN>
     <TABLE>0.2807 0.2157 0.0161 0.4875 0.1991 0.0097 0.2899 0.5013 0.2187 0.0494 0.2335 0.4984 0.1386 0.31 0.4091 0.1423 </TABLE>
 </DEFINITION>
 <DEFINITION>
      <FOR>node24</FOR>
      <GIVEN>node21</GIVEN>
     <TABLE>0.029 0.971 0.512 0.488 0.6359 0.3641 0.8944 0.1056 </TABLE>
 </DEFINITION>
 <DEFINITION>
      <FOR>node25</FOR>
     <TABLE>0.0882 0.0925 0.2904 0.5289 </TABLE>
 </DEFINITION>
 <DEFINITION>
      <FOR>node26</FOR>
      <GIVEN>node33</GIVEN>
      <GIVEN>node11</GIVEN>
     <TABLE>0.7611 0.2389 0.3234 0.6766 0.3678 0.6322 0.2478 0.7522 0.4136 0.5864 0.421 0.579 0.6972 0.3028 0.4597 0.5403 </TABLE>
 </DEFINITION>
 <DEFINITION>
      <FOR>node27</FOR>
     <TABLE>0.1645 0.3 0.0031 0.5324 </TABLE>
 </DEFINITION>
 <DEFINITION>
      <FOR>node28</FOR>
      <GIVEN>node20</GIVEN>
      <GIVEN>node37</GIVEN>
     <TABLE>0.7541 0.2459 0.6019 0.3981 0.7572 0.2428 0.9393 0.0607 </TABLE>
 </DEFINITION>
 <DEFINITION>
      <FOR>node29</FOR>
     <TABLE>0.1897 0.0211 0.7892 </TABLE>
 </DEFINITION>
 <DEFINITION>
      <FOR>node30</FOR>
      <GIVEN>node5</GIVEN>
     <TABLE>0.2742 0.0402 0.4535 0.2321 0.5739 0.2991 0.0381 0.0889 0.1613 0.4891 0.1114 0.2382 0.6811 0.1053 0.0575 0.1561 </TABLE>
 </DEFINITION>
 <DEFINITION>
      <FOR>node31</FOR>
      <GIVEN>node15</GIVEN>
      <GIVEN>node4</GIVEN>
     <TABLE>0.6878 0.3122 0.4951 0.5049 0.2505 0.7495 0.9543 0.0457 0.9451 0.0549 0.696 0.304 </TABLE>
 </DEFINITION>
 <DEFINITION>
      <FOR>node32</FOR>
      <GIVEN>node36</GIVEN>
     <TABLE>0.1197 0.437 0.4433 0.5215 0.1146 0.3639 0.0089 0.4085 0.5826 0.5409 0.2939 0.1652 </TABLE>
 </DEFINITION>
 <DEFINITION>
      <FOR>node33</FOR>
     <TABLE>0.0421 0.0573 0.7307 0.1699 </TABLE>
 </DEFINITION>
 <DEFINITION>
      <FOR>node34</FOR>
      <GIVEN>node27</GIVEN>
      <GIVEN>node10</GIVEN>
      <GIVEN>node16</GIVEN>
     <TABLE>0.0804 0.1067 0.6845 0.1284 0.0435 0.0316 0.3651 0.5598 0.2697 0.4996 0.1359 0.0948 0.4195 0.2027 0.2719 0.1059 0.4107 0.0523 0.2832 0.2538 0.1382 0.0032 0.3247 0.5339 0.4262 0.0361 0.3443 0.1934 0.3761 0.5467 0.0498 0.0274 0.3069 0.1597 0.1807 0.3527 0.3877 0.307 0.1902 0.1151 0.1018 0.0651 0.7452 0.0879 0.2782 0.3359 0.3502 0.0357 0.0419 0.2379 0.1706 0.5496 0.1229 0.0844 0.0429 0.7498 0.02 0.0826 0.1366 0.7608 0.3162 0.0338 0.1095 0.5405 0.2173 0.0396 0.2279 0.5152 0.1896 0.1374 0.6239 0.0491 0.5497 0.1261 0.2609 0.0633 0.3832 0.0249 0.4636 0.1283 0.1978 0.6052 0.0979 0.0991 0.064 0.2969 0.5776 0.0615 0.321 0.0926 0.4841 0.1023 0.2083 0.6244 0.0155 0.1518 0.1698 0.0489 0.4204 0.3609 0.5194 0.0066 0.0909 0.3831 0.1569 0.2647 0.3839 0.1945 0.5596 0.0656 0.1746 0.2002 0.1014 0.7054 0.0093 0.1839 0.0338 0.3508 0.4395 0.1759 0.0452 0.3367 0.0709 0.5472 0.1859 0.2694 0.1604 0.3843 0.2944 0.0475 0.4585 0.1996 0.1397 0.2414 0.5333 0.0856 0.3172 0.1142 0.5227 0.0459 0.2527 0.5222 0.0038 0.2213 0.2792 0.3521 0.173 0.1957 0.3565 0.0928 0.3573 0.1934 0.0643 0.304 0.4851 0.1466 0.2858 0.0154 0.6525 0.0463 0.21 0.138 0.2216 0.4304 0.1268 0.6767 0.0538 0.1427 0.017 0.2263 0.0881 0.6686 0.0213 0.2838 0.1199 0.575 0.5354 0.0183 0.0974 0.3489 0.0607 0.4474 0.218 0.2739 0.0722 0.808 0.1098 0.01 0.4817 0.1481 0.1917 0.1785 </TABLE>
 </DEFINITION>
 <DEFINITION>
      <FOR>node35</FOR>
      <GIVEN>node38</GIVEN>
     <TABLE>0.329 0.671 0.4183 0.5817 0.8092 0.1908 </TABLE>
 </DEFINITION>
 <DEFINITION>
      <FOR>node36</FOR>
     <TABLE>0.1548 0.3372 0.4144 0.0936 </TABLE>
 </DEFINITION>
 <DEFINITION>
      <FOR>node37</FOR>
      <GIVEN>node7</GIVEN>
     <TABLE>0.9685 0.0315 0.0263 0.9737 0.9265 0.0735 0.8161 0.1839 </TABLE>
 </DEFINITION>
 <DEFINITION>
      <FOR>node38</FOR>
      <GIVEN>node7</GIVEN>
     <TABLE>0.0978 0.8478 0.0544 0.2443 0.5443 0.2114 0.2049 0.2309 0.5642 0.2408 0.6679 0.0913 </TABLE>
 </DEFINITION>
 <DEFINITION>
      <FOR>node39</FOR>
      <GIVEN>node8</GIVEN>
     <TABLE>0.3554 0.6446 0.0622 0.9378 0.1663 0.8337 0.6737 0.3263 </TABLE>
 </DEFINITION>
</NETWORK>
</BIF>
