<?xml version="1.0" encoding="US-ASCII"?>


<!--
	Bayesian network in XMLBIF v0.3 (BayesNet Interchange Format)
	Produced by JavaBayes (http://www.cs.cmu.edu/~javabayes/
	Number of nodes:40
	Output created Tue Feb 28 15:48:20 CET 2017
-->



<BIF VERSION="0.3">
<NETWORK>
<NAME>InternalNetwork</NAME>
<!-- Variables -->
<VARIABLE TYPE="nature">
    <NAME>node0</NAME>
    <OUTCOME>state0</OUTCOME>
    <OUTCOME>state1</OUTCOME>
    <PROPERTY>position = (15, 150)</PROPERTY>
</VARIABLE>
<!-- Variables -->
<VARIABLE TYPE="nature">
    <NAME>node1</NAME>
    <OUTCOME>state0</OUTCOME>
    <OUTCOME>state1</OUTCOME>
    <OUTCOME>state2</OUTCOME>
    <PROPERTY>position = (45, 30)</PROPERTY>
</VARIABLE>
<!-- Variables -->
<VARIABLE TYPE="nature">
    <NAME>node2</NAME>
    <OUTCOME>state0</OUTCOME>
    <OUTCOME>state1</OUTCOME>
    <PROPERTY>position = (165, 44)</PROPERTY>
</VARIABLE>
<!-- Variables -->
<VARIABLE TYPE="nature">
    <NAME>node3</NAME>
    <OUTCOME>state0</OUTCOME>
    <OUTCOME>state1</OUTCOME>
    <OUTCOME>state2</OUTCOME>
    <PROPERTY>position = (44, 270)</PROPERTY>
</VARIABLE>
<!-- Variables -->
<VARIABLE TYPE="nature">
    <NAME>node4</NAME>
    <OUTCOME>state0</OUTCOME>
    <OUTCOME>state1</OUTCOME>
    <OUTCOME>state2</OUTCOME>
    <PROPERTY>position = (164, 284)</PROPERTY>
</VARIABLE>
<!-- Variables -->
<VARIABLE TYPE="nature">
    <NAME>node5</NAME>
    <OUTCOME>state0</OUTCOME>
    <OUTCOME>state1</OUTCOME>
    <OUTCOME>state2</OUTCOME>
    <PROPERTY>position = (284, 270)</PROPERTY>
</VARIABLE>
<!-- Variables -->
<VARIABLE TYPE="nature">
    <NAME>node6</NAME>
    <OUTCOME>state0</OUTCOME>
    <OUTCOME>state1</OUTCOME>
    <OUTCOME>state2</OUTCOME>
    <OUTCOME>state3</OUTCOME>
    <PROPERTY>position = (285, 30)</PROPERTY>
</VARIABLE>
<!-- Variables -->
<VARIABLE TYPE="nature">
    <NAME>node7</NAME>
    <OUTCOME>state0</OUTCOME>
    <OUTCOME>state1</OUTCOME>
    <PROPERTY>position = (135, 164)</PROPERTY>
</VARIABLE>
<!-- Variables -->
<VARIABLE TYPE="nature">
    <NAME>node8</NAME>
    <OUTCOME>state0</OUTCOME>
    <OUTCOME>state1</OUTCOME>
    <OUTCOME>state2</OUTCOME>
    <OUTCOME>state3</OUTCOME>
    <PROPERTY>position = (255, 150)</PROPERTY>
</VARIABLE>
<!-- Variables -->
<VARIABLE TYPE="nature">
    <NAME>node9</NAME>
    <OUTCOME>state0</OUTCOME>
    <OUTCOME>state1</OUTCOME>
    <PROPERTY>position = (375, 135)</PROPERTY>
</VARIABLE>
<!-- Variables -->
<VARIABLE TYPE="nature">
    <NAME>node10</NAME>
    <OUTCOME>state0</OUTCOME>
    <OUTCOME>state1</OUTCOME>
    <OUTCOME>state2</OUTCOME>
    <PROPERTY>position = (404, 255)</PROPERTY>
</VARIABLE>
<!-- Variables -->
<VARIABLE TYPE="nature">
    <NAME>node11</NAME>
    <OUTCOME>state0</OUTCOME>
    <OUTCOME>state1</OUTCOME>
    <OUTCOME>state2</OUTCOME>
    <OUTCOME>state3</OUTCOME>
    <PROPERTY>position = (405, 15)</PROPERTY>
</VARIABLE>
<!-- Variables -->
<VARIABLE TYPE="nature">
    <NAME>node12</NAME>
    <OUTCOME>state0</OUTCOME>
    <OUTCOME>state1</OUTCOME>
    <OUTCOME>state2</OUTCOME>
    <OUTCOME>state3</OUTCOME>
    <PROPERTY>position = (525, 29)</PROPERTY>
</VARIABLE>
<!-- Variables -->
<VARIABLE TYPE="nature">
    <NAME>node13</NAME>
    <OUTCOME>state0</OUTCOME>
    <OUTCOME>state1</OUTCOME>
    <PROPERTY>position = (495, 149)</PROPERTY>
</VARIABLE>
<!-- Variables -->
<VARIABLE TYPE="nature">
    <NAME>node14</NAME>
    <OUTCOME>state0</OUTCOME>
    <OUTCOME>state1</OUTCOME>
    <OUTCOME>state2</OUTCOME>
    <PROPERTY>position = (615, 164)</PROPERTY>
</VARIABLE>
<!-- Variables -->
<VARIABLE TYPE="nature">
    <NAME>node15</NAME>
    <OUTCOME>state0</OUTCOME>
    <OUTCOME>state1</OUTCOME>
    <PROPERTY>position = (645, 44)</PROPERTY>
</VARIABLE>
<!-- Variables -->
<VARIABLE TYPE="nature">
    <NAME>node16</NAME>
    <OUTCOME>state0</OUTCOME>
    <OUTCOME>state1</OUTCOME>
    <OUTCOME>state2</OUTCOME>
    <PROPERTY>position = (735, 150)</PROPERTY>
</VARIABLE>
<!-- Variables -->
<VARIABLE TYPE="nature">
    <NAME>node17</NAME>
    <OUTCOME>state0</OUTCOME>
    <OUTCOME>state1</OUTCOME>
    <OUTCOME>state2</OUTCOME>
    <OUTCOME>state3</OUTCOME>
    <PROPERTY>position = (855, 135)</PROPERTY>
</VARIABLE>
<!-- Variables -->
<VARIABLE TYPE="nature">
    <NAME>node18</NAME>
    <OUTCOME>state0</OUTCOME>
    <OUTCOME>state1</OUTCOME>
    <OUTCOME>state2</OUTCOME>
    <OUTCOME>state3</OUTCOME>
    <PROPERTY>position = (765, 30)</PROPERTY>
</VARIABLE>
<!-- Variables -->
<VARIABLE TYPE="nature">
    <NAME>node19</NAME>
    <OUTCOME>state0</OUTCOME>
    <OUTCOME>state1</OUTCOME>
    <PROPERTY>position = (975, 149)</PROPERTY>
</VARIABLE>
<!-- Variables -->
<VARIABLE TYPE="nature">
    <NAME>node20</NAME>
    <OUTCOME>state0</OUTCOME>
    <OUTCOME>state1</OUTCOME>
    <OUTCOME>state2</OUTCOME>
    <PROPERTY>position = (1095, 164)</PROPERTY>
</VARIABLE>
<!-- Variables -->
<VARIABLE TYPE="nature">
    <NAME>node21</NAME>
    <OUTCOME>state0</OUTCOME>
    <OUTCOME>state1</OUTCOME>
    <OUTCOME>state2</OUTCOME>
    <OUTCOME>state3</OUTCOME>
    <PROPERTY>position = (1215, 150)</PROPERTY>
</VARIABLE>
<!-- Variables -->
<VARIABLE TYPE="nature">
    <NAME>node22</NAME>
    <OUTCOME>state0</OUTCOME>
    <OUTCOME>state1</OUTCOME>
    <PROPERTY>position = (15, 390)</PROPERTY>
</VARIABLE>
<!-- Variables -->
<VARIABLE TYPE="nature">
    <NAME>node23</NAME>
    <OUTCOME>state0</OUTCOME>
    <OUTCOME>state1</OUTCOME>
    <OUTCOME>state2</OUTCOME>
    <OUTCOME>state3</OUTCOME>
    <PROPERTY>position = (1335, 135)</PROPERTY>
</VARIABLE>
<!-- Variables -->
<VARIABLE TYPE="nature">
    <NAME>node24</NAME>
    <OUTCOME>state0</OUTCOME>
    <OUTCOME>state1</OUTCOME>
    <PROPERTY>position = (1455, 149)</PROPERTY>
</VARIABLE>
<!-- Variables -->
<VARIABLE TYPE="nature">
    <NAME>node25</NAME>
    <OUTCOME>state0</OUTCOME>
    <OUTCOME>state1</OUTCOME>
    <OUTCOME>state2</OUTCOME>
    <PROPERTY>position = (885, 15)</PROPERTY>
</VARIABLE>
<!-- Variables -->
<VARIABLE TYPE="nature">
    <NAME>node26</NAME>
    <OUTCOME>state0</OUTCOME>
    <OUTCOME>state1</OUTCOME>
    <PROPERTY>position = (1575, 164)</PROPERTY>
</VARIABLE>
<!-- Variables -->
<VARIABLE TYPE="nature">
    <NAME>node27</NAME>
    <OUTCOME>state0</OUTCOME>
    <OUTCOME>state1</OUTCOME>
    <OUTCOME>state2</OUTCOME>
    <PROPERTY>position = (1695, 150)</PROPERTY>
</VARIABLE>
<!-- Variables -->
<VARIABLE TYPE="nature">
    <NAME>node28</NAME>
    <OUTCOME>state0</OUTCOME>
    <OUTCOME>state1</OUTCOME>
    <OUTCOME>state2</OUTCOME>
    <OUTCOME>state3</OUTCOME>
    <PROPERTY>position = (1005, 29)</PROPERTY>
</VARIABLE>
<!-- Variables -->
<VARIABLE TYPE="nature">
    <NAME>node29</NAME>
    <OUTCOME>state0</OUTCOME>
    <OUTCOME>state1</OUTCOME>
    <OUTCOME>state2</OUTCOME>
    <OUTCOME>state3</OUTCOME>
    <PROPERTY>position = (44, 510)</PROPERTY>
</VARIABLE>
<!-- Variables -->
<VARIABLE TYPE="nature">
    <NAME>node30</NAME>
    <OUTCOME>state0</OUTCOME>
    <OUTCOME>state1</OUTCOME>
    <OUTCOME>state2</OUTCOME>
    <PROPERTY>position = (1125, 44)</PROPERTY>
</VARIABLE>
<!-- Variables -->
<VARIABLE TYPE="nature">
    <NAME>node31</NAME>
    <OUTCOME>state0</OUTCOME>
    <OUTCOME>state1</OUTCOME>
    <OUTCOME>state2</OUTCOME>
    <PROPERTY>position = (524, 269)</PROPERTY>
</VARIABLE>
<!-- Variables -->
<VARIABLE TYPE="nature">
    <NAME>node32</NAME>
    <OUTCOME>state0</OUTCOME>
    <OUTCOME>state1</OUTCOME>
    <OUTCOME>state2</OUTCOME>
    <PROPERTY>position = (644, 284)</PROPERTY>
</VARIABLE>
<!-- Variables -->
<VARIABLE TYPE="nature">
    <NAME>node33</NAME>
    <OUTCOME>state0</OUTCOME>
    <OUTCOME>state1</OUTCOME>
    <OUTCOME>state2</OUTCOME>
    <OUTCOME>state3</OUTCOME>
    <PROPERTY>position = (1815, 135)</PROPERTY>
</VARIABLE>
<!-- Variables -->
<VARIABLE TYPE="nature">
    <NAME>node34</NAME>
    <OUTCOME>state0</OUTCOME>
    <OUTCOME>state1</OUTCOME>
    <OUTCOME>state2</OUTCOME>
    <OUTCOME>state3</OUTCOME>
    <PROPERTY>position = (1935, 149)</PROPERTY>
</VARIABLE>
<!-- Variables -->
<VARIABLE TYPE="nature">
    <NAME>node35</NAME>
    <OUTCOME>state0</OUTCOME>
    <OUTCOME>state1</OUTCOME>
    <OUTCOME>state2</OUTCOME>
    <PROPERTY>position = (2055, 164)</PROPERTY>
</VARIABLE>
<!-- Variables -->
<VARIABLE TYPE="nature">
    <NAME>node36</NAME>
    <OUTCOME>state0</OUTCOME>
    <OUTCOME>state1</OUTCOME>
    <PROPERTY>position = (2175, 150)</PROPERTY>
</VARIABLE>
<!-- Variables -->
<VARIABLE TYPE="nature">
    <NAME>node37</NAME>
    <OUTCOME>state0</OUTCOME>
    <OUTCOME>state1</OUTCOME>
    <OUTCOME>state2</OUTCOME>
    <OUTCOME>state3</OUTCOME>
    <PROPERTY>position = (1245, 30)</PROPERTY>
</VARIABLE>
<!-- Variables -->
<VARIABLE TYPE="nature">
    <NAME>node38</NAME>
    <OUTCOME>state0</OUTCOME>
    <OUTCOME>state1</OUTCOME>
    <OUTCOME>state2</OUTCOME>
    <PROPERTY>position = (1365, 15)</PROPERTY>
</VARIABLE>
<!-- Variables -->
<VARIABLE TYPE="nature">
    <NAME>node39</NAME>
    <OUTCOME>state0</OUTCOME>
    <OUTCOME>state1</OUTCOME>
    <PROPERTY>position = (2295, 135)</PROPERTY>
</VARIABLE>
<!-- Probability Distributions -->
 <DEFINITION>
      <FOR>node0</FOR>
      <GIVEN>node30</GIVEN>
     <TABLE>0.7558 0.2442 0.9519 0.0481 0.8007 0.1993 </TABLE>
 </DEFINITION>
 <DEFINITION>
      <FOR>node1</FOR>
     <TABLE>0.6517 0.2189 0.1294 </TABLE>
 </DEFINITION>
 <DEFINITION>
      <FOR>node2</FOR>
     <TABLE>0.9258 0.0742 </TABLE>
 </DEFINITION>
 <DEFINITION>
      <FOR>node3</FOR>
      <GIVEN>node35</GIVEN>
      <GIVEN>node19</GIVEN>
     <TABLE>0.1155 0.629 0.2555 0.4635 0.5287 0.0078 0.0087 0.6404 0.3509 0.1098 0.266 0.6242 0.1102 0.2219 0.6679 0.0905 0.1039 0.8056 </TABLE>
 </DEFINITION>
 <DEFINITION>
      <FOR>node4</FOR>
      <GIVEN>node38</GIVEN>
      <GIVEN>node25</GIVEN>
     <TABLE>0.0333 0.5695 0.3972 0.3633 0.0753 0.5614 0.4901 0.3217 0.1882 0.2325 0.5823 0.1852 0.1111 0.7216 0.1673 0.2028 0.1553 0.6419 0.0455 0.5795 0.375 0.8207 0.0381 0.1412 0.3989 0.102 0.4991 </TABLE>
 </DEFINITION>
 <DEFINITION>
      <FOR>node5</FOR>
      <GIVEN>node23</GIVEN>
      <GIVEN>node28</GIVEN>
     <TABLE>0.0732 0.5894 0.3374 0.257 0.657 0.086 0.7449 0.1206 0.1345 0.5034 0.3691 0.1275 0.7293 0.2373 0.0334 0.1354 0.065 0.7996 0.2703 0.3681 0.3616 0.0358 0.0856 0.8786 0.0096 0.6149 0.3755 0.933 0.0172 0.0498 0.037 0.8198 0.1432 0.6313 0.0016 0.3671 0.4655 0.0316 0.5029 0.7189 0.1583 0.1228 0.3846 0.4526 0.1628 0.0089 0.3755 0.6156 </TABLE>
 </DEFINITION>
 <DEFINITION>
      <FOR>node6</FOR>
     <TABLE>0.2756 0.1718 0.0199 0.5327 </TABLE>
 </DEFINITION>
 <DEFINITION>
      <FOR>node7</FOR>
      <GIVEN>node8</GIVEN>
     <TABLE>0.2955 0.7045 0.7064 0.2936 0.6551 0.3449 0.0315 0.9685 </TABLE>
 </DEFINITION>
 <DEFINITION>
      <FOR>node8</FOR>
      <GIVEN>node36</GIVEN>
     <TABLE>0.3886 0.285 0.2899 0.0365 0.2019 0.0792 0.6134 0.1055 </TABLE>
 </DEFINITION>
 <DEFINITION>
      <FOR>node9</FOR>
      <GIVEN>node8</GIVEN>
     <TABLE>0.092 0.908 0.2049 0.7951 0.4366 0.5634 0.6928 0.3072 </TABLE>
 </DEFINITION>
 <DEFINITION>
      <FOR>node10</FOR>
      <GIVEN>node15</GIVEN>
      <GIVEN>node7</GIVEN>
     <TABLE>0.0561 0.4141 0.5298 0.1162 0.7184 0.1654 0.8696 0.0877 0.0427 0.0317 0.5296 0.4387 </TABLE>
 </DEFINITION>
 <DEFINITION>
      <FOR>node11</FOR>
     <TABLE>0.1402 0.3777 0.1101 0.372 </TABLE>
 </DEFINITION>
 <DEFINITION>
      <FOR>node12</FOR>
     <TABLE>0.1222 0.297 0.1296 0.4512 </TABLE>
 </DEFINITION>
 <DEFINITION>
      <FOR>node13</FOR>
      <GIVEN>node37</GIVEN>
     <TABLE>0.2012 0.7988 0.9278 0.0722 0.1796 0.8204 0.0089 0.9911 </TABLE>
 </DEFINITION>
 <DEFINITION>
      <FOR>node14</FOR>
      <GIVEN>node24</GIVEN>
     <TABLE>0.1391 0.8489 0.012 0.9685 0.0193 0.0122 </TABLE>
 </DEFINITION>
 <DEFINITION>
      <FOR>node15</FOR>
     <TABLE>0.7741 0.2259 </TABLE>
 </DEFINITION>
 <DEFINITION>
      <FOR>node16</FOR>
      <GIVEN>node30</GIVEN>
     <TABLE>0.2406 0.0994 0.66 0.2156 0.5451 0.2393 0.2041 0.1503 0.6456 </TABLE>
 </DEFINITION>
 <DEFINITION>
      <FOR>node17</FOR>
      <GIVEN>node30</GIVEN>
     <TABLE>0.3949 0.4486 0.0193 0.1372 0.1497 0.3662 0.3185 0.1656 0.3836 0.0149 0.4055 0.196 </TABLE>
 </DEFINITION>
 <DEFINITION>
      <FOR>node18</FOR>
     <TABLE>0.2644 0.5351 0.1622 0.0383 </TABLE>
 </DEFINITION>
 <DEFINITION>
      <FOR>node19</FOR>
      <GIVEN>node2</GIVEN>
     <TABLE>0.5921 0.4079 0.4394 0.5606 </TABLE>
 </DEFINITION>
 <DEFINITION>
      <FOR>node20</FOR>
      <GIVEN>node36</GIVEN>
     <TABLE>0.6448 0.1252 0.23 0.5213 0.3779 0.1008 </TABLE>
 </DEFINITION>
 <DEFINITION>
      <FOR>node21</FOR>
      <GIVEN>node22</GIVEN>
     <TABLE>0.5624 0.1458 0.1872 0.1046 0.1778 0.2175 0.4999 0.1048 </TABLE>
 </DEFINITION>
 <DEFINITION>
      <FOR>node22</FOR>
      <GIVEN>node1</GIVEN>
      <GIVEN>node12</GIVEN>
      <GIVEN>node25</GIVEN>
     <TABLE>0.4961 0.5039 0.9489 0.0511 0.0318 0.9682 0.7004 0.2996 0.5148 0.4852 0.188 0.812 0.0696 0.9304 0.3728 0.6272 0.3571 0.6429 0.8163 0.1837 0.8538 0.1462 0.9211 0.0789 0.2862 0.7138 0.2684 0.7316 0.1074 0.8926 0.8099 0.1901 0.5941 0.4059 0.872 0.128 0.1942 0.8058 0.8636 0.1364 0.4583 0.5417 0.1516 0.8484 0.766 0.234 0.7287 0.2713 0.004 0.996 0.1537 0.8463 0.6254 0.3746 0.2498 0.7502 0.1414 0.8586 0.8367 0.1633 0.8204 0.1796 0.9488 0.0512 0.0663 0.9337 0.2798 0.7202 0.3365 0.6635 0.6155 0.3845 </TABLE>
 </DEFINITION>
 <DEFINITION>
      <FOR>node23</FOR>
      <GIVEN>node6</GIVEN>
     <TABLE>0.278 0.6394 0.0764 0.0062 0.5134 0.0777 0.2761 0.1328 0.166 0.3033 0.2219 0.3088 0.222 0.5349 0.2204 0.0227 </TABLE>
 </DEFINITION>
 <DEFINITION>
      <FOR>node24</FOR>
      <GIVEN>node9</GIVEN>
     <TABLE>0.1511 0.8489 0.6992 0.3008 </TABLE>
 </DEFINITION>
 <DEFINITION>
      <FOR>node25</FOR>
     <TABLE>0.5241 0.3479 0.128 </TABLE>
 </DEFINITION>
 <DEFINITION>
      <FOR>node26</FOR>
      <GIVEN>node39</GIVEN>
     <TABLE>0.0407 0.9593 0.4611 0.5389 </TABLE>
 </DEFINITION>
 <DEFINITION>
      <FOR>node27</FOR>
      <GIVEN>node6</GIVEN>
     <TABLE>0.6251 0.238 0.1369 0.2015 0.6819 0.1166 0.0377 0.4538 0.5085 0.2335 0.5517 0.2148 </TABLE>
 </DEFINITION>
 <DEFINITION>
      <FOR>node28</FOR>
     <TABLE>0.1476 0.3244 0.2039 0.3241 </TABLE>
 </DEFINITION>
 <DEFINITION>
      <FOR>node29</FOR>
      <GIVEN>node5</GIVEN>
      <GIVEN>node16</GIVEN>
      <GIVEN>node13</GIVEN>
      <GIVEN>node24</GIVEN>
     <TABLE>0.5286 0.1167 0.1365 0.2182 0.6376 0.099 0.1952 0.0682 0.1391 0.6679 0.061 0.132 3.0E-4 0.4935 0.3556 0.1506 0.2048 0.0613 0.2852 0.4487 0.155 0.112 0.477 0.256 0.0653 0.3721 0.3256 0.237 0.0267 0.2503 0.4121 0.3109 0.2112 0.0403 0.5366 0.2119 0.1543 0.12 0.5679 0.1578 0.0583 0.4748 0.0105 0.4564 0.1023 0.5884 0.0372 0.2721 0.267 0.0768 0.0828 0.5734 0.2975 0.0069 0.6654 0.0302 0.4701 0.1836 0.2834 0.0629 0.4772 0.0243 0.4125 0.086 0.2604 0.1242 0.0843 0.5311 0.2948 0.033 0.2949 0.3773 0.111 0.3474 0.1429 0.3987 0.2383 0.0372 0.2513 0.4732 0.071 0.7958 0.059 0.0742 0.0884 0.148 0.1936 0.57 0.1492 0.3496 0.142 0.3592 0.0585 0.61 0.0171 0.3144 0.1332 0.4147 0.0391 0.413 0.4703 0.0233 0.0142 0.4922 0.2358 0.4483 0.0991 0.2168 0.2244 0.1257 0.6104 0.0395 0.2417 0.1716 0.1808 0.4059 0.5041 0.0785 0.3618 0.0556 0.3929 0.5718 0.0106 0.0247 0.395 0.407 0.0231 0.1749 0.1174 0.1502 0.6401 0.0923 0.1608 0.1367 0.5834 0.1191 0.0238 0.2706 0.3456 0.36 0.3816 0.3463 0.2366 0.0355 </TABLE>
 </DEFINITION>
 <DEFINITION>
      <FOR>node30</FOR>
     <TABLE>0.4833 0.1503 0.3664 </TABLE>
 </DEFINITION>
 <DEFINITION>
      <FOR>node31</FOR>
      <GIVEN>node30</GIVEN>
      <GIVEN>node18</GIVEN>
     <TABLE>0.1534 0.3303 0.5163 0.1048 0.107 0.7882 0.1589 0.4933 0.3478 0.4341 0.0487 0.5172 0.426 0.1162 0.4578 0.645 0.02 0.335 0.4215 0.5056 0.0729 0.6048 0.0881 0.3071 0.2496 0.0055 0.7449 0.0227 0.5118 0.4655 0.5513 0.3086 0.1401 0.3314 0.304 0.3646 </TABLE>
 </DEFINITION>
 <DEFINITION>
      <FOR>node32</FOR>
      <GIVEN>node5</GIVEN>
      <GIVEN>node26</GIVEN>
     <TABLE>0.586 0.2805 0.1335 0.1476 0.2357 0.6167 0.5948 0.2782 0.127 0.017 0.7592 0.2238 3.0E-4 0.9972 0.0025 0.279 0.2859 0.4351 </TABLE>
 </DEFINITION>
 <DEFINITION>
      <FOR>node33</FOR>
      <GIVEN>node2</GIVEN>
     <TABLE>0.3389 0.051 0.3188 0.2913 0.03 0.8423 0.0644 0.0633 </TABLE>
 </DEFINITION>
 <DEFINITION>
      <FOR>node34</FOR>
      <GIVEN>node7</GIVEN>
     <TABLE>0.1587 0.3413 0.2006 0.2994 0.1676 0.0539 0.7593 0.0192 </TABLE>
 </DEFINITION>
 <DEFINITION>
      <FOR>node35</FOR>
      <GIVEN>node7</GIVEN>
     <TABLE>0.8435 0.1041 0.0524 0.4618 0.0342 0.504 </TABLE>
 </DEFINITION>
 <DEFINITION>
      <FOR>node36</FOR>
      <GIVEN>node4</GIVEN>
     <TABLE>0.4781 0.5219 0.7028 0.2972 0.5923 0.4077 </TABLE>
 </DEFINITION>
 <DEFINITION>
      <FOR>node37</FOR>
     <TABLE>0.1448 0.3619 0.1099 0.3834 </TABLE>
 </DEFINITION>
 <DEFINITION>
      <FOR>node38</FOR>
     <TABLE>0.4442 0.5317 0.0241 </TABLE>
 </DEFINITION>
 <DEFINITION>
      <FOR>node39</FOR>
      <GIVEN>node11</GIVEN>
     <TABLE>0.5088 0.4912 0.2524 0.7476 0.8803 0.1197 0.986 0.014 </TABLE>
 </DEFINITION>
</NETWORK>
</BIF>
