<?xml version="1.0" encoding="US-ASCII"?>


<!--
	Bayesian network in XMLBIF v0.3 (BayesNet Interchange Format)
	Produced by JavaBayes (http://www.cs.cmu.edu/~javabayes/
	Number of nodes:40
	Output created Tue Feb 28 15:48:20 CET 2017
-->



<BIF VERSION="0.3">
<NETWORK>
<NAME>InternalNetwork</NAME>
<!-- Variables -->
<VARIABLE TYPE="nature">
    <NAME>node0</NAME>
    <OUTCOME>state0</OUTCOME>
    <OUTCOME>state1</OUTCOME>
    <OUTCOME>state2</OUTCOME>
    <OUTCOME>state3</OUTCOME>
    <PROPERTY>position = (45, 30)</PROPERTY>
</VARIABLE>
<!-- Variables -->
<VARIABLE TYPE="nature">
    <NAME>node1</NAME>
    <OUTCOME>state0</OUTCOME>
    <OUTCOME>state1</OUTCOME>
    <OUTCOME>state2</OUTCOME>
    <PROPERTY>position = (165, 44)</PROPERTY>
</VARIABLE>
<!-- Variables -->
<VARIABLE TYPE="nature">
    <NAME>node2</NAME>
    <OUTCOME>state0</OUTCOME>
    <OUTCOME>state1</OUTCOME>
    <OUTCOME>state2</OUTCOME>
    <OUTCOME>state3</OUTCOME>
    <PROPERTY>position = (15, 150)</PROPERTY>
</VARIABLE>
<!-- Variables -->
<VARIABLE TYPE="nature">
    <NAME>node3</NAME>
    <OUTCOME>state0</OUTCOME>
    <OUTCOME>state1</OUTCOME>
    <PROPERTY>position = (135, 164)</PROPERTY>
</VARIABLE>
<!-- Variables -->
<VARIABLE TYPE="nature">
    <NAME>node4</NAME>
    <OUTCOME>state0</OUTCOME>
    <OUTCOME>state1</OUTCOME>
    <OUTCOME>state2</OUTCOME>
    <PROPERTY>position = (255, 150)</PROPERTY>
</VARIABLE>
<!-- Variables -->
<VARIABLE TYPE="nature">
    <NAME>node5</NAME>
    <OUTCOME>state0</OUTCOME>
    <OUTCOME>state1</OUTCOME>
    <OUTCOME>state2</OUTCOME>
    <OUTCOME>state3</OUTCOME>
    <PROPERTY>position = (285, 30)</PROPERTY>
</VARIABLE>
<!-- Variables -->
<VARIABLE TYPE="nature">
    <NAME>node6</NAME>
    <OUTCOME>state0</OUTCOME>
    <OUTCOME>state1</OUTCOME>
    <OUTCOME>state2</OUTCOME>
    <OUTCOME>state3</OUTCOME>
    <PROPERTY>position = (405, 15)</PROPERTY>
</VARIABLE>
<!-- Variables -->
<VARIABLE TYPE="nature">
    <NAME>node7</NAME>
    <OUTCOME>state0</OUTCOME>
    <OUTCOME>state1</OUTCOME>
    <OUTCOME>state2</OUTCOME>
    <PROPERTY>position = (375, 135)</PROPERTY>
</VARIABLE>
<!-- Variables -->
<VARIABLE TYPE="nature">
    <NAME>node8</NAME>
    <OUTCOME>state0</OUTCOME>
    <OUTCOME>state1</OUTCOME>
    <OUTCOME>state2</OUTCOME>
    <PROPERTY>position = (495, 149)</PROPERTY>
</VARIABLE>
<!-- Variables -->
<VARIABLE TYPE="nature">
    <NAME>node9</NAME>
    <OUTCOME>state0</OUTCOME>
    <OUTCOME>state1</OUTCOME>
    <OUTCOME>state2</OUTCOME>
    <PROPERTY>position = (44, 270)</PROPERTY>
</VARIABLE>
<!-- Variables -->
<VARIABLE TYPE="nature">
    <NAME>node10</NAME>
    <OUTCOME>state0</OUTCOME>
    <OUTCOME>state1</OUTCOME>
    <OUTCOME>state2</OUTCOME>
    <PROPERTY>position = (15, 390)</PROPERTY>
</VARIABLE>
<!-- Variables -->
<VARIABLE TYPE="nature">
    <NAME>node11</NAME>
    <OUTCOME>state0</OUTCOME>
    <OUTCOME>state1</OUTCOME>
    <PROPERTY>position = (525, 29)</PROPERTY>
</VARIABLE>
<!-- Variables -->
<VARIABLE TYPE="nature">
    <NAME>node12</NAME>
    <OUTCOME>state0</OUTCOME>
    <OUTCOME>state1</OUTCOME>
    <OUTCOME>state2</OUTCOME>
    <OUTCOME>state3</OUTCOME>
    <PROPERTY>position = (164, 284)</PROPERTY>
</VARIABLE>
<!-- Variables -->
<VARIABLE TYPE="nature">
    <NAME>node13</NAME>
    <OUTCOME>state0</OUTCOME>
    <OUTCOME>state1</OUTCOME>
    <PROPERTY>position = (615, 164)</PROPERTY>
</VARIABLE>
<!-- Variables -->
<VARIABLE TYPE="nature">
    <NAME>node14</NAME>
    <OUTCOME>state0</OUTCOME>
    <OUTCOME>state1</OUTCOME>
    <PROPERTY>position = (645, 44)</PROPERTY>
</VARIABLE>
<!-- Variables -->
<VARIABLE TYPE="nature">
    <NAME>node15</NAME>
    <OUTCOME>state0</OUTCOME>
    <OUTCOME>state1</OUTCOME>
    <OUTCOME>state2</OUTCOME>
    <OUTCOME>state3</OUTCOME>
    <PROPERTY>position = (735, 150)</PROPERTY>
</VARIABLE>
<!-- Variables -->
<VARIABLE TYPE="nature">
    <NAME>node16</NAME>
    <OUTCOME>state0</OUTCOME>
    <OUTCOME>state1</OUTCOME>
    <OUTCOME>state2</OUTCOME>
    <OUTCOME>state3</OUTCOME>
    <PROPERTY>position = (855, 135)</PROPERTY>
</VARIABLE>
<!-- Variables -->
<VARIABLE TYPE="nature">
    <NAME>node17</NAME>
    <OUTCOME>state0</OUTCOME>
    <OUTCOME>state1</OUTCOME>
    <PROPERTY>position = (975, 149)</PROPERTY>
</VARIABLE>
<!-- Variables -->
<VARIABLE TYPE="nature">
    <NAME>node18</NAME>
    <OUTCOME>state0</OUTCOME>
    <OUTCOME>state1</OUTCOME>
    <PROPERTY>position = (1095, 164)</PROPERTY>
</VARIABLE>
<!-- Variables -->
<VARIABLE TYPE="nature">
    <NAME>node19</NAME>
    <OUTCOME>state0</OUTCOME>
    <OUTCOME>state1</OUTCOME>
    <OUTCOME>state2</OUTCOME>
    <OUTCOME>state3</OUTCOME>
    <PROPERTY>position = (1215, 150)</PROPERTY>
</VARIABLE>
<!-- Variables -->
<VARIABLE TYPE="nature">
    <NAME>node20</NAME>
    <OUTCOME>state0</OUTCOME>
    <OUTCOME>state1</OUTCOME>
    <OUTCOME>state2</OUTCOME>
    <PROPERTY>position = (284, 270)</PROPERTY>
</VARIABLE>
<!-- Variables -->
<VARIABLE TYPE="nature">
    <NAME>node21</NAME>
    <OUTCOME>state0</OUTCOME>
    <OUTCOME>state1</OUTCOME>
    <OUTCOME>state2</OUTCOME>
    <PROPERTY>position = (404, 255)</PROPERTY>
</VARIABLE>
<!-- Variables -->
<VARIABLE TYPE="nature">
    <NAME>node22</NAME>
    <OUTCOME>state0</OUTCOME>
    <OUTCOME>state1</OUTCOME>
    <OUTCOME>state2</OUTCOME>
    <PROPERTY>position = (765, 30)</PROPERTY>
</VARIABLE>
<!-- Variables -->
<VARIABLE TYPE="nature">
    <NAME>node23</NAME>
    <OUTCOME>state0</OUTCOME>
    <OUTCOME>state1</OUTCOME>
    <OUTCOME>state2</OUTCOME>
    <PROPERTY>position = (885, 15)</PROPERTY>
</VARIABLE>
<!-- Variables -->
<VARIABLE TYPE="nature">
    <NAME>node24</NAME>
    <OUTCOME>state0</OUTCOME>
    <OUTCOME>state1</OUTCOME>
    <OUTCOME>state2</OUTCOME>
    <PROPERTY>position = (1335, 135)</PROPERTY>
</VARIABLE>
<!-- Variables -->
<VARIABLE TYPE="nature">
    <NAME>node25</NAME>
    <OUTCOME>state0</OUTCOME>
    <OUTCOME>state1</OUTCOME>
    <OUTCOME>state2</OUTCOME>
    <OUTCOME>state3</OUTCOME>
    <PROPERTY>position = (1005, 29)</PROPERTY>
</VARIABLE>
<!-- Variables -->
<VARIABLE TYPE="nature">
    <NAME>node26</NAME>
    <OUTCOME>state0</OUTCOME>
    <OUTCOME>state1</OUTCOME>
    <OUTCOME>state2</OUTCOME>
    <OUTCOME>state3</OUTCOME>
    <PROPERTY>position = (1455, 149)</PROPERTY>
</VARIABLE>
<!-- Variables -->
<VARIABLE TYPE="nature">
    <NAME>node27</NAME>
    <OUTCOME>state0</OUTCOME>
    <OUTCOME>state1</OUTCOME>
    <PROPERTY>position = (524, 269)</PROPERTY>
</VARIABLE>
<!-- Variables -->
<VARIABLE TYPE="nature">
    <NAME>node28</NAME>
    <OUTCOME>state0</OUTCOME>
    <OUTCOME>state1</OUTCOME>
    <PROPERTY>position = (644, 284)</PROPERTY>
</VARIABLE>
<!-- Variables -->
<VARIABLE TYPE="nature">
    <NAME>node29</NAME>
    <OUTCOME>state0</OUTCOME>
    <OUTCOME>state1</OUTCOME>
    <OUTCOME>state2</OUTCOME>
    <PROPERTY>position = (1575, 164)</PROPERTY>
</VARIABLE>
<!-- Variables -->
<VARIABLE TYPE="nature">
    <NAME>node30</NAME>
    <OUTCOME>state0</OUTCOME>
    <OUTCOME>state1</OUTCOME>
    <OUTCOME>state2</OUTCOME>
    <OUTCOME>state3</OUTCOME>
    <PROPERTY>position = (764, 270)</PROPERTY>
</VARIABLE>
<!-- Variables -->
<VARIABLE TYPE="nature">
    <NAME>node31</NAME>
    <OUTCOME>state0</OUTCOME>
    <OUTCOME>state1</OUTCOME>
    <OUTCOME>state2</OUTCOME>
    <OUTCOME>state3</OUTCOME>
    <PROPERTY>position = (1695, 150)</PROPERTY>
</VARIABLE>
<!-- Variables -->
<VARIABLE TYPE="nature">
    <NAME>node32</NAME>
    <OUTCOME>state0</OUTCOME>
    <OUTCOME>state1</OUTCOME>
    <OUTCOME>state2</OUTCOME>
    <OUTCOME>state3</OUTCOME>
    <PROPERTY>position = (1815, 135)</PROPERTY>
</VARIABLE>
<!-- Variables -->
<VARIABLE TYPE="nature">
    <NAME>node33</NAME>
    <OUTCOME>state0</OUTCOME>
    <OUTCOME>state1</OUTCOME>
    <PROPERTY>position = (1125, 44)</PROPERTY>
</VARIABLE>
<!-- Variables -->
<VARIABLE TYPE="nature">
    <NAME>node34</NAME>
    <OUTCOME>state0</OUTCOME>
    <OUTCOME>state1</OUTCOME>
    <OUTCOME>state2</OUTCOME>
    <PROPERTY>position = (1245, 30)</PROPERTY>
</VARIABLE>
<!-- Variables -->
<VARIABLE TYPE="nature">
    <NAME>node35</NAME>
    <OUTCOME>state0</OUTCOME>
    <OUTCOME>state1</OUTCOME>
    <PROPERTY>position = (1365, 15)</PROPERTY>
</VARIABLE>
<!-- Variables -->
<VARIABLE TYPE="nature">
    <NAME>node36</NAME>
    <OUTCOME>state0</OUTCOME>
    <OUTCOME>state1</OUTCOME>
    <OUTCOME>state2</OUTCOME>
    <OUTCOME>state3</OUTCOME>
    <PROPERTY>position = (1935, 149)</PROPERTY>
</VARIABLE>
<!-- Variables -->
<VARIABLE TYPE="nature">
    <NAME>node37</NAME>
    <OUTCOME>state0</OUTCOME>
    <OUTCOME>state1</OUTCOME>
    <OUTCOME>state2</OUTCOME>
    <PROPERTY>position = (2055, 164)</PROPERTY>
</VARIABLE>
<!-- Variables -->
<VARIABLE TYPE="nature">
    <NAME>node38</NAME>
    <OUTCOME>state0</OUTCOME>
    <OUTCOME>state1</OUTCOME>
    <OUTCOME>state2</OUTCOME>
    <OUTCOME>state3</OUTCOME>
    <PROPERTY>position = (2175, 150)</PROPERTY>
</VARIABLE>
<!-- Variables -->
<VARIABLE TYPE="nature">
    <NAME>node39</NAME>
    <OUTCOME>state0</OUTCOME>
    <OUTCOME>state1</OUTCOME>
    <OUTCOME>state2</OUTCOME>
    <OUTCOME>state3</OUTCOME>
    <PROPERTY>position = (135, 404)</PROPERTY>
</VARIABLE>
<!-- Probability Distributions -->
 <DEFINITION>
      <FOR>node0</FOR>
     <TABLE>0.687 0.07 0.207 0.036 </TABLE>
 </DEFINITION>
 <DEFINITION>
      <FOR>node1</FOR>
     <TABLE>0.4614 0.478 0.0606 </TABLE>
 </DEFINITION>
 <DEFINITION>
      <FOR>node2</FOR>
      <GIVEN>node15</GIVEN>
     <TABLE>0.0025 0.0767 0.7286 0.1922 0.3872 0.0724 0.2952 0.2452 0.0753 0.685 0.0741 0.1656 0.0771 0.039 0.0416 0.8423 </TABLE>
 </DEFINITION>
 <DEFINITION>
      <FOR>node3</FOR>
      <GIVEN>node32</GIVEN>
     <TABLE>0.0454 0.9546 0.8959 0.1041 0.2337 0.7663 0.0641 0.9359 </TABLE>
 </DEFINITION>
 <DEFINITION>
      <FOR>node4</FOR>
      <GIVEN>node25</GIVEN>
     <TABLE>0.385 0.1936 0.4214 0.0775 0.9167 0.0058 0.535 0.4003 0.0647 0.0675 0.7042 0.2283 </TABLE>
 </DEFINITION>
 <DEFINITION>
      <FOR>node5</FOR>
     <TABLE>0.386 0.2855 0.1939 0.1346 </TABLE>
 </DEFINITION>
 <DEFINITION>
      <FOR>node6</FOR>
     <TABLE>0.1651 0.5203 0.1134 0.2012 </TABLE>
 </DEFINITION>
 <DEFINITION>
      <FOR>node7</FOR>
      <GIVEN>node24</GIVEN>
     <TABLE>0.3234 0.4079 0.2687 0.0761 0.6629 0.261 0.1223 0.5294 0.3483 </TABLE>
 </DEFINITION>
 <DEFINITION>
      <FOR>node8</FOR>
      <GIVEN>node0</GIVEN>
     <TABLE>0.3764 0.0092 0.6144 0.0582 0.4571 0.4847 0.6918 0.0451 0.2631 0.0059 0.2257 0.7684 </TABLE>
 </DEFINITION>
 <DEFINITION>
      <FOR>node9</FOR>
      <GIVEN>node29</GIVEN>
      <GIVEN>node35</GIVEN>
     <TABLE>0.4689 0.0487 0.4824 0.1542 0.6161 0.2297 0.4176 0.0517 0.5307 0.0016 0.1526 0.8458 0.0707 0.6855 0.2438 0.1463 0.797 0.0567 </TABLE>
 </DEFINITION>
 <DEFINITION>
      <FOR>node10</FOR>
      <GIVEN>node22</GIVEN>
      <GIVEN>node13</GIVEN>
      <GIVEN>node25</GIVEN>
     <TABLE>0.0357 0.5672 0.3971 0.1028 0.0743 0.8229 0.1719 0.5259 0.3022 0.0846 0.1266 0.7888 0.145 0.6065 0.2485 0.4943 0.2144 0.2913 0.1555 0.6896 0.1549 0.3997 0.5031 0.0972 0.0384 0.039 0.9226 0.2069 0.4676 0.3255 0.0935 0.2195 0.687 0.5716 0.4108 0.0176 0.7946 0.136 0.0694 0.0272 0.0523 0.9205 0.1747 0.7295 0.0958 0.4432 0.2274 0.3294 0.3811 0.3967 0.2222 0.374 0.1379 0.4881 0.2383 0.0999 0.6618 0.5518 0.2369 0.2113 0.8872 0.0835 0.0293 0.5115 0.0202 0.4683 0.1924 0.4422 0.3654 0.5378 0.1754 0.2868 </TABLE>
 </DEFINITION>
 <DEFINITION>
      <FOR>node11</FOR>
     <TABLE>0.5744 0.4256 </TABLE>
 </DEFINITION>
 <DEFINITION>
      <FOR>node12</FOR>
      <GIVEN>node24</GIVEN>
      <GIVEN>node0</GIVEN>
     <TABLE>0.1475 0.1239 0.3022 0.4264 0.069 0.0761 0.1341 0.7208 0.0589 0.1638 0.2857 0.4916 0.1064 0.6669 0.1982 0.0285 0.0099 0.2252 0.0733 0.6916 0.4711 0.3122 0.1587 0.058 0.2107 0.3313 0.2157 0.2423 0.445 0.3676 0.1138 0.0736 0.1023 0.296 0.5461 0.0556 0.1541 0.2472 0.5763 0.0224 0.2657 0.1741 0.5137 0.0465 0.1531 0.0225 0.6582 0.1662 </TABLE>
 </DEFINITION>
 <DEFINITION>
      <FOR>node13</FOR>
      <GIVEN>node33</GIVEN>
     <TABLE>0.6453 0.3547 0.4911 0.5089 </TABLE>
 </DEFINITION>
 <DEFINITION>
      <FOR>node14</FOR>
     <TABLE>0.8297 0.1703 </TABLE>
 </DEFINITION>
 <DEFINITION>
      <FOR>node15</FOR>
      <GIVEN>node6</GIVEN>
     <TABLE>0.2657 0.0451 0.6399 0.0493 0.054 0.7011 0.1794 0.0655 0.1258 0.4454 0.1028 0.326 0.0088 0.1919 0.6166 0.1827 </TABLE>
 </DEFINITION>
 <DEFINITION>
      <FOR>node16</FOR>
      <GIVEN>node32</GIVEN>
     <TABLE>0.3631 0.2034 0.2023 0.2312 0.0894 0.4519 0.0877 0.371 0.1868 0.2023 0.168 0.4429 0.5297 0.1516 0.1283 0.1904 </TABLE>
 </DEFINITION>
 <DEFINITION>
      <FOR>node17</FOR>
      <GIVEN>node5</GIVEN>
     <TABLE>0.4217 0.5783 0.0771 0.9229 0.2975 0.7025 0.7641 0.2359 </TABLE>
 </DEFINITION>
 <DEFINITION>
      <FOR>node18</FOR>
      <GIVEN>node13</GIVEN>
     <TABLE>0.8078 0.1922 0.972 0.028 </TABLE>
 </DEFINITION>
 <DEFINITION>
      <FOR>node19</FOR>
      <GIVEN>node26</GIVEN>
     <TABLE>0.0092 0.1318 0.7306 0.1284 0.0764 0.0258 0.8441 0.0537 0.0084 0.6417 0.2352 0.1147 0.2323 0.1289 0.3568 0.282 </TABLE>
 </DEFINITION>
 <DEFINITION>
      <FOR>node20</FOR>
      <GIVEN>node1</GIVEN>
      <GIVEN>node37</GIVEN>
     <TABLE>0.589 0.2704 0.1406 0.2237 0.4559 0.3204 0.7736 0.1137 0.1127 0.5536 0.0193 0.4271 0.3003 0.3542 0.3455 0.3931 0.0245 0.5824 0.7102 0.2166 0.0732 0.3166 0.1271 0.5563 0.6342 0.0257 0.3401 </TABLE>
 </DEFINITION>
 <DEFINITION>
      <FOR>node21</FOR>
      <GIVEN>node37</GIVEN>
      <GIVEN>node33</GIVEN>
     <TABLE>0.1681 0.318 0.5139 0.2772 0.2044 0.5184 0.4614 0.3444 0.1942 0.2797 0.5239 0.1964 0.0076 0.3516 0.6408 0.6074 0.0842 0.3084 </TABLE>
 </DEFINITION>
 <DEFINITION>
      <FOR>node22</FOR>
     <TABLE>0.1283 0.2695 0.6022 </TABLE>
 </DEFINITION>
 <DEFINITION>
      <FOR>node23</FOR>
     <TABLE>0.206 0.3569 0.4371 </TABLE>
 </DEFINITION>
 <DEFINITION>
      <FOR>node24</FOR>
      <GIVEN>node31</GIVEN>
     <TABLE>0.5898 0.3944 0.0158 0.0373 0.7041 0.2586 0.8589 0.0662 0.0749 0.0966 0.7625 0.1409 </TABLE>
 </DEFINITION>
 <DEFINITION>
      <FOR>node25</FOR>
     <TABLE>0.1913 0.0338 0.1437 0.6312 </TABLE>
 </DEFINITION>
 <DEFINITION>
      <FOR>node26</FOR>
      <GIVEN>node23</GIVEN>
     <TABLE>0.0297 0.6245 0.3004 0.0454 0.1726 0.436 0.3738 0.0176 0.3596 0.0196 0.4964 0.1244 </TABLE>
 </DEFINITION>
 <DEFINITION>
      <FOR>node27</FOR>
      <GIVEN>node2</GIVEN>
      <GIVEN>node11</GIVEN>
     <TABLE>0.7706 0.2294 0.6779 0.3221 0.664 0.336 0.0515 0.9485 0.6211 0.3789 0.0192 0.9808 0.2816 0.7184 0.762 0.238 </TABLE>
 </DEFINITION>
 <DEFINITION>
      <FOR>node28</FOR>
      <GIVEN>node16</GIVEN>
      <GIVEN>node5</GIVEN>
     <TABLE>0.6742 0.3258 0.284 0.716 0.2852 0.7148 0.3331 0.6669 0.997 0.003 0.0109 0.9891 0.8948 0.1052 0.2191 0.7809 0.0509 0.9491 0.7231 0.2769 0.5137 0.4863 0.5419 0.4581 0.4454 0.5546 0.6323 0.3677 0.5569 0.4431 0.7373 0.2627 </TABLE>
 </DEFINITION>
 <DEFINITION>
      <FOR>node29</FOR>
      <GIVEN>node6</GIVEN>
     <TABLE>0.5871 0.3693 0.0436 0.0775 0.236 0.6865 0.5204 0.058 0.4216 0.5123 0.4012 0.0865 </TABLE>
 </DEFINITION>
 <DEFINITION>
      <FOR>node30</FOR>
      <GIVEN>node7</GIVEN>
      <GIVEN>node10</GIVEN>
     <TABLE>0.31 0.2498 0.3843 0.0559 0.0033 0.3909 0.3196 0.2862 0.2736 0.5136 0.0108 0.202 0.592 0.1863 0.1641 0.0576 0.3499 0.3787 0.2594 0.012 0.3133 0.0405 0.0897 0.5565 0.687 0.0132 0.2077 0.0921 0.1891 0.2766 0.0116 0.5227 0.251 0.2326 0.0647 0.4517 </TABLE>
 </DEFINITION>
 <DEFINITION>
      <FOR>node31</FOR>
      <GIVEN>node15</GIVEN>
     <TABLE>0.785 0.1081 0.085 0.0219 0.1115 0.2798 0.439 0.1697 0.1466 0.2159 0.2733 0.3642 0.6267 0.1606 0.2095 0.0032 </TABLE>
 </DEFINITION>
 <DEFINITION>
      <FOR>node32</FOR>
      <GIVEN>node26</GIVEN>
     <TABLE>0.2181 0.3712 0.3137 0.097 0.1942 0.0505 0.6918 0.0635 0.1262 0.1591 0.0463 0.6684 0.2632 0.0677 0.4539 0.2152 </TABLE>
 </DEFINITION>
 <DEFINITION>
      <FOR>node33</FOR>
     <TABLE>0.4988 0.5012 </TABLE>
 </DEFINITION>
 <DEFINITION>
      <FOR>node34</FOR>
     <TABLE>0.2748 0.1833 0.5419 </TABLE>
 </DEFINITION>
 <DEFINITION>
      <FOR>node35</FOR>
     <TABLE>0.6749 0.3251 </TABLE>
 </DEFINITION>
 <DEFINITION>
      <FOR>node36</FOR>
      <GIVEN>node11</GIVEN>
     <TABLE>0.438 0.1435 0.1319 0.2866 0.0151 0.1175 0.7646 0.1028 </TABLE>
 </DEFINITION>
 <DEFINITION>
      <FOR>node37</FOR>
      <GIVEN>node34</GIVEN>
     <TABLE>0.326 0.2251 0.4489 0.28 0.3439 0.3761 0.7374 0.0943 0.1683 </TABLE>
 </DEFINITION>
 <DEFINITION>
      <FOR>node38</FOR>
      <GIVEN>node23</GIVEN>
     <TABLE>0.363 0.1935 0.1762 0.2673 0.0736 0.6572 0.104 0.1652 0.5633 0.0929 0.1533 0.1905 </TABLE>
 </DEFINITION>
 <DEFINITION>
      <FOR>node39</FOR>
      <GIVEN>node7</GIVEN>
      <GIVEN>node5</GIVEN>
      <GIVEN>node14</GIVEN>
     <TABLE>0.2521 0.2382 0.4888 0.0209 0.7883 0.1335 0.0308 0.0474 0.0091 0.207 0.6901 0.0938 0.1622 0.0446 0.5511 0.2421 0.1192 0.1571 0.2015 0.5222 0.254 0.1913 0.1726 0.3821 0.0705 0.239 0.6603 0.0302 0.193 0.0677 0.1638 0.5755 0.3682 0.1093 0.2044 0.3181 0.6988 0.0804 0.0612 0.1596 0.006 0.5101 0.4637 0.0202 0.089 0.5981 0.2845 0.0284 0.124 0.4542 0.1343 0.2875 0.4727 0.1493 0.2065 0.1715 0.4294 0.4516 0.0392 0.0798 0.0564 0.1111 0.5532 0.2793 0.6705 0.0608 0.2588 0.0099 0.6743 0.2473 0.0694 0.009 0.0258 0.336 0.3177 0.3205 0.271 0.2396 0.0747 0.4147 0.3125 0.0777 0.442 0.1678 0.0984 0.3225 0.0691 0.51 0.0857 0.0626 0.2926 0.5591 0.3388 0.0096 0.1515 0.5001 </TABLE>
 </DEFINITION>
</NETWORK>
</BIF>
