<?xml version="1.0" encoding="US-ASCII"?>


<!--
	Bayesian network in XMLBIF v0.3 (BayesNet Interchange Format)
	Produced by JavaBayes (http://www.cs.cmu.edu/~javabayes/
	Number of nodes:40
	Output created Tue Feb 28 15:48:21 CET 2017
-->



<BIF VERSION="0.3">
<NETWORK>
<NAME>InternalNetwork</NAME>
<!-- Variables -->
<VARIABLE TYPE="nature">
    <NAME>node0</NAME>
    <OUTCOME>state0</OUTCOME>
    <OUTCOME>state1</OUTCOME>
    <OUTCOME>state2</OUTCOME>
    <PROPERTY>position = (45, 30)</PROPERTY>
</VARIABLE>
<!-- Variables -->
<VARIABLE TYPE="nature">
    <NAME>node1</NAME>
    <OUTCOME>state0</OUTCOME>
    <OUTCOME>state1</OUTCOME>
    <PROPERTY>position = (165, 44)</PROPERTY>
</VARIABLE>
<!-- Variables -->
<VARIABLE TYPE="nature">
    <NAME>node2</NAME>
    <OUTCOME>state0</OUTCOME>
    <OUTCOME>state1</OUTCOME>
    <OUTCOME>state2</OUTCOME>
    <PROPERTY>position = (15, 150)</PROPERTY>
</VARIABLE>
<!-- Variables -->
<VARIABLE TYPE="nature">
    <NAME>node3</NAME>
    <OUTCOME>state0</OUTCOME>
    <OUTCOME>state1</OUTCOME>
    <PROPERTY>position = (135, 164)</PROPERTY>
</VARIABLE>
<!-- Variables -->
<VARIABLE TYPE="nature">
    <NAME>node4</NAME>
    <OUTCOME>state0</OUTCOME>
    <OUTCOME>state1</OUTCOME>
    <PROPERTY>position = (285, 30)</PROPERTY>
</VARIABLE>
<!-- Variables -->
<VARIABLE TYPE="nature">
    <NAME>node5</NAME>
    <OUTCOME>state0</OUTCOME>
    <OUTCOME>state1</OUTCOME>
    <PROPERTY>position = (405, 15)</PROPERTY>
</VARIABLE>
<!-- Variables -->
<VARIABLE TYPE="nature">
    <NAME>node6</NAME>
    <OUTCOME>state0</OUTCOME>
    <OUTCOME>state1</OUTCOME>
    <OUTCOME>state2</OUTCOME>
    <PROPERTY>position = (255, 150)</PROPERTY>
</VARIABLE>
<!-- Variables -->
<VARIABLE TYPE="nature">
    <NAME>node7</NAME>
    <OUTCOME>state0</OUTCOME>
    <OUTCOME>state1</OUTCOME>
    <OUTCOME>state2</OUTCOME>
    <PROPERTY>position = (375, 135)</PROPERTY>
</VARIABLE>
<!-- Variables -->
<VARIABLE TYPE="nature">
    <NAME>node8</NAME>
    <OUTCOME>state0</OUTCOME>
    <OUTCOME>state1</OUTCOME>
    <PROPERTY>position = (495, 149)</PROPERTY>
</VARIABLE>
<!-- Variables -->
<VARIABLE TYPE="nature">
    <NAME>node9</NAME>
    <OUTCOME>state0</OUTCOME>
    <OUTCOME>state1</OUTCOME>
    <OUTCOME>state2</OUTCOME>
    <PROPERTY>position = (525, 29)</PROPERTY>
</VARIABLE>
<!-- Variables -->
<VARIABLE TYPE="nature">
    <NAME>node10</NAME>
    <OUTCOME>state0</OUTCOME>
    <OUTCOME>state1</OUTCOME>
    <OUTCOME>state2</OUTCOME>
    <PROPERTY>position = (44, 270)</PROPERTY>
</VARIABLE>
<!-- Variables -->
<VARIABLE TYPE="nature">
    <NAME>node11</NAME>
    <OUTCOME>state0</OUTCOME>
    <OUTCOME>state1</OUTCOME>
    <PROPERTY>position = (615, 164)</PROPERTY>
</VARIABLE>
<!-- Variables -->
<VARIABLE TYPE="nature">
    <NAME>node12</NAME>
    <OUTCOME>state0</OUTCOME>
    <OUTCOME>state1</OUTCOME>
    <PROPERTY>position = (164, 284)</PROPERTY>
</VARIABLE>
<!-- Variables -->
<VARIABLE TYPE="nature">
    <NAME>node13</NAME>
    <OUTCOME>state0</OUTCOME>
    <OUTCOME>state1</OUTCOME>
    <PROPERTY>position = (645, 44)</PROPERTY>
</VARIABLE>
<!-- Variables -->
<VARIABLE TYPE="nature">
    <NAME>node14</NAME>
    <OUTCOME>state0</OUTCOME>
    <OUTCOME>state1</OUTCOME>
    <OUTCOME>state2</OUTCOME>
    <PROPERTY>position = (44, 510)</PROPERTY>
</VARIABLE>
<!-- Variables -->
<VARIABLE TYPE="nature">
    <NAME>node15</NAME>
    <OUTCOME>state0</OUTCOME>
    <OUTCOME>state1</OUTCOME>
    <OUTCOME>state2</OUTCOME>
    <PROPERTY>position = (735, 150)</PROPERTY>
</VARIABLE>
<!-- Variables -->
<VARIABLE TYPE="nature">
    <NAME>node16</NAME>
    <OUTCOME>state0</OUTCOME>
    <OUTCOME>state1</OUTCOME>
    <PROPERTY>position = (855, 135)</PROPERTY>
</VARIABLE>
<!-- Variables -->
<VARIABLE TYPE="nature">
    <NAME>node17</NAME>
    <OUTCOME>state0</OUTCOME>
    <OUTCOME>state1</OUTCOME>
    <OUTCOME>state2</OUTCOME>
    <PROPERTY>position = (284, 270)</PROPERTY>
</VARIABLE>
<!-- Variables -->
<VARIABLE TYPE="nature">
    <NAME>node18</NAME>
    <OUTCOME>state0</OUTCOME>
    <OUTCOME>state1</OUTCOME>
    <OUTCOME>state2</OUTCOME>
    <OUTCOME>state3</OUTCOME>
    <PROPERTY>position = (765, 30)</PROPERTY>
</VARIABLE>
<!-- Variables -->
<VARIABLE TYPE="nature">
    <NAME>node19</NAME>
    <OUTCOME>state0</OUTCOME>
    <OUTCOME>state1</OUTCOME>
    <OUTCOME>state2</OUTCOME>
    <PROPERTY>position = (885, 15)</PROPERTY>
</VARIABLE>
<!-- Variables -->
<VARIABLE TYPE="nature">
    <NAME>node20</NAME>
    <OUTCOME>state0</OUTCOME>
    <OUTCOME>state1</OUTCOME>
    <PROPERTY>position = (1005, 29)</PROPERTY>
</VARIABLE>
<!-- Variables -->
<VARIABLE TYPE="nature">
    <NAME>node21</NAME>
    <OUTCOME>state0</OUTCOME>
    <OUTCOME>state1</OUTCOME>
    <PROPERTY>position = (404, 255)</PROPERTY>
</VARIABLE>
<!-- Variables -->
<VARIABLE TYPE="nature">
    <NAME>node22</NAME>
    <OUTCOME>state0</OUTCOME>
    <OUTCOME>state1</OUTCOME>
    <OUTCOME>state2</OUTCOME>
    <OUTCOME>state3</OUTCOME>
    <PROPERTY>position = (975, 149)</PROPERTY>
</VARIABLE>
<!-- Variables -->
<VARIABLE TYPE="nature">
    <NAME>node23</NAME>
    <OUTCOME>state0</OUTCOME>
    <OUTCOME>state1</OUTCOME>
    <OUTCOME>state2</OUTCOME>
    <OUTCOME>state3</OUTCOME>
    <PROPERTY>position = (1095, 164)</PROPERTY>
</VARIABLE>
<!-- Variables -->
<VARIABLE TYPE="nature">
    <NAME>node24</NAME>
    <OUTCOME>state0</OUTCOME>
    <OUTCOME>state1</OUTCOME>
    <PROPERTY>position = (1215, 150)</PROPERTY>
</VARIABLE>
<!-- Variables -->
<VARIABLE TYPE="nature">
    <NAME>node25</NAME>
    <OUTCOME>state0</OUTCOME>
    <OUTCOME>state1</OUTCOME>
    <OUTCOME>state2</OUTCOME>
    <OUTCOME>state3</OUTCOME>
    <PROPERTY>position = (1125, 44)</PROPERTY>
</VARIABLE>
<!-- Variables -->
<VARIABLE TYPE="nature">
    <NAME>node26</NAME>
    <OUTCOME>state0</OUTCOME>
    <OUTCOME>state1</OUTCOME>
    <PROPERTY>position = (1335, 135)</PROPERTY>
</VARIABLE>
<!-- Variables -->
<VARIABLE TYPE="nature">
    <NAME>node27</NAME>
    <OUTCOME>state0</OUTCOME>
    <OUTCOME>state1</OUTCOME>
    <PROPERTY>position = (1245, 30)</PROPERTY>
</VARIABLE>
<!-- Variables -->
<VARIABLE TYPE="nature">
    <NAME>node28</NAME>
    <OUTCOME>state0</OUTCOME>
    <OUTCOME>state1</OUTCOME>
    <PROPERTY>position = (1455, 149)</PROPERTY>
</VARIABLE>
<!-- Variables -->
<VARIABLE TYPE="nature">
    <NAME>node29</NAME>
    <OUTCOME>state0</OUTCOME>
    <OUTCOME>state1</OUTCOME>
    <PROPERTY>position = (15, 390)</PROPERTY>
</VARIABLE>
<!-- Variables -->
<VARIABLE TYPE="nature">
    <NAME>node30</NAME>
    <OUTCOME>state0</OUTCOME>
    <OUTCOME>state1</OUTCOME>
    <PROPERTY>position = (1575, 164)</PROPERTY>
</VARIABLE>
<!-- Variables -->
<VARIABLE TYPE="nature">
    <NAME>node31</NAME>
    <OUTCOME>state0</OUTCOME>
    <OUTCOME>state1</OUTCOME>
    <OUTCOME>state2</OUTCOME>
    <OUTCOME>state3</OUTCOME>
    <PROPERTY>position = (135, 404)</PROPERTY>
</VARIABLE>
<!-- Variables -->
<VARIABLE TYPE="nature">
    <NAME>node32</NAME>
    <OUTCOME>state0</OUTCOME>
    <OUTCOME>state1</OUTCOME>
    <OUTCOME>state2</OUTCOME>
    <OUTCOME>state3</OUTCOME>
    <PROPERTY>position = (1365, 15)</PROPERTY>
</VARIABLE>
<!-- Variables -->
<VARIABLE TYPE="nature">
    <NAME>node33</NAME>
    <OUTCOME>state0</OUTCOME>
    <OUTCOME>state1</OUTCOME>
    <PROPERTY>position = (1485, 29)</PROPERTY>
</VARIABLE>
<!-- Variables -->
<VARIABLE TYPE="nature">
    <NAME>node34</NAME>
    <OUTCOME>state0</OUTCOME>
    <OUTCOME>state1</OUTCOME>
    <OUTCOME>state2</OUTCOME>
    <OUTCOME>state3</OUTCOME>
    <PROPERTY>position = (524, 269)</PROPERTY>
</VARIABLE>
<!-- Variables -->
<VARIABLE TYPE="nature">
    <NAME>node35</NAME>
    <OUTCOME>state0</OUTCOME>
    <OUTCOME>state1</OUTCOME>
    <OUTCOME>state2</OUTCOME>
    <PROPERTY>position = (1695, 150)</PROPERTY>
</VARIABLE>
<!-- Variables -->
<VARIABLE TYPE="nature">
    <NAME>node36</NAME>
    <OUTCOME>state0</OUTCOME>
    <OUTCOME>state1</OUTCOME>
    <PROPERTY>position = (255, 390)</PROPERTY>
</VARIABLE>
<!-- Variables -->
<VARIABLE TYPE="nature">
    <NAME>node37</NAME>
    <OUTCOME>state0</OUTCOME>
    <OUTCOME>state1</OUTCOME>
    <OUTCOME>state2</OUTCOME>
    <OUTCOME>state3</OUTCOME>
    <PROPERTY>position = (1815, 135)</PROPERTY>
</VARIABLE>
<!-- Variables -->
<VARIABLE TYPE="nature">
    <NAME>node38</NAME>
    <OUTCOME>state0</OUTCOME>
    <OUTCOME>state1</OUTCOME>
    <OUTCOME>state2</OUTCOME>
    <OUTCOME>state3</OUTCOME>
    <PROPERTY>position = (1605, 44)</PROPERTY>
</VARIABLE>
<!-- Variables -->
<VARIABLE TYPE="nature">
    <NAME>node39</NAME>
    <OUTCOME>state0</OUTCOME>
    <OUTCOME>state1</OUTCOME>
    <OUTCOME>state2</OUTCOME>
    <OUTCOME>state3</OUTCOME>
    <PROPERTY>position = (1725, 30)</PROPERTY>
</VARIABLE>
<!-- Probability Distributions -->
 <DEFINITION>
      <FOR>node0</FOR>
     <TABLE>0.0564 0.695 0.2486 </TABLE>
 </DEFINITION>
 <DEFINITION>
      <FOR>node1</FOR>
     <TABLE>0.0482 0.9518 </TABLE>
 </DEFINITION>
 <DEFINITION>
      <FOR>node2</FOR>
      <GIVEN>node20</GIVEN>
     <TABLE>0.6027 0.2445 0.1528 0.0987 0.3861 0.5152 </TABLE>
 </DEFINITION>
 <DEFINITION>
      <FOR>node3</FOR>
      <GIVEN>node15</GIVEN>
     <TABLE>0.2617 0.7383 0.3633 0.6367 0.9114 0.0886 </TABLE>
 </DEFINITION>
 <DEFINITION>
      <FOR>node4</FOR>
     <TABLE>0.9303 0.0697 </TABLE>
 </DEFINITION>
 <DEFINITION>
      <FOR>node5</FOR>
     <TABLE>0.4597 0.5403 </TABLE>
 </DEFINITION>
 <DEFINITION>
      <FOR>node6</FOR>
      <GIVEN>node23</GIVEN>
     <TABLE>0.4829 0.0295 0.4876 0.0254 0.3156 0.659 0.3725 0.121 0.5065 0.2957 0.6746 0.0297 </TABLE>
 </DEFINITION>
 <DEFINITION>
      <FOR>node7</FOR>
      <GIVEN>node36</GIVEN>
     <TABLE>0.6566 0.3407 0.0027 0.9393 0.0574 0.0033 </TABLE>
 </DEFINITION>
 <DEFINITION>
      <FOR>node8</FOR>
      <GIVEN>node35</GIVEN>
     <TABLE>0.0456 0.9544 0.1084 0.8916 0.5241 0.4759 </TABLE>
 </DEFINITION>
 <DEFINITION>
      <FOR>node9</FOR>
     <TABLE>0.1101 0.1667 0.7232 </TABLE>
 </DEFINITION>
 <DEFINITION>
      <FOR>node10</FOR>
      <GIVEN>node19</GIVEN>
      <GIVEN>node17</GIVEN>
     <TABLE>0.2532 0.6974 0.0494 0.4874 0.126 0.3866 0.5558 0.3035 0.1407 0.4813 0.0563 0.4624 0.0962 0.3673 0.5365 0.5357 0.3532 0.1111 0.8908 0.1028 0.0064 0.7046 0.1923 0.1031 0.1034 0.0798 0.8168 </TABLE>
 </DEFINITION>
 <DEFINITION>
      <FOR>node11</FOR>
      <GIVEN>node3</GIVEN>
     <TABLE>0.2542 0.7458 0.0452 0.9548 </TABLE>
 </DEFINITION>
 <DEFINITION>
      <FOR>node12</FOR>
      <GIVEN>node39</GIVEN>
      <GIVEN>node5</GIVEN>
     <TABLE>0.0255 0.9745 0.9669 0.0331 0.1337 0.8663 0.4085 0.5915 0.6291 0.3709 0.7354 0.2646 0.1587 0.8413 0.5055 0.4945 </TABLE>
 </DEFINITION>
 <DEFINITION>
      <FOR>node13</FOR>
     <TABLE>0.6182 0.3818 </TABLE>
 </DEFINITION>
 <DEFINITION>
      <FOR>node14</FOR>
      <GIVEN>node25</GIVEN>
      <GIVEN>node7</GIVEN>
      <GIVEN>node1</GIVEN>
      <GIVEN>node21</GIVEN>
     <TABLE>0.0717 0.6356 0.2927 0.3152 0.1179 0.5669 0.2131 0.0913 0.6956 0.1289 0.5447 0.3264 0.6316 0.2968 0.0716 0.0136 0.1885 0.7979 0.5071 0.1572 0.3357 0.1983 0.7994 0.0023 0.4075 0.4667 0.1258 0.455 0.1411 0.4039 0.2547 0.0234 0.7219 0.1813 0.2065 0.6122 0.1908 0.1682 0.641 0.9324 0.0166 0.051 0.0655 0.4372 0.4973 0.3596 0.3122 0.3282 0.6906 0.2348 0.0746 0.3826 0.1083 0.5091 0.3538 0.5634 0.0828 0.221 0.5759 0.2031 0.5702 0.3029 0.1269 0.1662 0.5915 0.2423 0.8382 0.1448 0.017 0.0563 0.056 0.8877 0.1883 0.2683 0.5434 0.3818 0.2896 0.3286 0.1307 0.3569 0.5124 0.2712 0.0118 0.717 0.481 0.222 0.297 0.0806 0.3855 0.5339 0.1734 0.1267 0.6999 0.2576 0.6439 0.0985 0.3935 0.5454 0.0611 0.4632 0.314 0.2228 0.0432 0.6579 0.2989 0.3197 0.007 0.6733 0.0891 0.6072 0.3037 0.023 0.0714 0.9056 0.3921 0.475 0.1329 0.1512 0.2956 0.5532 0.0423 0.7885 0.1692 0.4116 0.4034 0.185 0.0042 0.7336 0.2622 0.6884 0.0452 0.2664 0.6907 0.008 0.3013 0.1595 0.0965 0.744 0.1676 0.7747 0.0577 0.7815 0.0579 0.1606 </TABLE>
 </DEFINITION>
 <DEFINITION>
      <FOR>node15</FOR>
      <GIVEN>node17</GIVEN>
     <TABLE>0.3679 0.0335 0.5986 0.6168 0.1447 0.2385 0.1811 0.1344 0.6845 </TABLE>
 </DEFINITION>
 <DEFINITION>
      <FOR>node16</FOR>
      <GIVEN>node39</GIVEN>
     <TABLE>0.7326 0.2674 0.0728 0.9272 0.8139 0.1861 0.1646 0.8354 </TABLE>
 </DEFINITION>
 <DEFINITION>
      <FOR>node17</FOR>
      <GIVEN>node33</GIVEN>
      <GIVEN>node12</GIVEN>
     <TABLE>0.0019 0.4968 0.5013 0.0527 0.8592 0.0881 0.0226 0.0844 0.893 0.5108 0.4073 0.0819 </TABLE>
 </DEFINITION>
 <DEFINITION>
      <FOR>node18</FOR>
     <TABLE>0.1139 0.5425 0.2837 0.0599 </TABLE>
 </DEFINITION>
 <DEFINITION>
      <FOR>node19</FOR>
     <TABLE>0.71 0.0657 0.2243 </TABLE>
 </DEFINITION>
 <DEFINITION>
      <FOR>node20</FOR>
     <TABLE>0.352 0.648 </TABLE>
 </DEFINITION>
 <DEFINITION>
      <FOR>node21</FOR>
      <GIVEN>node37</GIVEN>
      <GIVEN>node38</GIVEN>
     <TABLE>0.2161 0.7839 0.0658 0.9342 0.1774 0.8226 0.0179 0.9821 0.6157 0.3843 0.0551 0.9449 0.0125 0.9875 0.3222 0.6778 0.5147 0.4853 0.3452 0.6548 0.0567 0.9433 0.1795 0.8205 0.334 0.666 0.6978 0.3022 0.8204 0.1796 0.5533 0.4467 </TABLE>
 </DEFINITION>
 <DEFINITION>
      <FOR>node22</FOR>
      <GIVEN>node11</GIVEN>
     <TABLE>0.2768 0.6166 0.087 0.0196 0.6222 0.0359 0.2502 0.0917 </TABLE>
 </DEFINITION>
 <DEFINITION>
      <FOR>node23</FOR>
      <GIVEN>node2</GIVEN>
     <TABLE>0.3667 0.1038 0.0471 0.4824 0.1738 0.0688 0.1461 0.6113 0.6181 0.089 0.0095 0.2834 </TABLE>
 </DEFINITION>
 <DEFINITION>
      <FOR>node24</FOR>
      <GIVEN>node33</GIVEN>
     <TABLE>0.3854 0.6146 0.8613 0.1387 </TABLE>
 </DEFINITION>
 <DEFINITION>
      <FOR>node25</FOR>
     <TABLE>0.0544 0.1925 0.341 0.4121 </TABLE>
 </DEFINITION>
 <DEFINITION>
      <FOR>node26</FOR>
      <GIVEN>node1</GIVEN>
     <TABLE>0.7929 0.2071 0.1593 0.8407 </TABLE>
 </DEFINITION>
 <DEFINITION>
      <FOR>node27</FOR>
     <TABLE>0.6425 0.3575 </TABLE>
 </DEFINITION>
 <DEFINITION>
      <FOR>node28</FOR>
      <GIVEN>node35</GIVEN>
     <TABLE>0.2908 0.7092 0.9424 0.0576 0.9806 0.0194 </TABLE>
 </DEFINITION>
 <DEFINITION>
      <FOR>node29</FOR>
      <GIVEN>node32</GIVEN>
      <GIVEN>node27</GIVEN>
      <GIVEN>node4</GIVEN>
     <TABLE>0.246 0.754 0.8969 0.1031 0.1169 0.8831 0.0217 0.9783 0.1379 0.8621 0.837 0.163 0.0316 0.9684 0.769 0.231 0.9652 0.0348 0.5684 0.4316 0.6634 0.3366 0.6385 0.3615 0.4205 0.5795 0.8693 0.1307 0.5181 0.4819 0.8168 0.1832 </TABLE>
 </DEFINITION>
 <DEFINITION>
      <FOR>node30</FOR>
      <GIVEN>node32</GIVEN>
     <TABLE>0.6574 0.3426 0.1854 0.8146 0.437 0.563 0.8288 0.1712 </TABLE>
 </DEFINITION>
 <DEFINITION>
      <FOR>node31</FOR>
      <GIVEN>node13</GIVEN>
      <GIVEN>node15</GIVEN>
      <GIVEN>node18</GIVEN>
     <TABLE>0.3379 0.5261 0.0059 0.1301 0.2293 0.3278 0.2027 0.2402 0.3968 0.0665 0.2762 0.2605 0.1392 0.7739 0.0311 0.0558 0.0742 0.3767 0.0367 0.5124 0.4629 0.1424 0.3572 0.0375 0.0448 0.1911 0.2444 0.5197 0.4427 0.0734 0.3574 0.1265 0.1069 0.0531 0.8375 0.0025 0.1589 0.3216 0.0466 0.4729 0.3724 0.0587 0.162 0.4069 0.0487 0.4266 0.0709 0.4538 0.4276 0.4721 0.0248 0.0755 0.0141 0.5582 0.4 0.0277 0.1849 0.6769 0.0642 0.074 0.2145 0.0288 0.2114 0.5453 0.5918 0.3424 0.052 0.0138 0.0125 0.4832 0.2323 0.272 0.5457 0.191 0.2239 0.0394 0.4325 0.3627 0.0349 0.1699 0.3408 0.0249 0.5539 0.0804 0.1526 0.6294 0.0318 0.1862 0.4397 0.0643 0.2469 0.2491 0.4077 0.0802 0.1621 0.35 </TABLE>
 </DEFINITION>
 <DEFINITION>
      <FOR>node32</FOR>
     <TABLE>0.3854 0.1086 0.2385 0.2675 </TABLE>
 </DEFINITION>
 <DEFINITION>
      <FOR>node33</FOR>
     <TABLE>0.633 0.367 </TABLE>
 </DEFINITION>
 <DEFINITION>
      <FOR>node34</FOR>
      <GIVEN>node21</GIVEN>
      <GIVEN>node27</GIVEN>
     <TABLE>0.5657 0.0592 0.3302 0.0449 0.082 0.0395 0.4135 0.465 0.2121 0.1433 0.4657 0.1789 0.1754 0.1352 0.0332 0.6562 </TABLE>
 </DEFINITION>
 <DEFINITION>
      <FOR>node35</FOR>
      <GIVEN>node29</GIVEN>
     <TABLE>0.4604 0.0015 0.5381 0.329 0.3524 0.3186 </TABLE>
 </DEFINITION>
 <DEFINITION>
      <FOR>node36</FOR>
      <GIVEN>node9</GIVEN>
      <GIVEN>node2</GIVEN>
      <GIVEN>node5</GIVEN>
     <TABLE>0.5581 0.4419 0.6828 0.3172 0.8593 0.1407 0.9877 0.0123 0.8212 0.1788 0.7869 0.2131 0.7285 0.2715 0.7993 0.2007 0.2344 0.7656 0.1804 0.8196 0.8265 0.1735 0.5155 0.4845 0.5027 0.4973 0.8956 0.1044 0.6085 0.3915 0.1947 0.8053 0.5981 0.4019 0.5984 0.4016 </TABLE>
 </DEFINITION>
 <DEFINITION>
      <FOR>node37</FOR>
      <GIVEN>node0</GIVEN>
     <TABLE>0.6501 0.0437 0.2578 0.0484 0.5868 0.304 0.0907 0.0185 0.1108 0.4586 0.3448 0.0858 </TABLE>
 </DEFINITION>
 <DEFINITION>
      <FOR>node38</FOR>
     <TABLE>0.3343 0.0257 0.2657 0.3743 </TABLE>
 </DEFINITION>
 <DEFINITION>
      <FOR>node39</FOR>
     <TABLE>0.0442 0.1173 0.7043 0.1342 </TABLE>
 </DEFINITION>
</NETWORK>
</BIF>
